label,emb_0,emb_1,emb_2,emb_3,emb_4,emb_5,emb_6,emb_7,emb_8,emb_9,emb_10,emb_11,emb_12,emb_13,emb_14,emb_15,emb_16,emb_17,emb_18,emb_19,emb_20,emb_21,emb_22,emb_23,emb_24,emb_25,emb_26,emb_27,emb_28,emb_29,emb_30,emb_31,emb_32,emb_33,emb_34,emb_35,emb_36,emb_37,emb_38,emb_39,emb_40,emb_41,emb_42,emb_43,emb_44,emb_45,emb_46,emb_47,emb_48,emb_49,emb_50,emb_51,emb_52,emb_53,emb_54,emb_55,emb_56,emb_57,emb_58,emb_59,emb_60,emb_61,emb_62,emb_63,emb_64,emb_65,emb_66,emb_67,emb_68,emb_69,emb_70,emb_71,emb_72,emb_73,emb_74,emb_75,emb_76,emb_77,emb_78,emb_79,emb_80,emb_81,emb_82,emb_83,emb_84,emb_85,emb_86,emb_87,emb_88,emb_89,emb_90,emb_91,emb_92,emb_93,emb_94,emb_95,emb_96,emb_97,emb_98,emb_99,disease_status
Sample_GSM1317896,-0.029829897980351888,0.008706559868450137,-0.01889789877157164,-0.0006260886658183581,0.00015288218427066846,0.1384968823749443,0.036394746762478856,-0.04424261909751289,-0.07760662840762224,0.0031124786577268106,0.10847337893095599,-0.11844139222275861,0.04131799370620946,0.030543090623032343,0.012823957342597015,-0.07446391815438937,-0.013388190048632462,-0.03231141333821249,-0.03316667962229177,-0.00784963049031041,0.14714672340172522,0.06888568709731596,-0.04872043963762536,0.03265656255488405,0.003740168362626643,-0.004340445717056072,0.011277175858303842,0.024561184894502104,-0.05495258702332571,-0.004624889182292742,0.014385311505653467,0.011471277874152516,-0.08770932204369909,0.08931272275794336,-0.09587436433908235,0.12140396272400356,0.0228249724278805,0.03100398406524314,-0.07448435271818392,-0.06803340609665837,-0.03282643348520193,-0.06292656426824542,0.0935493904736034,0.019332435065660708,-0.1293431421638156,-0.051586270875087444,-0.07309735629409327,-0.09000056576424491,0.010382496933016412,0.045330008675078054,0.009824315898848702,0.03517974725852545,-0.03298255581180531,0.07505786761278707,-0.008608521034739386,-0.03806724919066052,-0.09059684807867545,-0.08384955904745497,-0.028098230120050638,-0.06854866855974277,-0.08476240537351229,-0.023248152458582614,0.0354038272112256,-0.1139493286559005,-0.05296904614517349,-0.0914997973665194,-0.02391909423814815,-0.0055668171179301075,-0.042271637085544204,0.017840008076009814,0.08534058686257687,-0.013332722097745813,0.04331005028414517,0.05394918303501636,-0.057363143287246614,0.03968514111481636,-0.03964545405543428,0.061361392680942824,-0.10290657529241966,-0.0375874529399433,-0.009136921970849018,0.10969404249512266,-0.005592602511720975,-0.09547231758501566,-0.005377329935216525,0.054343628575153895,-0.011411306531794082,0.016522158495814343,-0.013591238596704918,-0.02188095743511563,-0.06165810985244829,-0.0040666648808364,0.011080728848096494,0.027487759052084875,0.01596732881013491,0.05685655720681276,-0.05676555544455691,0.06085977568991937,-0.05755474318976631,0.00413948144017337,0
Sample_GSM1317897,-0.0283330505149164,0.009941362110024582,-0.01746985952999205,-0.0023376017692160215,-0.0002748198904826971,0.1363191657180795,0.03435521902694878,-0.04781465806810707,-0.07382846349397663,0.003645181535329024,0.10443732349561094,-0.11742216804254374,0.04087236839449822,0.030865542179350867,0.012904445614274522,-0.07397667505578773,-0.010752063330702605,-0.030243254466925978,-0.03171308100030205,-0.00791136544876657,0.14419756956583923,0.06740944108820253,-0.04966915049994888,0.03102503278556607,0.003840211303720583,-0.002486009200025479,0.009595870076741776,0.021169397930480675,-0.0543492482500991,-0.002097892289442609,0.01658058669895098,0.012284394779385359,-0.08662451360908348,0.08945363657851094,-0.09128365896751821,0.12244308846063369,0.022511612517651863,0.030951032020596125,-0.07227227003242546,-0.06676036202089002,-0.032496658024021526,-0.0637960036239487,0.09552739197981436,0.015080849050746374,-0.12965277425339328,-0.05116796049560525,-0.07381730377751199,-0.09196757668134349,0.008440203832362044,0.04527217344642146,0.009354770923070611,0.03926827773799157,-0.03163487678082339,0.0731111787517615,-0.004575389327307718,-0.037557683099405284,-0.08757498421864673,-0.0812875634410151,-0.028779216920376775,-0.06563465101122883,-0.08168421390488394,-0.02385273841652597,0.03773211608780639,-0.11104579179273731,-0.05236067815256254,-0.0892866872732971,-0.023190277275533983,-0.00637608432000112,-0.04548568845821176,0.018444714267332907,0.08606713607260387,-0.011653635916557051,0.04327366783376568,0.05379410170891835,-0.05455346780775027,0.03595832249202904,-0.03839388171039788,0.05912503379349615,-0.10333591006489289,-0.03692791817959444,-0.010172316551705701,0.10472035061230633,-0.002580488626873949,-0.09632546622363317,-0.0023830108633808664,0.05389390286634118,-0.00968927272513245,0.016874715528232147,-0.014906103234772306,-0.02243434857074289,-0.06233407369758479,-0.0043045877488396105,0.009518058107129664,0.028368617332604103,0.016272359760273882,0.057786158214440504,-0.05686809041636043,0.05960382647318034,-0.05808706379739598,0.004714897963755763,0
Sample_GSM1317898,-0.028327385011817176,0.008403127971853278,-0.017324312408367733,-0.0019148239186659748,0.0011987816073592767,0.13435178912683796,0.034920634764641,-0.046321721405552005,-0.0722573876869478,0.006336253578897778,0.10337613683623041,-0.1174375028638677,0.03660522375796146,0.02993331250243571,0.010208722052981801,-0.07761312481942212,-0.010941614171461255,-0.030404261110576033,-0.029762621833027456,-0.0059254551804586745,0.14201172940171355,0.06875712144911139,-0.05067742952778574,0.03127812309902765,0.004598426961684397,-0.002960322841396668,0.008895723976951462,0.021472669459077005,-0.05428389504817369,0.0007110539444301817,0.015835443456631376,0.014465743376079322,-0.0817493148366384,0.08943156220039937,-0.09495287574028345,0.11942161826013667,0.02298059646644076,0.029973977344031472,-0.07001398319708947,-0.06582733453262292,-0.030611186306299006,-0.06500048208936561,0.09425347402209798,0.015662832210894012,-0.12615967174627782,-0.053092908601882295,-0.0708501771715762,-0.09110733679590607,0.007923113134595192,0.04677837381861871,0.005605139566205571,0.037403327786418,-0.03148155733995592,0.07610776560756327,-0.00585338462758317,-0.039156613012341766,-0.08836120058767584,-0.08031367896891461,-0.028317160215771464,-0.06642516507835262,-0.07882571655817928,-0.025867277266374847,0.039696024856227495,-0.11392373598524541,-0.05332937823077096,-0.08976845592136382,-0.023035221794636664,-0.00461290420806663,-0.043900281442125155,0.01603326024363567,0.08540673012495498,-0.011201322844600122,0.04173004762158535,0.05259341198064344,-0.05699538109719512,0.0363918458168754,-0.03653418225965674,0.05517204863230479,-0.1037584001488212,-0.03712539733594006,-0.01184436892543994,0.1059584914323011,-0.0025610400463608055,-0.09809251944918643,-0.00561197801087184,0.0547605632358646,-0.012160164004304837,0.015459401331119638,-0.01362577673182558,-0.024705797949884117,-0.059631541922075815,-0.0005826713144356665,0.01175241179928848,0.027627031237130922,0.016887724788549555,0.0610905431670868,-0.05814249963746881,0.059826353625973196,-0.05857587539914972,0.007605183356567214,0
Sample_GSM1317899,-0.02949028575599765,0.008150912083374316,-0.0180230600030534,-0.00167194865442825,0.0029000057414193957,0.13448200318779435,0.03534289705849311,-0.04788644810692937,-0.07215278019713288,0.004761986768354924,0.10319667348572797,-0.11705038451674518,0.03653204525506007,0.03247629112703262,0.010648369858512101,-0.07880093231268424,-0.011581297183908944,-0.03118966045244739,-0.029122164378316728,-0.007658357666714046,0.142565338092513,0.07026778262818993,-0.05178832024728933,0.03223976824848231,0.0044371082516140945,-0.002667450286801254,0.009966301095686528,0.021141484680039343,-0.05457145548251891,7.171685579024572e-05,0.015112981114784133,0.01395443291180593,-0.08096686516799222,0.08886782187813752,-0.09511734633325518,0.11919186640341278,0.023305151575173357,0.02849694766920918,-0.07027528337286969,-0.0647705217787026,-0.031470524240444754,-0.06430043345524329,0.09317030939778716,0.01422892380141067,-0.12735630573124412,-0.05237413179161452,-0.07005021386040954,-0.09146294594294338,0.009909912318305137,0.046987495479051074,0.005981712101983428,0.03574175704946184,-0.03115555719534128,0.0760164057614963,-0.003906513431929421,-0.037903353759015136,-0.09025251306509316,-0.08094630831887158,-0.029010780838093737,-0.06767603302839201,-0.08029855518288202,-0.02536297998496322,0.03645425185594957,-0.11397889840729569,-0.050388495633309376,-0.09263791160273416,-0.023335616725134397,-0.005330705504777643,-0.04500448421227069,0.01653903545367434,0.08542653654437052,-0.013102090028150425,0.04161535214362869,0.05228015232271934,-0.057525621955125866,0.036871398401825455,-0.038011664958405446,0.0556112953050745,-0.1031697761363541,-0.0359250308411922,-0.013410245922223063,0.1082919273721687,-0.0036259705370547033,-0.09708975834110777,-0.007136268936820812,0.05504147832182293,-0.014075817792426181,0.01745888817966805,-0.014660769815676761,-0.02409534707420943,-0.0595666955654602,0.00041090395435287695,0.010266559221785881,0.02833308264954308,0.01728937140514194,0.058418852916599776,-0.05733042543025133,0.059888309517146486,-0.05733107721511566,0.007182565646548075,0
Sample_GSM1317900,-0.029307740330091772,0.008142106933863202,-0.01908076768045954,-0.0014479409876941031,-0.0017121894416464967,0.13660096114103243,0.0339597220314679,-0.04599065332865865,-0.08093143852137658,0.0046380833212775665,0.10722136291648755,-0.11818817571305784,0.04427233113239281,0.030594037927085288,0.011690939759003755,-0.07187191914874229,-0.010837114951771948,-0.03425746675125469,-0.03432672462953617,-0.006438735861431984,0.15065175107560638,0.06875403785445346,-0.05130269857821227,0.0319106450205586,0.0030804362608585815,-0.003972009944658922,0.011099004483996032,0.022707930013698505,-0.055384687495077696,-0.0037016733967431934,0.016635322835952926,0.011579354858879232,-0.08997880345070858,0.09029867015886192,-0.09274652781677216,0.12142519268394496,0.022612073013002148,0.03155971528785894,-0.07581769598712473,-0.06897364929904246,-0.03320934844974293,-0.061858835238358036,0.09320445890203156,0.01775089568325721,-0.13151062727086657,-0.050587200776512145,-0.07495200230900631,-0.0893970220046266,0.009636309834095509,0.048131189524895715,0.01326022098750395,0.035228631948043994,-0.033747761551119825,0.07158155041903351,-0.007963208804633283,-0.03782789240154378,-0.08913719669521823,-0.08244538957930916,-0.027824672449485156,-0.06869867745023565,-0.08446307423453522,-0.02209478103299775,0.038848711228800244,-0.11170776831500749,-0.052571424208708396,-0.09095626829250969,-0.02678633493355587,-0.00829872551552068,-0.046438488473970155,0.01961876850341621,0.08594015053942632,-0.011538543907629982,0.04671970435846676,0.05630737248074978,-0.057127784430558104,0.03814196391815632,-0.039612647180012665,0.06208495325255524,-0.10099562915123547,-0.0382497591893124,-0.007230261234249309,0.10666307427235903,-0.002943842480628454,-0.09465981484325228,-0.000965556523192031,0.05177484717164855,-0.011644001055625732,0.017612006989667365,-0.014614394935422107,-0.01920389841975187,-0.06320925070762792,-0.0034419986176063206,0.009692481870017124,0.02697766738243806,0.017358132820865624,0.057293604034341604,-0.05893847884870108,0.06099133645787145,-0.056956647107654294,0.0033911592936344175,0
Sample_GSM1317901,-0.028146356539884065,0.009712835262827782,-0.017316475997071524,-0.0004556315955046369,-0.0015336478103591552,0.1354624867340402,0.03586300739974475,-0.04666320330988925,-0.07547367862529487,0.005001676374697576,0.10785962821341442,-0.11736542836356219,0.041306229562225974,0.030238117033360563,0.01096791045787782,-0.0746310617948067,-0.011165713145033705,-0.03034858197920512,-0.03193230273392851,-0.0077190835678066965,0.14612030894482403,0.06795206652748333,-0.05080329212579172,0.03129391146070256,0.002367655133185266,-0.002740191778315814,0.012105639126352154,0.019139386668458803,-0.05486905326387687,0.00032372656106359937,0.015130900009463554,0.013394382824248461,-0.08777985832376548,0.08818471594428472,-0.09123571900944319,0.12325627240415407,0.021745617238758487,0.0299260344068995,-0.07476439212058393,-0.06603277743589606,-0.03288459535710345,-0.06438122173058872,0.09412558729561571,0.01581415892769915,-0.12871625769290787,-0.052219281663028506,-0.07490878121480916,-0.09085137187857845,0.008515267069708482,0.04594440979760766,0.00998051904321876,0.03814618295570475,-0.03405435080147624,0.07531762943563909,-0.0057186038450219535,-0.037892934132773025,-0.0902911172382045,-0.08286169997921529,-0.029472469347882,-0.0673837027263098,-0.08080480056101351,-0.02314339768279792,0.03735062153458417,-0.11192951687469332,-0.05139923664097861,-0.08853414704696916,-0.02228008233994253,-0.006576137042012671,-0.04669107420723867,0.018715807690142524,0.08609795163222901,-0.012333917140274544,0.04373335240178171,0.05330134455344149,-0.05632782117924125,0.039286240079979745,-0.03524902100373394,0.05884757295357697,-0.10360466004373904,-0.03869476574645698,-0.011320798149843977,0.10540626159088876,-0.0022691450546923004,-0.09538941413397471,-0.002530953915021832,0.05355020011535773,-0.010119771669818131,0.017759540387818244,-0.013145432901490553,-0.024427227008425128,-0.06381030613061069,-0.005122624404619511,0.009271216828908841,0.029222787988782632,0.016306785356197038,0.05874419889779258,-0.05813180601967179,0.05764157625926632,-0.05820561053173047,0.004684952867435169,0
Sample_GSM1317902,-0.030963686270157297,0.00849980912977707,-0.01651272867322688,-0.002149921208271203,0.0016469793522995361,0.13624426552429725,0.035304402154150476,-0.048194910054275765,-0.07230298347219398,0.0037431222373328753,0.10393950370449836,-0.11842401450548867,0.03796423408308398,0.03160422513758369,0.010098781735643915,-0.07918564544506174,-0.009348923931912825,-0.03114713119219725,-0.030019674328915228,-0.00840587888672633,0.14363251480589748,0.07187065117107755,-0.05320622669459381,0.033403811604448,0.0038253031658907416,-0.004155803630299806,0.008742119875254629,0.02174672965338074,-0.05453497878200321,0.00036719867466935007,0.015991159390666494,0.014917740413045067,-0.08179865295415911,0.09049446548122773,-0.09432774100786942,0.12181525551107186,0.02218306401562339,0.03093451387500074,-0.07157575729943223,-0.06582827027961896,-0.03132039117429563,-0.06602700936280237,0.09433541451169052,0.014419698032576195,-0.12855534276287148,-0.052004542144474336,-0.07086129297546466,-0.091207260716583,0.007468824123049955,0.046160781306553815,0.006424457203377023,0.03732354034399966,-0.03353837606113965,0.0779397464912942,-0.003587155808985063,-0.038962020300336214,-0.09330415382262086,-0.08102908936689222,-0.02883754411859393,-0.06875559663317132,-0.08055020909787985,-0.025946902442852183,0.03723334355506411,-0.11609080772657784,-0.049532543535211665,-0.09065375316180169,-0.023641706311144064,-0.007127241133563711,-0.045481965198976584,0.016376111966842282,0.08612702014220841,-0.01325240530580892,0.0415820602885448,0.053806889396033966,-0.05721727315888244,0.039167428197259116,-0.037909272924311545,0.058615618443634096,-0.10714873197706799,-0.03433535299970363,-0.013001424782173854,0.10828613124875756,-0.003673643442100039,-0.09911176518187867,-0.005991401990450694,0.05793217131209056,-0.012162174439608224,0.016619552539533212,-0.013876620788228,-0.024474529028580213,-0.06286490498861079,-0.0015055291051595857,0.009538752063953364,0.02656231516309315,0.01673099007328605,0.05909743708099064,-0.057248877191040375,0.05986874385844113,-0.05591088880673564,0.008174712130084852,0
Sample_GSM1317903,-0.031156914005315527,0.009001152706446558,-0.015683058409506886,-0.0019148463212008441,0.002121175943769399,0.1354229984969799,0.03479247360156274,-0.048244166907826985,-0.07015737715887703,0.004189181579853147,0.10302597491459264,-0.11621245612530924,0.037262656891917816,0.030938360458691853,0.009350299337991757,-0.0779338811421974,-0.009819653536928846,-0.030490976871869847,-0.03003330572019191,-0.00807535689432529,0.14206009801904318,0.07054981852400269,-0.05280329439200687,0.031191183512034194,0.004644224405035654,-0.0031591506510946885,0.008201729768300218,0.02062054364437985,-0.05381329059419819,0.00048637531044084056,0.016760910217753364,0.013735371896233594,-0.08169546123292944,0.08941870583396203,-0.09348041854734836,0.12022748249955975,0.0225226095951142,0.03115989398391992,-0.07106059405682244,-0.0657403518510722,-0.03113173289386283,-0.06438629078973138,0.09353606476584005,0.014139545132911652,-0.12786987507934824,-0.05104689853889713,-0.07118888676230935,-0.09015470369880453,0.0081455961024032,0.04637208595064867,0.006802193945681626,0.03600294787300647,-0.03231050837701011,0.07676298300472922,-0.0042611613950410705,-0.038171867010820135,-0.0921780559441617,-0.08046839299123865,-0.02825180575892736,-0.06737999797083243,-0.08072069321462327,-0.024563666299281833,0.036975998981749705,-0.11426317174893444,-0.05135815057108916,-0.09026346476019122,-0.023357626276257728,-0.006398090104327443,-0.04601131559048939,0.015340933062700532,0.08628473656064645,-0.01193953431423187,0.04017926721717946,0.05261106393750076,-0.056636533342516227,0.03764304558633319,-0.03781752207624165,0.057420311544410935,-0.1059500238593059,-0.03412680833275562,-0.012974940376399936,0.1074670085207883,-0.003598999914362144,-0.09779942309122958,-0.0055349954356386675,0.0576838502505924,-0.012379793418635154,0.015502886206512485,-0.014174688549596007,-0.024898205847197482,-0.061778020005219855,-0.0017439674556501388,0.008263925427159612,0.02775596189581639,0.016994763477111957,0.05976023253527599,-0.05696586713005724,0.058951784302467954,-0.056630992065395715,0.008512182270790453,0
Sample_GSM1317904,-0.02863977243609386,0.008494793382582978,-0.015511748508674358,-0.0022214621530514834,0.0036258509535687282,0.13451658213963438,0.03612241337345072,-0.049735209208174015,-0.06711501653110243,0.007058269303893207,0.10105249840778557,-0.11828550931594643,0.03441343634450444,0.03139461956930103,0.006736444936926437,-0.08186372416463665,-0.010136075729845366,-0.030581117897114683,-0.02824760567111564,-0.008035511330391824,0.1412411692825652,0.07194625395558231,-0.05203829834990843,0.03156184275664443,0.007207928462674864,-0.004428197138306129,0.006183503787887483,0.021414297928584587,-0.053840456822578146,0.0009253562728945401,0.01568763720120221,0.014921960022653134,-0.07734492322454303,0.08956032436723561,-0.09412949398052912,0.11708921097025157,0.022727619190152086,0.03094678041722605,-0.06759058382644945,-0.06437958849636496,-0.030428219067419115,-0.0675079313456617,0.09248931320063758,0.013892388563004216,-0.12650379071705659,-0.050981005695588166,-0.06964667961710712,-0.09182010937254509,0.00947142559012639,0.04709450355656131,0.005550069671863031,0.03502729898889512,-0.032857674014309154,0.07787274133243813,-0.005986040711285562,-0.04108089400692568,-0.09058874516061358,-0.07921247564692087,-0.02952737277166991,-0.06770081808930252,-0.07650207509827196,-0.025492844673607108,0.03991124997773024,-0.1165541510814478,-0.05306828811912073,-0.09039302500346079,-0.023692184507562664,-0.004427094880340996,-0.04290066299131542,0.013266536860119662,0.08845178531985165,-0.012471340105836698,0.041527432683751885,0.0532515241982055,-0.057629466162907754,0.03579812867607493,-0.035096898842215084,0.05556715381752907,-0.10448265814777473,-0.03336561313759017,-0.01299366571679659,0.10765014127549462,-0.0031168681140107623,-0.09943062656417871,-0.007662083375207149,0.05742129212404359,-0.014939919468988242,0.01490853034164685,-0.014054495283267816,-0.02572096027765643,-0.05849613910840731,0.0009063467117395016,0.009089538472446137,0.028462079603908844,0.018146503770166304,0.06201825556013458,-0.057880794418482436,0.06141496482330881,-0.05852381558466847,0.011272462125860633,0
Sample_GSM1317905,-0.02798369059021497,0.007892999054584543,-0.014889811826930215,-0.0017438525003679569,0.0015882946181783903,0.13422681920510168,0.035854697717538596,-0.04868885402618713,-0.06836812614994145,0.005994177264658695,0.10026391960521831,-0.11678650646316921,0.03529730624688096,0.029640117374452185,0.00919293970590712,-0.07765963724982346,-0.011543309448959916,-0.03021737575836657,-0.029832208206161493,-0.007257547530104322,0.14303722811862596,0.06944378263207648,-0.05021186428485855,0.030554798023647616,0.005446885949001587,-0.0039834275650661045,0.006455582225547975,0.02062222700082205,-0.05241537235159959,0.0002901637216952384,0.015263200845686598,0.014448445218233923,-0.08004301767884929,0.08994226052370392,-0.09416185604253949,0.11752753707093731,0.022847294129008374,0.030979786262738555,-0.0694219489592775,-0.06425319099594273,-0.031601917884722185,-0.06484699363042645,0.09251943099619885,0.015531861942274601,-0.1265220692702011,-0.050579503969639124,-0.07200480146503695,-0.09061319066623401,0.009396428085022187,0.048470462095589834,0.005580572324253425,0.035118198480941,-0.03164960000842096,0.07458706459087693,-0.006098463105194155,-0.039746356285062776,-0.08950262974914572,-0.07940908254576809,-0.028873833296319706,-0.06588236667355261,-0.07976342005428735,-0.02373640118909633,0.038951955492979945,-0.11443344967469364,-0.05373020320455412,-0.08957525282471539,-0.023384806202470576,-0.004763430700783716,-0.04346608578272132,0.016146511932111605,0.08783739719844173,-0.012416476931182644,0.041687849790800625,0.05255314257520603,-0.05574117983330912,0.035441223060827115,-0.03679797133638334,0.05676666331733944,-0.10384914194502362,-0.03514223519824646,-0.011665389196121185,0.10619084882348921,-0.0035146612150765044,-0.09683048813700652,-0.005699424463654287,0.055893389501632106,-0.01449850707277044,0.014603100339822957,-0.014243484710232793,-0.025078643158070523,-0.058938324893875044,-0.002511289589437888,0.009470636663964846,0.028838237039740377,0.018548138622464034,0.06003040112851015,-0.05813715330437316,0.06107842026457991,-0.05963277827339007,0.008476388414592776,0
Sample_GSM1317906,-0.029205238784058344,0.008195796522092094,-0.014359677631685617,-0.0032336158114147327,0.002311711360463633,0.13444090568303127,0.03664606981737065,-0.04654686971107775,-0.06684544651239721,0.005601322150869732,0.09884879710224509,-0.1176176447395228,0.03539898111125871,0.030071565037511322,0.010350792892189533,-0.0789796436675696,-0.012065016212577672,-0.02869713968300365,-0.028753855772148798,-0.00751114427858326,0.141209120799631,0.06915281180424929,-0.0501169543739698,0.030821789055213572,0.005322080650282775,-0.004975230125340681,0.005526775483852258,0.021922366444460526,-0.05271090544597246,0.0010590649007561582,0.015759865193657907,0.014335626194663185,-0.07898361253931752,0.08976265717713995,-0.09503731584425065,0.11732013466607423,0.02202590970339911,0.032154919599327286,-0.06892714897195149,-0.06461710784968244,-0.03047298382554177,-0.06563048961689198,0.09280940626668398,0.015285467104126586,-0.12747825706397165,-0.050564363797399856,-0.06936482141243645,-0.08990652960022186,0.009074534341750215,0.04704891856615664,0.004878094912855268,0.03424584665459106,-0.03221947440275522,0.07643977124577662,-0.005102296402314018,-0.03825305809007072,-0.08967273938388749,-0.0801924552579333,-0.028244493690901346,-0.06642243902731149,-0.07823274391851856,-0.024723181185240438,0.04023110824126681,-0.11568405867688404,-0.054234614144415494,-0.09031432049090726,-0.022889898892421805,-0.004880670685107417,-0.04359554931433036,0.015040303136569231,0.08789970397733082,-0.013193062791806147,0.0396941818007508,0.05262445214661488,-0.056302006569058836,0.0351310310568359,-0.038118320754982754,0.0551044769423479,-0.10360584553700161,-0.03469324312770657,-0.013490243647771412,0.10759879032179126,-0.0024917897894280584,-0.0968842498069847,-0.006812257854854641,0.05598451688630861,-0.012798779882039197,0.014602201712989414,-0.014710920961360393,-0.025843617178229437,-0.05845999507982895,-0.0010701348541939074,0.010120623126066527,0.028070240330602934,0.017835084599134205,0.06121979246798547,-0.0579252886987629,0.0614574820473106,-0.06118755352106302,0.009696114041071928,0
Sample_GSM1317907,-0.029361222185505482,0.008618560848217206,-0.014538771062187547,-0.0012296618323029548,0.002574367040275478,0.13447539676504286,0.03640189802511572,-0.04998981181273738,-0.06504110425248194,0.005656318004541955,0.09969176217450795,-0.11722426362749662,0.03350206159509885,0.03157531726616429,0.007400611512195353,-0.08211277899846692,-0.009619598195430882,-0.028535723051063406,-0.02694543855503889,-0.007424659609970107,0.1396846060963827,0.07122864609710167,-0.05180140257764348,0.03206077310298569,0.006373521666385488,-0.004826050120037504,0.0073033878579805,0.019150827224482414,-0.053774058964886004,0.0029796656327984385,0.015141340519931372,0.016929779975068886,-0.07671271406854703,0.08903228053151724,-0.09528860211964128,0.11749957810658437,0.02224000991115216,0.0315926820121399,-0.06740079240169686,-0.06335146324777759,-0.029540563399845968,-0.06763086799189261,0.09330725350835982,0.014854677229127033,-0.12494450676281908,-0.050446512780730486,-0.06952284473542715,-0.09117773058310909,0.009105978771799488,0.046912568198883925,0.002867129490446084,0.034633271293543544,-0.03155366161477429,0.07703334470942108,-0.003943698931974491,-0.04066144855789307,-0.09018052757466057,-0.08010745070432267,-0.02745955825693765,-0.06458360891685246,-0.07778854331102293,-0.024661788772145424,0.0388684597697528,-0.11587022409887998,-0.0522861703900082,-0.08945940822140107,-0.022845269104418333,-0.004125080680627933,-0.04211604166571721,0.013789584714112619,0.08791160690942498,-0.011221438872948615,0.041106612100494704,0.0520181051139275,-0.056375770671509194,0.03578186639904147,-0.03603531690922871,0.05473163568527399,-0.10451615912900154,-0.03374901891937198,-0.015734201193521435,0.1066813255018593,-0.0035276829398282095,-0.09867517707287407,-0.007204800107362559,0.05790837308359977,-0.015180356518286683,0.014149429039600411,-0.013969316653926953,-0.028131135928762322,-0.05723939074669324,0.0009102451981154591,0.009634472346513405,0.02939036730468192,0.017185783549391806,0.06166992408381971,-0.05726481131795918,0.05956153368432035,-0.058686146669893656,0.01025442535203533,0
Sample_GSM1317908,-0.02906224695704216,0.008527038254769064,-0.01616823433531519,-0.0012535236611298571,0.0004150754558031534,0.13601947292750705,0.035654657118637,-0.04672810679723079,-0.07407533455107895,0.004952783596997841,0.10318014686341347,-0.11750759451328856,0.0388945638337627,0.029216691521005984,0.008794211576623199,-0.07629340565076992,-0.009000344495751166,-0.02942503886025704,-0.031065359367565652,-0.006395729157205095,0.14528217481042477,0.06857828141550755,-0.050198058013358283,0.03193963156963772,0.003693606256859641,-0.0035381909451791724,0.010149527494389203,0.018358735401239095,-0.054538350315911956,0.00420822478537508,0.01671675295765562,0.015180991457022628,-0.08529081641825442,0.08957252208825603,-0.09451869077297671,0.12252707541244334,0.02277525596564771,0.030615770983291327,-0.07351649381965154,-0.06511418402295405,-0.03389189650992678,-0.06703054180590565,0.09444083440921508,0.016601332300268855,-0.12941407579549682,-0.0499631119044684,-0.07405898427930056,-0.09020954918660551,0.0082534815158035,0.04628433015510575,0.007408405587746012,0.03974210968610493,-0.03389892606923026,0.07450438316199343,-0.0050479302790084795,-0.03808665223258654,-0.08967244814880483,-0.08218057859198599,-0.02802162194466569,-0.06648169312840603,-0.08196184734919383,-0.022553386866771906,0.03838733765974922,-0.11653515938671193,-0.05026276487083587,-0.08886810208191401,-0.024848829838445784,-0.005183659323044381,-0.04470308280132058,0.016968837345237048,0.08734569431934622,-0.01211856748780607,0.042422728666579854,0.05365680191710486,-0.05820713030400802,0.03788387085072713,-0.03769833762484613,0.058629955306562655,-0.10654959276585861,-0.036056481965556844,-0.013423684271987668,0.10563237065592064,-0.0021650248532607587,-0.0975932599043387,-0.0033705367175710767,0.056569566962726615,-0.014298168773700446,0.015936003536118216,-0.013709679388406632,-0.025595913289063705,-0.06350686222215667,-0.002940764510504018,0.012567619794285566,0.027058013368622767,0.01839780164381815,0.061189308958988796,-0.05870389601222926,0.06029842501489078,-0.05797641712349544,0.00660260235855222,0
Sample_GSM1317909,-0.027344061522281943,0.00864465234988975,-0.01579992838275844,0.0003081559959323776,0.0025811038030009474,0.13249363607641204,0.03635921300290338,-0.04953759111098607,-0.06899086973922715,0.003354080861487333,0.10461942069681968,-0.1161337981884005,0.039360899932991564,0.029588731544833585,0.007851311435331205,-0.07684716170381617,-0.01120149858248265,-0.030284674669640566,-0.02812909003347376,-0.008493608605989007,0.14278195870506727,0.06990334289633338,-0.04903054380932288,0.03115651336374406,0.005164522675593985,-0.0014767082915820254,0.009372440017190335,0.019530644564494423,-0.05393730832645941,-0.000800057371460616,0.015466425905655628,0.012896523111608809,-0.08174972224101612,0.08710626241236098,-0.09011903079512416,0.11888111096672951,0.0219389276632985,0.028877640229828788,-0.07107446922822426,-0.0640238707744588,-0.03327301521903392,-0.0637523289751374,0.09343557219701933,0.014242198376934722,-0.12688822277746784,-0.050903957886711385,-0.07225278213971915,-0.09114145356130057,0.008140488499483484,0.04702594498032988,0.008968880770908141,0.03522142813585546,-0.03275674410375248,0.07514409955938084,-0.005805947476180445,-0.04046793538088117,-0.09169679226547998,-0.07963380139048142,-0.028567271022625126,-0.06710153211038573,-0.08105680503906293,-0.022940885765489413,0.035749283852248036,-0.11159805659764929,-0.05058030488535618,-0.0868702737246657,-0.021651795163831547,-0.0061811766749269486,-0.04575954520080928,0.014576939887743641,0.08591175853420228,-0.012546174015372866,0.04323589640052341,0.05253506741492845,-0.0550930506453124,0.037600350846525,-0.03426487781607207,0.05768790158726659,-0.10166024817491437,-0.03553625593618521,-0.009445644399799828,0.10568438397860065,-0.004287678631554923,-0.09437745938742409,-0.002765913617737661,0.05706810522104416,-0.01067497661434736,0.015430521612851017,-0.012397399426751493,-0.024641213692442876,-0.05948539958457344,-0.0044048940477510535,0.006723816378185217,0.028105244596638268,0.017167488129446493,0.05696652625025449,-0.058467946525027986,0.05609131246790507,-0.057366471858074246,0.00727500631315191,0
Sample_GSM1317910,-0.029308975347862688,0.008517035570970959,-0.014820042411814154,0.00047735641409072077,0.0013766131256760907,0.13448334053414732,0.036658160819091325,-0.05149162090787121,-0.06571745355632323,0.003906055889811592,0.10311085425490919,-0.11547761232955434,0.037654543000791525,0.030537467418276183,0.006831218210441447,-0.07805689157128438,-0.00919444573392458,-0.030110050978023866,-0.02774376883769733,-0.009282438145744502,0.1418129570475523,0.07092327239186297,-0.049353266217425605,0.03048190158181069,0.004992010016428959,-0.0032473636243088803,0.008040502949233893,0.017715162581382896,-0.05218402647028189,-0.0006763315532687074,0.01654162678255197,0.014625753324260289,-0.08118779496774207,0.08717691639190828,-0.08884141195229339,0.1211147414388093,0.022135938736638616,0.02895178135969604,-0.07057420433583524,-0.06543676353139821,-0.03142987647542026,-0.06464353066969172,0.092980473274942,0.014263449245703535,-0.12497244051433797,-0.05012367552799136,-0.07228345459294723,-0.09171053315328721,0.008872442501786393,0.046531198901514324,0.008215721553700508,0.035171473957653895,-0.03265395071953713,0.07566445221825317,-0.005594102496838747,-0.042467916006603226,-0.09133488069163394,-0.07792261945462697,-0.027685385133339534,-0.06793138891171811,-0.08023138517965148,-0.021767934986979827,0.03611652002124517,-0.11043403730129622,-0.05010563460452679,-0.08639358489731008,-0.02308417461671582,-0.006260710265259657,-0.04483439122852471,0.014262009516177355,0.08731255147104844,-0.01149396433363779,0.04287861818856686,0.0522345408322013,-0.05500510630664503,0.03643139819844007,-0.03356405646395281,0.05868032558086181,-0.10245932273415977,-0.03521792076759513,-0.011033490461412327,0.10532215221899442,-0.002931952021021144,-0.0959808226951041,-0.0035776413401678153,0.05833744346121501,-0.012134141099665,0.013308370285083387,-0.012768975196649008,-0.02526718394542069,-0.06044929738349394,-0.0029421399380107596,0.006395871250729582,0.02925023953854115,0.018394421994558766,0.05760901054268176,-0.05825646186531236,0.05800480256660197,-0.05554262818144952,0.006939171568056549,0
Sample_GSM1317911,-0.029365236948157167,0.009291385113626196,-0.013744160524484359,-0.0002861303933404175,0.00274046316804947,0.13428788676112183,0.03704791050102351,-0.052471118256746954,-0.06552936369017609,0.004781212321492036,0.10399186782916194,-0.1179035262645787,0.0369673651645033,0.030281280735776395,0.006711944889243388,-0.08073062619358334,-0.009989056086658142,-0.02921344063308389,-0.027234788498540916,-0.007882668029428427,0.1395720911980636,0.07194569918943608,-0.051186225497878705,0.031605245228704996,0.006064079882979945,-0.0036013115006969312,0.007102297023149313,0.019329235051759146,-0.05424767868736352,0.0002142123956454389,0.017259401902362463,0.013932265904482256,-0.07973718040475668,0.08804158017872371,-0.08972257412249116,0.11941628837092115,0.021591744967386136,0.03003894581457818,-0.06905881784770862,-0.0647146337541043,-0.03125551574170783,-0.06786972169884022,0.09327044377896394,0.012867869135232867,-0.12447780320935849,-0.051370460227899525,-0.07193526929377242,-0.09187808591662827,0.008395382163739373,0.04518122012767254,0.006164424305099379,0.03589680211705278,-0.033014752111803915,0.07828877622806053,-0.004872951974326245,-0.042189216602929375,-0.09276571471857369,-0.07919269673697017,-0.02805286335773509,-0.06579072344939896,-0.0788275636050841,-0.023322063907784116,0.03890236423062879,-0.11422394278283896,-0.050212559894381024,-0.08824564145275467,-0.02248352183997381,-0.006144716883203592,-0.04326936685294384,0.013543791904071638,0.08812032298564917,-0.012214666470210082,0.04152105393227125,0.05336169218362985,-0.0557466535671808,0.03722830772051608,-0.03363738856157381,0.05727104834963101,-0.10443047068956204,-0.034093556130832224,-0.01246242565327689,0.10616009740299912,-0.003948082163918903,-0.09708261110259304,-0.005181475504908739,0.05982853895319982,-0.011816679697585616,0.014040744107874429,-0.011637058621488889,-0.027017717228738858,-0.06136032684328691,-0.001555964981208205,0.005544357552434843,0.02970406034376329,0.01744046679672874,0.05945130022149183,-0.0569219805436382,0.05803465212778067,-0.05644997094688087,0.010797742924071416,0
Sample_GSM1317912,-0.028688484631974567,0.007675856233613627,-0.014997429090255405,-0.0018796004538127757,0.0027064052138642634,0.13643601363264526,0.03616020985504729,-0.04748695554793699,-0.06843929786696046,0.005386187132761167,0.10328520956249446,-0.12041549493338181,0.03436759216148956,0.03112290218521394,0.008367552639782403,-0.08107326433748398,-0.010079594306791338,-0.02999548387592454,-0.029282266566546623,-0.006847168572962687,0.14288865971186285,0.07053733528624384,-0.053237372389669906,0.03239536487114923,0.005541480880529662,-0.004098103196564689,0.00901969604823339,0.020829845054856553,-0.05520027361245667,0.00272186766173142,0.013748830206472797,0.013819505545146002,-0.07888416835249583,0.08996126035617255,-0.09461631388360577,0.11895416419497871,0.022187464229639457,0.030729315221278607,-0.06931538609022571,-0.06472093550807928,-0.031133298814903426,-0.06922983591572497,0.09401579869950727,0.014829571105354565,-0.1285954760788554,-0.05147532927811169,-0.07071795355980318,-0.09206916293989012,0.009260600433459887,0.046331441039506836,0.004294130481885871,0.035834581959764765,-0.03344343575302074,0.07871035688731219,-0.004912881963788071,-0.039048028735755254,-0.09155629333804835,-0.08148044105132315,-0.029443250607388855,-0.06617185807657636,-0.07767135784098726,-0.025232761341945895,0.03868328664790465,-0.11793075413369848,-0.05165041986688335,-0.09141176558436398,-0.023446288366224723,-0.004334236572269772,-0.044303768849938314,0.015195724521218295,0.08864904771790733,-0.013418062294967571,0.041638968657252015,0.05360530558484226,-0.05771012526636351,0.037844504301652225,-0.036813086509974335,0.05666511956066756,-0.10692958419047204,-0.034441160118048854,-0.014325970169045714,0.10810785149525597,-0.0032779323686293314,-0.09782138107076217,-0.008162552924733096,0.05761024951524951,-0.013883821494556881,0.017494642985637233,-0.0140504164557964,-0.027916897046803228,-0.058893585424611795,0.0010930719040390187,0.011128985970046435,0.028197577373821888,0.01667853777572351,0.06117085852021003,-0.05790843318040088,0.0599014975305925,-0.058127659260196314,0.010774884879409636,0
Sample_GSM1317913,-0.028417087495980202,0.0073831381475294765,-0.013437274952228488,-0.00279062712432663,0.0038560717813713066,0.1359778406240423,0.03691388120074964,-0.0476508307298512,-0.06618466010029944,0.00679454534697279,0.10138779874335434,-0.1201421059615582,0.03356795227847567,0.03043877435879049,0.007282590978927488,-0.08206657155076481,-0.010882597550424509,-0.029128940753287463,-0.029094731635630814,-0.0069238784493216715,0.14135470204097997,0.07086730850486256,-0.052933366150338626,0.030788396854045046,0.006954726310130085,-0.00533075834346288,0.006450647301471136,0.020750409938003735,-0.05363465522152801,0.0030399039989579056,0.014813183749285039,0.014083872257342034,-0.0778062252951261,0.08951001820882264,-0.09496637746881986,0.11759659463870077,0.022679110596298225,0.03063187853912739,-0.06815261268855193,-0.06541755887751945,-0.031111187126112015,-0.06952280383794972,0.09289674611575154,0.014559666154011138,-0.12827017918424174,-0.05097804333581229,-0.07033085498224939,-0.09188587515087125,0.008939673983250542,0.046799674701122736,0.004047918666204523,0.03599646893724217,-0.033770194601683505,0.07877600275532771,-0.005764528859654423,-0.03960809253972227,-0.09148029618038184,-0.08064119832991151,-0.02991792533621794,-0.06654877954251161,-0.07653319346610264,-0.025208714645185232,0.041123330340165125,-0.11929421454629299,-0.05292949971048117,-0.09128150816925706,-0.02380978372925023,-0.0044643529632047855,-0.04394238557031572,0.014048425576919784,0.09026577960436782,-0.01308420802448431,0.0404431907068275,0.05286273425286637,-0.05757399533613191,0.03723944391247631,-0.036828866790390796,0.056247978316910426,-0.10641023376538006,-0.03468655080831751,-0.01463113538005479,0.1082944259220296,-0.003135256963608821,-0.09951782088960759,-0.008673256591778623,0.05867627078669595,-0.014562095866548271,0.01549815747797833,-0.013903845461502423,-0.0276560649370031,-0.05914550161425867,0.0007965532165717672,0.009941058757360002,0.028326115271635022,0.017196497633623214,0.06207066974259524,-0.05867399163169622,0.0612460724058544,-0.05906432600112038,0.01202153854144963,0
Sample_GSM1317914,-0.02869396559576407,0.007938112134207954,-0.016903433418964834,-0.003693174247428604,0.006465034487857879,0.13676400687129073,0.036951101575037816,-0.043061500986307455,-0.07016088160033893,0.004900319007211656,0.09784194918483927,-0.12181718599566485,0.03299835851321147,0.03094405405326989,0.011153320456668605,-0.07959753589867746,-0.010886246347331183,-0.028726813287814495,-0.02993786432102929,-0.008026490549597332,0.14377394592690268,0.07183001287384413,-0.05083944338321352,0.03209700655190025,0.006332451474291392,-0.0033379062601688087,0.006695168944908072,0.019909441327809297,-0.052607318708463614,0.006226991579417894,0.012921711900210665,0.016759754275438802,-0.07983502935048528,0.09002922116815629,-0.09911072282659071,0.11786484106705682,0.022555463906956234,0.03033859886274389,-0.06946451445337475,-0.06107718132472992,-0.034033577044586934,-0.0666510405628404,0.09242258339621452,0.013565388323008569,-0.1346987562801324,-0.050818787007555946,-0.06794485908401902,-0.09211846521440246,0.009090110745849573,0.04835276111872128,0.0014670742132004294,0.03551897433353106,-0.03258431556490967,0.07672101979249925,-0.0035391523224216166,-0.03853083053030333,-0.09203875767373339,-0.08172398853886864,-0.02856894301076198,-0.0668177114571786,-0.07926533389488646,-0.02708526040834339,0.03929867350373914,-0.12096464677609822,-0.05352670185517621,-0.09344102191946022,-0.024347122985991062,-0.002469196620888518,-0.041156390633253055,0.014603024281881967,0.08988850339045422,-0.013965013436380085,0.03963899580615822,0.04996850615765032,-0.05812078707282373,0.0392322640405806,-0.040789834821209965,0.055587074900201525,-0.1069906515063082,-0.034605173133051316,-0.017746639991167653,0.10974988372734054,-0.0026501173017851208,-0.10037898769093694,-0.006469773573182826,0.05862027522657563,-0.017926368815332272,0.0160825636555567,-0.014595414994598401,-0.027085572656644963,-0.05713591270828274,-0.0018638746873975256,0.014880354651281204,0.02435468765918179,0.019914078133637683,0.05872949331551866,-0.05899191995932071,0.06327703172494414,-0.06065028676047042,0.007456218543855803,1
Sample_GSM1317915,-0.03023323755333731,0.01132862425694459,-0.01729649362492554,-0.001823655723965218,-0.0008475567648811015,0.13856750688508374,0.03298409153260252,-0.043424521268313254,-0.07397250564041279,0.003265329841641513,0.10566288264618724,-0.11600940020758015,0.040238677273307176,0.03123637117107206,0.016310868690054266,-0.0750175242232645,-0.0115618303547259,-0.03088262722607717,-0.029202597308495382,-0.009694404416979807,0.14490651374240546,0.06782765333588953,-0.05120849538586998,0.03218850880745028,0.0014294571650619596,-0.003015987983678984,0.009362785901483582,0.025012292909365984,-0.05323200420901503,-0.000629686925890987,0.01381216946474473,0.01397674839504631,-0.08547574330845917,0.08924006797315606,-0.09286630472157366,0.12435682977622169,0.02124248570432771,0.03277950775997747,-0.07189023259551111,-0.06757451354698299,-0.02763854865009007,-0.061334046912363466,0.09706006397746478,0.01552979407816564,-0.13088282219659553,-0.05074717602893353,-0.07170602154234723,-0.09046073549971412,0.006598151026326298,0.04365778991604394,0.008303658700970088,0.03833445150137853,-0.031167139262291043,0.07429939757454672,-0.002141753134519032,-0.034257939063032546,-0.09037063737429443,-0.08275780780311173,-0.027756624199832602,-0.06549950902532373,-0.07911161071273479,-0.026180836615846446,0.03693674667524638,-0.1095344184571134,-0.050793607115978294,-0.08928159488083623,-0.020723508774033783,-0.0066793209648823215,-0.04805223640082404,0.019629911594096827,0.08330081318460955,-0.012399829198312215,0.041669791434082074,0.05149015894267201,-0.05420291829042174,0.0375249165826166,-0.03876827363031806,0.059137607232573074,-0.10524730925662723,-0.03785334225820324,-0.011732283270026287,0.10503525378964386,0.0008691702423215333,-0.09795929229576861,-0.001960647920545631,0.05572435470537958,-0.009278086954295005,0.01740303255305579,-0.01616150164704571,-0.02467855060411383,-0.06329970941566489,-0.0032116923688417045,0.010844713686689033,0.026623784019647583,0.015248326125743884,0.05795834573300252,-0.055805368614833345,0.058392348441746296,-0.05871358744516851,0.003746327198675665,1
Sample_GSM1317916,-0.029161701147819862,0.01020793606089449,-0.016528210564502897,-0.0015258059753398,0.0009671761760107825,0.13761242096325857,0.03365491495722924,-0.044833826275058386,-0.07487075275837625,0.0038044548810898544,0.10504156846151212,-0.11636967949528017,0.039670005254870314,0.03251633625219501,0.016256173868778655,-0.07619379809178832,-0.012092627653601485,-0.031350050216532976,-0.027920220145603865,-0.008659772934063677,0.1451013808010979,0.07036166225317299,-0.04953889503084859,0.034602643804302655,0.0021475312915036136,-0.004020881612135226,0.009569357221439735,0.024589869048855687,-0.05449977227157342,-0.0004853578874012233,0.01334683779887474,0.015083850923799278,-0.08325252898235912,0.09101045245458582,-0.09298964641704689,0.12583681047756362,0.021048930772666237,0.03133166418791161,-0.07215319241983337,-0.06667525975744969,-0.028240909763919915,-0.06204610245761841,0.09695085301713059,0.016112882878586816,-0.12914493732838514,-0.050629545957741925,-0.07174187000328633,-0.0922235276547612,0.007511610718892719,0.04350154258571622,0.006731295901034672,0.03924289629652056,-0.031960013398160354,0.0746251122106705,-0.001907675029855661,-0.03673054571053769,-0.09080185838327835,-0.081822501434211,-0.027549920765905886,-0.06660903487361663,-0.07997505780503111,-0.025761352961984653,0.037527479303652876,-0.11236705983277624,-0.04903395074286714,-0.08891251541258044,-0.02226396544303042,-0.0069870248990519255,-0.046022516549541995,0.01951093483128299,0.08416936866659615,-0.012038493016988006,0.04145438299324561,0.05145197877507661,-0.05379543536287939,0.03791882184548615,-0.039093334544708265,0.05856136022291369,-0.10468043871072812,-0.037807254633899647,-0.013296342168920788,0.1053784875378045,-0.0012389305867638958,-0.09925455548617836,-0.0007409474998158761,0.05674703758922983,-0.011445567082193917,0.01782711372099037,-0.01520138270837699,-0.025214721317844486,-0.06291586187637706,-0.002203660002363844,0.010836362711021726,0.025340158286469284,0.015862814606276754,0.057295389577453705,-0.05705217955713272,0.05816805210215969,-0.0583405803745789,0.003002531049012613,1
Sample_GSM1317917,-0.027506395711829643,0.009639049667648794,-0.014173586925519498,-0.0033932133988820476,0.004724314278315538,0.13758907025991862,0.03502210577388844,-0.04479905134223139,-0.06947752098022232,0.005212909720760779,0.10087613998044388,-0.11878564858837064,0.035645951394616654,0.03538327799333581,0.013888134720085439,-0.07890222953918291,-0.012930674968247948,-0.029528404289629034,-0.025910750088595353,-0.007968096585118439,0.14357131198215428,0.07116335829113137,-0.050452071444559564,0.0365079230219799,0.004975223738975374,-0.004970795695381592,0.008661611698629912,0.02226757641524786,-0.05535361657472889,0.00033516053913451967,0.010840647801431338,0.01655451038021706,-0.07715675627688029,0.09056209092379983,-0.09471962164503256,0.12288866807963511,0.021743564670211008,0.029160051942323014,-0.06787438813637968,-0.06653529072844029,-0.028436241419804442,-0.0659342428091193,0.09394927931133805,0.013919186895037725,-0.12906403981123324,-0.049628376909683095,-0.07192652817978622,-0.09402574780002891,0.009928092968065034,0.044708244384526925,0.005334368092087005,0.03874007562939343,-0.032070323243530055,0.07726962451058896,-0.0024758633526378074,-0.03867160277697187,-0.09096120669806154,-0.0815959097448799,-0.02740975328307362,-0.06505315972550697,-0.07801323683509664,-0.02517695159917195,0.03860128837749167,-0.11805546095600308,-0.04982336407908995,-0.09095945706473381,-0.022657100165850933,-0.005418221143996208,-0.0426898746631886,0.01656399993650744,0.08746782635971546,-0.012058644925875125,0.040282212244490065,0.05169360827820956,-0.056350883465517594,0.03758037142176731,-0.03830406094503617,0.057496895162711156,-0.10493507093279128,-0.035096824713596764,-0.016814305836591756,0.10740384926843109,-0.002656898828947262,-0.10191570018693764,-0.0037403552922460146,0.05883644640068735,-0.01451541121994659,0.016909448936851795,-0.013333074369497155,-0.028824314245104225,-0.05876802877236449,0.00215672666528264,0.01231394269839841,0.02613846955473933,0.015603810516675604,0.059255497955337105,-0.05776315779556184,0.06061224133954624,-0.059414677335556366,0.006366113892932111,1
Sample_GSM1317918,-0.029084426441460434,0.011510929911369516,-0.018030956970937758,-0.0005708071164726321,-0.0018426794216517982,0.1389017353152878,0.031074426714016435,-0.045844710327859826,-0.0750276054526338,0.0035545969546434348,0.10515370502625329,-0.11470409522199058,0.04081756797146448,0.03195748221664852,0.016092401473306796,-0.07352509521920131,-0.010580627567978002,-0.03257214979300108,-0.029157863625355263,-0.009957427118914381,0.1475558503769,0.06786338935265525,-0.04833729245816055,0.033043410207637076,0.0020811724888991708,-0.001989558763845312,0.010882981372073238,0.023863946030389632,-0.0533742279748051,-0.004388697822620577,0.013553130887970166,0.015131118810945,-0.08510299799582063,0.09009267198445252,-0.09263331990254714,0.12484978956245714,0.021671162521569084,0.03354654787898075,-0.07256591083226546,-0.0685166231154259,-0.02893591994185845,-0.06050702106127573,0.09698458868645224,0.015935605420568648,-0.12874269933072446,-0.04973285006912855,-0.07436117070634853,-0.09095778871422788,0.0083391367763868,0.043334523343119734,0.010388546720614074,0.03637188507095201,-0.029800944983393498,0.07170749700544007,-0.004993415343636889,-0.03579867013036905,-0.08821470745525974,-0.08205167898627073,-0.026836561395073885,-0.06700772312341167,-0.08217263376616608,-0.024690012458954125,0.03701580755153989,-0.1083566318652061,-0.0520819307810177,-0.0878927611748408,-0.021855746334926422,-0.007058798753156634,-0.047371153631672665,0.021310388975647562,0.08400027947945043,-0.009052498858511357,0.04461832133967899,0.05165269021959479,-0.053466728250016415,0.03606224330190149,-0.039002100458694455,0.06057185697283994,-0.10354332899444334,-0.038643362557565786,-0.010227726488160319,0.10397509233147627,-0.0011493454232309448,-0.09725868746503263,-0.0011425033799401317,0.05481257018922775,-0.011509983739632985,0.017984801653938964,-0.01705855435052081,-0.02268944509438731,-0.06266429071561548,-0.0028984546824754594,0.011514857274073326,0.02704820625891997,0.016851632500367714,0.05849299593959939,-0.05560811693982883,0.05815036583200435,-0.0588046010268305,0.0033084256196801126,1
Sample_GSM1317919,-0.02774166644330931,0.009759183572876053,-0.015254811574970445,-0.005163809711901764,0.002228950110491661,0.13877408841118555,0.03580270208645402,-0.040164838399953225,-0.07433611967727477,0.007838885735867959,0.100953162007138,-0.12148088871859637,0.03712041585353168,0.028680155084744544,0.012858217130665357,-0.07435646956153996,-0.014071040645252778,-0.028799385312158417,-0.029835697763639077,-0.00684877204840564,0.14637297619859038,0.06407524389621504,-0.050425082862812914,0.03159218253822878,0.0036602014671969834,-0.005304291429079456,0.005083733162933326,0.024251100999581096,-0.05318744332268224,0.0001960902091194673,0.015344544560485467,0.013142282476254825,-0.0823215202057274,0.08911951222887576,-0.09683426333280677,0.12296374203123375,0.02165256214601162,0.03328676700634306,-0.06952312121872109,-0.06815410073251343,-0.032916362649039306,-0.06537845110033685,0.09370991175519565,0.014697127646824208,-0.1342450510572636,-0.05168988679817701,-0.07205006490294354,-0.08985157427679505,0.007515249068813511,0.045361439107366855,0.005834118093935676,0.038550518287197355,-0.0327995812462936,0.0755348880644351,-0.0051691454288784085,-0.03365882990645662,-0.08918441841127421,-0.08508908371834925,-0.029196176707714846,-0.06848160230309862,-0.07948598578823361,-0.026983181299278472,0.04492355454367679,-0.11517127553092754,-0.0542326092162414,-0.09041105211873439,-0.023253521864880423,-0.0045754867950931356,-0.044816910426056095,0.018172709032507214,0.08886204805918979,-0.011509373517658237,0.03827916988824379,0.05298877115283762,-0.058883622912476265,0.03657669764675454,-0.03808869954956014,0.05789790669273776,-0.10335739822126712,-0.03938550722228137,-0.012338773961259724,0.10591495246216688,0.002455257002779547,-0.09761410329379687,-0.0037494557656298465,0.05304473207447698,-0.012888723112793689,0.016569010473776676,-0.013535884230944806,-0.025563716299299637,-0.06264478348978739,-0.0003837129005120153,0.014688831764721176,0.02553339521761472,0.017762136246019536,0.06304333993767236,-0.05968043148696141,0.062156742620826884,-0.06436876684218375,0.008416661454637413,1
Sample_GSM1317920,-0.02910689283176716,0.010654799150825695,-0.016579886193968628,-0.001060609635361644,-0.0010167213028192163,0.13724607408889586,0.0346487214661152,-0.04655287392934551,-0.07593172850541162,0.004663673757434515,0.10397286415589989,-0.11642276313841336,0.04165347228564553,0.03170627880854724,0.01324177048355461,-0.07273800248344407,-0.011523904963813326,-0.03132746882223885,-0.030018526420860957,-0.008537351781004229,0.14810498456268964,0.06805762953632731,-0.04793828695403531,0.03334336325525726,0.002851623922482972,-0.004488348746462749,0.009902237025794111,0.022985796403899278,-0.05333418134701824,-0.003739639531463339,0.015295261244633474,0.014142194239457862,-0.08606029684445733,0.09083641096618258,-0.09162651538003637,0.12288390598753791,0.02093466639466856,0.030896306354334255,-0.07187723327735879,-0.0670137900791333,-0.0302367416072501,-0.06188549872485464,0.09551452906921622,0.0175508589784161,-0.12756458856808436,-0.04967348877380338,-0.07550097776673927,-0.09112256873430674,0.009316830970000465,0.044394382778373404,0.01188814420840572,0.037550542693884886,-0.0321227078232903,0.07211840833027267,-0.007127037394997137,-0.0384655428674272,-0.08901933435663766,-0.08105035326293407,-0.027227317577275763,-0.06555852869446244,-0.0831942242052008,-0.023210127012491637,0.037567675725720645,-0.11061998054184893,-0.05216241629079033,-0.08797364775176165,-0.022458984653529926,-0.006740080422382881,-0.04612719378093395,0.019192712147363365,0.08564520579834292,-0.010980849331174035,0.044310301728185,0.0526590097668696,-0.05393389310056864,0.03546114410460763,-0.03770077769480677,0.060595683663127245,-0.1019333487064699,-0.03649615975564935,-0.008823864288876047,0.10492068072066253,-0.003045944097888615,-0.09644099762860082,-0.0018513201398484668,0.05330543063976965,-0.01084239559166569,0.015375457855096192,-0.01461932127208782,-0.02136461911580694,-0.06337967692267711,-0.002829258573664571,0.010430091592704112,0.027295665174174463,0.016229896144483936,0.05831263763797391,-0.05700269361551179,0.0590660722830345,-0.05752226589555431,0.002079359448168737,1
Sample_GSM1317921,-0.02866636973443613,0.009046831841867924,-0.01499732670980162,-0.003933087101169095,0.0017697452761980352,0.13969577708643333,0.03401025583906658,-0.04242812806335122,-0.07426540648015476,0.005115486120701572,0.10276909432089912,-0.119504713198733,0.03881170021922453,0.030605956238381724,0.01385997311070844,-0.07423262001967598,-0.013657461358610205,-0.029382932825277423,-0.03119215195922645,-0.007368166827674783,0.14730215920510872,0.06708115609459633,-0.05169783448321096,0.03181514543489105,0.0035712016503348615,-0.005709178859969198,0.007661645206854554,0.0228611600050863,-0.052123386143940735,-0.0005360294697318704,0.01314657150144341,0.014657720919327759,-0.08368395003876998,0.09076912785498933,-0.09504522076141875,0.12236526344448313,0.02142596808154568,0.03206883971897373,-0.06999586269875542,-0.06867296034409218,-0.03133929980494215,-0.06315379958465892,0.09601814579953025,0.01591562159485843,-0.13413897322523238,-0.04978836739711396,-0.0733614734558549,-0.09042195007851422,0.008079717085709875,0.04560064465677557,0.0072364398397391306,0.038309339383215686,-0.032570443304823185,0.07354759892679477,-0.004622016567055584,-0.03487260105339202,-0.08989536559152511,-0.0842141635409649,-0.02841416538874227,-0.06845308638532151,-0.0808790558859017,-0.024712477938038303,0.0400986253832224,-0.11449153500077092,-0.052387871712043725,-0.09145628256164971,-0.02309777821050906,-0.0048512799169829575,-0.04570682695581982,0.019001871337537828,0.08680745120758467,-0.012674887562814796,0.04173424852024225,0.052142249770442156,-0.05507250231956986,0.0372990614776558,-0.04036887569822436,0.059744035071976856,-0.10334792411031232,-0.0379140506951177,-0.01177049494285066,0.10686751498821885,-0.0015362393795226496,-0.09796319318854232,-0.002542222298453413,0.05425523819033669,-0.013926115742885438,0.017729920659038605,-0.014459254691869752,-0.025564255852434128,-0.06127581984946843,-0.002251673979320155,0.013379352077034511,0.025012285338117602,0.01746046657214123,0.05922850729008758,-0.05838292379693264,0.06162922864688165,-0.06155196511543524,0.005856615345087237,1
Sample_GSM1317922,-0.029296764805817624,0.011291411277125081,-0.018138814429089614,-0.0020037007777842586,0.0007326115543195841,0.13879340406098223,0.03349877326115276,-0.04147481636717548,-0.0770512733095986,0.003983678987962619,0.10543482511619456,-0.12024637802801127,0.04053481738383212,0.029958702053267866,0.016927157229250558,-0.07420886224181406,-0.012943423437883949,-0.029716829129068627,-0.029442164195285402,-0.008876254523811878,0.1472776367725806,0.06938267317947386,-0.05318496763077443,0.035158367012590896,0.0026604515992360383,-0.003422367793807053,0.007892174109944935,0.025106325180996193,-0.05490258700946783,-0.00337645449392056,0.015328166317254447,0.013606286780725983,-0.08331957787651226,0.09146293443575325,-0.09524103834971902,0.12636533362876445,0.02120810094022323,0.03229348432093291,-0.0726730803968952,-0.06844363477614872,-0.030580704019536865,-0.06295907875675358,0.09627910077419725,0.017647014693452413,-0.1334035533050282,-0.05139900669301518,-0.07076861722066832,-0.09180516984006079,0.009313986314574271,0.04367444234828235,0.005817029536287244,0.03953256669602154,-0.03379700545063686,0.07652524920952487,-0.003274031742172662,-0.03482465325608719,-0.09111301521009113,-0.08437836770929548,-0.031108077711753872,-0.07001177099164467,-0.08164708357313377,-0.026954443804847798,0.03892568564649567,-0.11424854409187409,-0.04943116284947075,-0.09152461926966876,-0.023937583258214483,-0.005870625137256629,-0.0439340361985706,0.01897101657094866,0.08340306825872723,-0.013701129756579318,0.04078395137597229,0.054667316800035406,-0.05664053812405823,0.0394400960175367,-0.0392681852414568,0.06021133960687523,-0.10522357479246282,-0.03789290676706546,-0.011659863927744074,0.10654428377714223,-0.0011004520307675253,-0.09821787482772437,-0.0011161664304724804,0.0546167754341349,-0.011733260443967422,0.019544987842267613,-0.013850519142071879,-0.025914678784789116,-0.06411295092770418,-0.002104706539523828,0.012896853601021796,0.024112024613439403,0.014814149183970643,0.058035915814467987,-0.058837728577858704,0.05978104849570414,-0.058997357484412996,0.005335485735955817,1
Sample_GSM1317923,-0.029183019692741646,0.009597909804333577,-0.016111031712895747,-0.0023009703752643195,0.000490518175621099,0.13722247316080602,0.0346552960886049,-0.044988151921803485,-0.07398524067457767,0.004279669745460889,0.10525356457192707,-0.1182286637575825,0.03842679196611321,0.0315824044422721,0.013810728352205088,-0.07546974148688824,-0.012012826864385902,-0.03049531003419708,-0.029626340457057462,-0.008400695602647753,0.14697207968399684,0.06711095293243037,-0.04886645370680229,0.033103667167251924,0.002780087925177256,-0.00543838864870889,0.008463341840601981,0.024013150061576068,-0.051452228110203946,-0.0007679377620922481,0.012973126409671609,0.0149007361755522,-0.08400276581457973,0.09002932406286056,-0.09314317481789225,0.12193703664095162,0.021754121317200784,0.0308760041989003,-0.07113064141327959,-0.06564574445294474,-0.030254375717159332,-0.06239266814207895,0.09295875459444929,0.017033962521621326,-0.1296799315993131,-0.05028530115031285,-0.07379117040095765,-0.08967472138298621,0.009268078786281504,0.045992767160997323,0.009687658127673351,0.0368033170277051,-0.03133698182267041,0.07483647949476693,-0.007093814734459272,-0.03864926151582374,-0.08996366134559601,-0.08203896897863636,-0.0274721112674884,-0.06701108192834115,-0.07982701103383338,-0.02481049073573454,0.038929602634497545,-0.11175384028287652,-0.05344364782389704,-0.08762365921281927,-0.021793213056234207,-0.006275481503886462,-0.0466833541677006,0.0189042950923475,0.08588490946283397,-0.011798848293683507,0.04178896317084875,0.052608748676699894,-0.05498672744908085,0.03596035522470899,-0.03730886995507665,0.059444689225164334,-0.10386662748128694,-0.03640131924686948,-0.010274871082806834,0.10521660246092898,-0.0026671497413797303,-0.0970061955502211,-0.0029767590530898258,0.05442204182641426,-0.0117194819725252,0.01489084925138183,-0.015009698073751679,-0.022696501315167764,-0.06283677137706094,-0.0018853150081710047,0.012318426504172794,0.027384844459639936,0.016518717992426123,0.0593742260385083,-0.0575781723278526,0.0596802837836883,-0.057414636873780255,0.004260267841366787,1
Sample_GSM1317924,-0.027823737213080995,0.00733681593632252,-0.0150024489632488,-0.007008458992960984,0.003839622997449573,0.13903042431451815,0.03802405741511354,-0.03990811245630168,-0.07705437646372099,0.005217495317863886,0.1040480673829067,-0.1248351396648011,0.03934565368805526,0.028942711547738014,0.012209443883029502,-0.07422264168500468,-0.014537267149383169,-0.027612643721608134,-0.03467218697305085,-0.005311505951673243,0.14937209839658006,0.0657903041874105,-0.05509927261236034,0.030555404959739102,0.005154125533854811,-0.007109746743273145,0.007386180316619617,0.02267704162325834,-0.05317740631020744,0.0004202867832550074,0.017569325109134653,0.011325605400619491,-0.08344740396301256,0.09259742279479005,-0.09444946957643692,0.12184661608446386,0.021482422339591217,0.03399691197894055,-0.07212980833614162,-0.0706365883617493,-0.03414005684371724,-0.06831366866027219,0.09473830810076765,0.018559838031900647,-0.13577644268947064,-0.05336568519290747,-0.07458397525633081,-0.0925717396395129,0.008313655852189513,0.04613917504096325,0.008913748256040152,0.04081519214246197,-0.0358568781761464,0.0769857285139371,-0.008148887156681132,-0.03271328488629495,-0.0885893197233885,-0.08276100340706921,-0.03179310322549974,-0.06925057022695143,-0.07917717361509809,-0.025683444806091114,0.0452552869862336,-0.12045190005804687,-0.05441986000094586,-0.09395243766935041,-0.025196139457701903,-0.005596552250689483,-0.048659890553409725,0.0182313267077813,0.09153878772126006,-0.016153729316549827,0.0408300471240208,0.055335589411099166,-0.05710588052893784,0.03662619407081453,-0.040498995646613176,0.057843184530476446,-0.10380019646381516,-0.0378381931874329,-0.011312942831263975,0.10867245151213015,-0.0010431335450178899,-0.09764838865229722,-0.005285388317168955,0.05137992426502687,-0.013011335281779841,0.018100769574978248,-0.014972004999116453,-0.0237580071654996,-0.06120436870529576,-0.0008474713449022923,0.01440269936895145,0.027400830775747988,0.016427062812483646,0.06002741069745255,-0.0615130850883547,0.06471797324594142,-0.06245222462683914,0.009237441318585686,1
Sample_GSM1317925,-0.026624207743352255,0.008226330144709878,-0.01668145210143611,-0.0037890094952419346,0.004931919352270791,0.13455704897676496,0.037519745559166234,-0.04395954524452758,-0.07110471420584628,0.007301789365418648,0.0968548229429343,-0.11801582172798813,0.03358880574426677,0.030707459516656422,0.01106749791433942,-0.07787561107333131,-0.01290781341166208,-0.030532904873257872,-0.02837471479739793,-0.006291286892421353,0.14396003048325465,0.06668747704131398,-0.05005810548388733,0.03180051839974328,0.004663072986033957,-0.004669636639716679,0.0057757921796385845,0.022261953299295725,-0.05330512709095621,0.001310580684649727,0.013864282064635991,0.014424466141568663,-0.0768364482841796,0.09127496280438453,-0.0982939420743674,0.11841865302557943,0.02253540425895776,0.028675617342543095,-0.06757179885146007,-0.06311989658130977,-0.032851221438697634,-0.06495366908992813,0.09286335781319885,0.016048161123927915,-0.130146448931283,-0.052427003635775835,-0.07156717612001098,-0.09376580132342965,0.011110717936562141,0.04766686572216905,0.0033501083020884242,0.035401064435563394,-0.03145255029791293,0.07317921060235219,-0.0068754163205639995,-0.03635547107403493,-0.08791334418979808,-0.0794944097476274,-0.03077007558492246,-0.06914108916047437,-0.07992122520873103,-0.028344207292486424,0.04246304597171095,-0.1168617468310167,-0.05243218742976647,-0.08971747753315412,-0.021726748664979756,-0.0056759571234008925,-0.04262055790011935,0.015795208575327374,0.08843145990150285,-0.01208845223811501,0.0407367192631655,0.052316214400606506,-0.05796391802991939,0.03612601776622127,-0.039246160169700395,0.05600968084744195,-0.10032831578014113,-0.037545570631081715,-0.013271855831207572,0.10762343711307333,-0.0017562186241285554,-0.09882291467727618,-0.004585416725150947,0.05326202443307285,-0.018049974904861227,0.017041943197473295,-0.013552034527782761,-0.024302155036107796,-0.0572358381288668,0.001880324074723882,0.013323472586834388,0.025778812958736533,0.019575157647205375,0.05933758404233102,-0.05936550578221423,0.061352147132260476,-0.06219581143264349,0.008577859866967318,1
Sample_GSM1317926,-0.027329254090957735,0.010271778114306426,-0.01617145781121592,-0.0007294804780327146,0.0009590762031431011,0.13628558094185741,0.034459822621366855,-0.044555836234102884,-0.07434975690469191,0.005028469492457362,0.10456334602234892,-0.11672814200649655,0.03890266114112688,0.03162311127231177,0.013763860717187439,-0.07294833687266673,-0.013235885491356932,-0.03071136316277452,-0.02874651466325349,-0.0073440743897679114,0.14698912384358537,0.06707845292359459,-0.04519110870729087,0.03176748225853453,0.0027659283681566054,-0.005713531461982092,0.009623037081534206,0.022783643700330446,-0.05322339204832338,-0.00304402741209262,0.01421611461395223,0.013848608912800053,-0.08470802043726558,0.09059495650261201,-0.09288695836916053,0.12279403237832143,0.02199998884675892,0.03103009410675521,-0.07127363020728511,-0.06586650391909991,-0.03085575192060307,-0.06302257442598255,0.09330983918295618,0.017209078381298683,-0.12902131097017322,-0.049352083708255876,-0.07482377529694688,-0.08977389160989967,0.009260321467773926,0.04468708681661863,0.009794783646335854,0.036121570982493634,-0.030921369154605857,0.07322078287089911,-0.0066839335014786585,-0.03922218465446808,-0.08954680696548736,-0.0819697333160618,-0.026041105823197123,-0.06568129230750451,-0.08047998455577372,-0.02408910886578762,0.03881541640041053,-0.11123499463771043,-0.05285286808240444,-0.08629389393696968,-0.022159544935478184,-0.004863919214419252,-0.04549782751689829,0.01949416298004338,0.08660511754779278,-0.010564327833721491,0.041585036323371426,0.052420316574363746,-0.05501263041339094,0.03577152688136641,-0.037075611006242425,0.059618603804715675,-0.10045667480049165,-0.03765922961411054,-0.010091608877536202,0.10395625325982087,-0.0005889263504543495,-0.09673347007715825,-0.0005243485802493299,0.05356532110259885,-0.011704356466466665,0.0160513793858403,-0.013014739011508306,-0.02389913570641412,-0.06252170500727518,-0.002504615320510964,0.012238758854097923,0.02599728538458366,0.016808756457070792,0.05874781749364744,-0.05795613654238211,0.0587508724823635,-0.059426479665193335,0.002508802109725248,1
Sample_GSM1317927,-0.025758290118885262,0.008297981591894293,-0.016564269239330555,-0.0036660443304287753,0.003267575431688655,0.13710220585848887,0.03510839862089754,-0.045304391560411245,-0.07314510854981851,0.007238495926335107,0.10175869549225382,-0.1217881148778874,0.035967389468921515,0.03081877840361302,0.011180095161578201,-0.07749833793268034,-0.012084061647400897,-0.030094695644314915,-0.03005421892779194,-0.008021716638344036,0.14653270590667802,0.06905013889144294,-0.05240586819475073,0.03145652047694501,0.005626209578591263,-0.0046250136277300406,0.008598448366963647,0.021463319633233682,-0.05430546982195257,-0.0005720581635650264,0.014866338474867255,0.012965759089277417,-0.08191915863735295,0.08977813736729588,-0.095665368324714,0.11921111074643995,0.023064490853817825,0.030102982924765157,-0.06947521131643958,-0.06658851008076759,-0.03231336975145706,-0.0692667579200482,0.09306350992645888,0.014222374284069356,-0.13245647678042513,-0.05222168886397867,-0.07309697018227292,-0.09437692334646326,0.010799089613489857,0.04742596837091597,0.006611599817248856,0.03667056278214109,-0.033577251020506536,0.07516870126474247,-0.007501487012992044,-0.03773094612469045,-0.09039998189596156,-0.08078536386658877,-0.03200268602673176,-0.06957097543262004,-0.07851108417979671,-0.027355865774720295,0.041260310567621195,-0.11768769802535207,-0.0544526576886012,-0.09291152150047399,-0.02396078313463759,-0.004182340347630207,-0.043482704243064524,0.01750161234364986,0.08966412502391062,-0.012986554416367918,0.04309458292643323,0.05383118368104326,-0.05917395201562927,0.037588746442653254,-0.03915367933238384,0.05734173513492988,-0.10342414653860553,-0.037355979507586706,-0.012493148125594858,0.10727309983670573,-0.0028828977636221544,-0.09968423334798292,-0.005966465498399862,0.05505844973117641,-0.016599624678819064,0.019514019383208705,-0.013847685679188008,-0.024258725845323046,-0.05903204139888113,0.0008065411316033601,0.011607787579149056,0.027295971571874023,0.019155623428843176,0.059658255796633246,-0.058736049844568324,0.06288822782882562,-0.06090995979524748,0.010334488955670922,1
Sample_GSM1317928,-0.0275450451103937,0.007784719760237074,-0.01766266415290447,-0.0039475718077855385,0.004489413712092337,0.13702671929433943,0.0341363470350969,-0.04597827475954935,-0.0743239467655765,0.005718103450202443,0.10315977479096568,-0.11871503277546602,0.03815615232565237,0.0338247827449221,0.013986718470510837,-0.07789665165018943,-0.013672453722786157,-0.029507804766075462,-0.03136811140117345,-0.006371614014336284,0.14583085650394506,0.06927257116106819,-0.051011574691149406,0.033758699973554684,0.00530347298357686,-0.006057462696640056,0.011983836837394853,0.021549108205346862,-0.05419924540386481,-0.0014678294208867349,0.013790445200259379,0.012481347398230843,-0.08250696313979816,0.09057445917727612,-0.09556571875435782,0.12132028385052233,0.02269058536612216,0.03044684826018669,-0.07035890312975156,-0.06531491170355276,-0.03182444073992875,-0.0658984508961656,0.09248718804997363,0.016045020528560928,-0.13114500269821683,-0.050836792677930356,-0.07438519410566781,-0.09325238091205401,0.010703316950980351,0.04529087020028658,0.008538981596802307,0.03777005593327517,-0.03178661102478228,0.07553372508075311,-0.006377895125304208,-0.037385310727397834,-0.08765114134787726,-0.08168404391446926,-0.028402812236822915,-0.06591614881744745,-0.08191047670522687,-0.024982237316328815,0.03922888853011941,-0.11846593877122584,-0.0524733095290872,-0.09296909224109098,-0.02546545828146307,-0.004831216932150004,-0.04296238657633422,0.017883549837377496,0.08796742389759843,-0.012396517192087073,0.043009945554327744,0.05295544126380333,-0.057881811466943336,0.03660328975729362,-0.039729786282348516,0.05860881632222575,-0.10424771993562015,-0.03638423610228855,-0.014012846836507742,0.10700044737924397,-0.005537420211566792,-0.09886949896141443,-0.004865097297563565,0.055135000915309734,-0.015729265562573584,0.018662871081535137,-0.014919741250123842,-0.02423936464667266,-0.0594996439644307,-0.0006641599007746508,0.013338369838426876,0.02724456626187044,0.017572677165345916,0.059646479890042584,-0.056797967625122084,0.06278761365107347,-0.05834466162009113,0.007224264399336605,1
Sample_GSM1317929,-0.029775411422907964,0.009990405628609544,-0.015144278884811622,-0.004338137537261231,-0.0018113207757342964,0.13736529609531908,0.03719757159244224,-0.042213099813797415,-0.07339699834496131,0.006189477177398974,0.10051496826329778,-0.11814995675082815,0.04059583377632824,0.03086887078549427,0.011682811050288925,-0.07234792974387,-0.012187937824955494,-0.03193268134148205,-0.030024779674188706,-0.007803857616755923,0.14576657749909136,0.06614101089614643,-0.04905622177631293,0.031084120043717692,0.004531451737797538,-0.005674983867382026,0.005494298055650399,0.02337526520561665,-0.053422281243667095,-0.0017065351428686428,0.01860343694491362,0.014282482558241731,-0.08623214683290964,0.09148984869509669,-0.0935620566936996,0.12105763121091603,0.02149563731120044,0.032484762029170194,-0.07056795443545982,-0.06890882889781737,-0.03229817527459018,-0.06408488708819789,0.09402052626694782,0.01591600952625577,-0.1313579886326767,-0.0511108681606229,-0.07339482767537683,-0.08876858548991408,0.008570208581938308,0.04620317527184807,0.009456991396291156,0.03777585006315963,-0.03468676331190591,0.07328174033006915,-0.007176034999728067,-0.038902011083375834,-0.09151396242829232,-0.08086098535308192,-0.02836154709394508,-0.06925158665043399,-0.0813159234152542,-0.023446326308704555,0.04079867771760631,-0.11182575161750047,-0.05231200008093009,-0.0883614032486932,-0.023179206600389215,-0.006390054419644559,-0.04603193628522428,0.016378380700548305,0.08934423131168542,-0.012721347495922722,0.041135201040564076,0.05348938059799193,-0.055133746328199965,0.035975764638816264,-0.038757980352241754,0.05896009050911271,-0.10041852146608868,-0.036922585979172494,-0.008253108922093725,0.10587630181352045,-0.0007780607545514498,-0.09737848518077603,-0.0019237562720220928,0.05217309863530093,-0.01204082492433337,0.013876788545754627,-0.011360531982831453,-0.021327267555227854,-0.06238155025660071,-0.0020333880366046656,0.011229923888997568,0.026275363120174533,0.01724123581682194,0.059177983480195255,-0.05968012932852868,0.06120807896545708,-0.061402033190097946,0.004743914443215448,1
Sample_GSM1317930,-0.02627504748316878,0.007853072779966623,-0.014716489354802083,-0.004801906868290451,0.005639787829863599,0.13568924669027824,0.03657077533761453,-0.04511321719621257,-0.06812816124251367,0.007983248014425421,0.09924382009936414,-0.12318911931546433,0.031938921691760415,0.032391679908650224,0.010916383438669453,-0.08099365339041958,-0.013898026255416703,-0.02805002700973803,-0.029455458781750044,-0.006486688606855617,0.14099134314140288,0.06893307511348183,-0.053237612751367354,0.031702445369412774,0.007737834733746645,-0.006332761724410115,0.006586406330669345,0.021610533933540763,-0.0543237159614996,0.001290896801348864,0.013497075721409239,0.013612883710486651,-0.07624712859521501,0.0906028388963487,-0.09858361498164453,0.11714807011185499,0.023960825289655156,0.031147567526769195,-0.06604101263993109,-0.0650967970139512,-0.03103760760035391,-0.07078078198494413,0.09242626138802013,0.013628940354635891,-0.13069329456950915,-0.05251164713861218,-0.07099752087143935,-0.09390970782196309,0.010215308999901413,0.04692189204291471,0.002566968241842905,0.03723112700409794,-0.03256421659688137,0.07885432487010209,-0.005886341537385041,-0.03766047729572076,-0.08926540639740796,-0.08109507795965558,-0.030043367794675476,-0.06638123530806325,-0.07535291933094218,-0.026769908956446594,0.04297022007056456,-0.12212823457333288,-0.05473595049526223,-0.0947209699299121,-0.02477737371711745,-0.003837088554180853,-0.041401780124509284,0.01458477408878074,0.09118164511023381,-0.014102132189355137,0.03959682282053481,0.053840103943058895,-0.05892615885233397,0.03588912858068514,-0.039588808877210516,0.0542137293120653,-0.10498303219287941,-0.035613630549039606,-0.016946377692364366,0.10851383422255034,-0.0037064990357035085,-0.10148237434479887,-0.009318336288499084,0.0567048658719884,-0.016419753400399372,0.01701574163034507,-0.013907671147606267,-0.02749497565242439,-0.05639143147478008,0.0034486798518032213,0.012852304800978716,0.027425672062221906,0.01802950031349367,0.0626293329391793,-0.05836891651414351,0.06377439434179537,-0.06191302055135021,0.012730663262312925,1
Sample_GSM1317931,-0.028140052538689782,0.007580349665229146,-0.016617387693202538,-0.0026614137187215827,0.004382958638485342,0.13731677986725208,0.03561908646367122,-0.047081127492087864,-0.07511594177460801,0.006447116634698838,0.10420834420883095,-0.11818478650457048,0.036996076237988174,0.033487153717397834,0.012610085834132687,-0.07706314231415007,-0.01166880031467225,-0.029339552225244543,-0.03159540619414008,-0.00681846399065801,0.143831613615304,0.06937428261164243,-0.050491050761740146,0.033714999794546924,0.0034144744759982202,-0.005172957427261699,0.0115605914437548,0.02198375200545404,-0.05434482634896597,-0.0012944174113606066,0.015484440816233711,0.015010001036146903,-0.08319170420037868,0.09047896487934318,-0.09560168782846978,0.12282636007972383,0.022518125243586717,0.03208762871867023,-0.06904264098140855,-0.06542728917196193,-0.030396673310643534,-0.0675086498257077,0.09423797252956599,0.017227499726030035,-0.128898593503077,-0.052628765604782204,-0.07384659331659381,-0.09306592885223713,0.010387168361023795,0.04546120874867454,0.007880188578004186,0.037238407838730156,-0.03338189638612734,0.0769117934637425,-0.006513362528377439,-0.03877195945519859,-0.0880932005674049,-0.08200447150835166,-0.028752790429756515,-0.06606914693420295,-0.08019180872377063,-0.024006453673853248,0.04033623727230903,-0.11805335091873635,-0.053282814161998406,-0.09139629446904236,-0.024418915455080827,-0.004311460912292184,-0.044506944303450084,0.018498880168321144,0.08764991371607903,-0.012624002225366592,0.04268640374621941,0.05381489093277548,-0.056859130505031,0.03616742127861572,-0.03747346161546813,0.057459788959817515,-0.10464928905553346,-0.03705228327048722,-0.012791204803917927,0.10628520497834304,-0.0036861497998243154,-0.0989983131348612,-0.00434807766611144,0.05392099019027957,-0.01375019801430989,0.016372227403287407,-0.014577528571321371,-0.025850280694076043,-0.06097544918260295,-0.0015567684192651996,0.013255015296296734,0.0264565131055496,0.016942020538610898,0.060613094304425186,-0.05718724076059716,0.06149231521140493,-0.0577468205647316,0.007856407335839,1
Sample_GSM1317932,-0.027401419738398984,0.007671607216471179,-0.017145454167690567,-0.0028642643523725036,0.0012995842796229473,0.13603306444094637,0.034683269030039016,-0.04710737920331384,-0.07718892758764861,0.0050924939268096586,0.10451474772858889,-0.11967924545122685,0.03971415392942842,0.030005165173903624,0.012590048306853029,-0.07414642895395752,-0.012757552400500163,-0.030615967574869653,-0.03214853312856025,-0.007095391619177013,0.14697579148886547,0.06727831407737318,-0.05024832461632332,0.03113053810550688,0.004273834914873256,-0.003438212980620672,0.010847083432271764,0.020643524426615812,-0.05414997336257186,-0.0018224434608350305,0.015724795302081113,0.011810918690029424,-0.08598988894820009,0.09000844104815738,-0.09417905679084493,0.12062895891278945,0.022476647096585006,0.030296685816162114,-0.0718586188719119,-0.06686132800230173,-0.033429074379167055,-0.0651437995868476,0.0941381948686308,0.018555932796772395,-0.130441236546637,-0.05201591836947904,-0.07483571219377552,-0.0919805567527202,0.010581967512349652,0.047370538811567185,0.008576399668708498,0.03777493660528656,-0.03235302779953495,0.07326012893950518,-0.008077935522306323,-0.03766282975209095,-0.08710099925944281,-0.081577611343879,-0.031039518477742164,-0.06847571251559091,-0.08292851866598513,-0.024721739632938937,0.03908231358234472,-0.11463554612128848,-0.053244810814954746,-0.09026104240491685,-0.026074720523347167,-0.006004252538515709,-0.04424440976712547,0.020268183635001692,0.08753108172312013,-0.012755545482727176,0.0455048457496142,0.05539544895257721,-0.05630391834680168,0.036955974795555076,-0.038853010060382866,0.058421348065718394,-0.10296060964916152,-0.038744497453744774,-0.010217747135319507,0.1071580177269646,-0.004047387832361981,-0.09649667770400087,-0.0032742955794808513,0.053068095268446094,-0.013288068901418558,0.018100627431259817,-0.01484176021922768,-0.022108541219875523,-0.06126274592870747,-0.00214077656389689,0.012751695444664892,0.027434281530451767,0.018508023017316057,0.058345085602371234,-0.05906458618897155,0.06141856217031393,-0.057416221423261006,0.007012777473238191,1
Sample_GSM1317933,-0.02607072593760005,0.008233542950877882,-0.015135123960604098,-0.004923327895296419,0.005705522404653941,0.13597932331095372,0.0360276366737834,-0.0458606038451,-0.06858295978277693,0.008550671017986749,0.09910106325954463,-0.12180865339321725,0.03296393471137156,0.031260541730856385,0.009190136377945671,-0.08034086220106768,-0.01254334062754581,-0.02988434126738715,-0.029602355549292178,-0.007575606887588864,0.14312529508072505,0.06829507136160311,-0.05416592695036279,0.030558107725212464,0.006905544598075369,-0.005652576237490509,0.007287514389402256,0.019448971241345172,-0.05471716580540333,0.0008391217480078713,0.013768959014861682,0.01379368587716083,-0.07770186297752289,0.0907129062714016,-0.09703092262708603,0.1176557119044174,0.02318368622145677,0.029817799708400823,-0.06704578359666749,-0.06528760863278671,-0.03232833440035701,-0.0699856745836105,0.09206061328651935,0.013456251997906222,-0.13083177464577783,-0.05324056225128806,-0.07226143115961167,-0.0939986972409171,0.010857512087358167,0.04904902811687073,0.0028884128031180984,0.036196631867989736,-0.03316677737032775,0.07758946482426769,-0.007031168376345252,-0.03812421423863141,-0.08914793092254772,-0.07994795024017541,-0.03140064695845225,-0.0680447387759993,-0.07662707392265516,-0.027539017231638194,0.0423236383614791,-0.1191538955864593,-0.05466650161149766,-0.09318214005758599,-0.024536269059654354,-0.003717859635791409,-0.042646777205761,0.01567707802010839,0.09194887050036428,-0.01332967235198763,0.040755454671518886,0.053176329112211415,-0.059408131656519085,0.03640737531215469,-0.039201557353405206,0.05461669564859848,-0.10317482143466764,-0.0355525180749575,-0.01515116516300248,0.1087998649389657,-0.003257766684934433,-0.10008028515836556,-0.008591902529922054,0.05535774088943655,-0.019205147013096436,0.017941847022194396,-0.01390775743430654,-0.02641304074707735,-0.056707337553377785,0.0034738365074801604,0.012430144444520256,0.027322613399163555,0.01947118454978515,0.061408924416064034,-0.0590302779981225,0.0627800556133704,-0.060517798596155026,0.012206090171374402,1
Sample_GSM1317934,-0.026593009663941486,0.009215154046358675,-0.018826716878029906,-0.0016405235920922646,0.0012599990056942007,0.13634244799856685,0.03407888059092898,-0.046181847904341274,-0.07870070758377624,0.004708252142806995,0.10565047138490243,-0.11842690462070378,0.04094098493100112,0.029749215684503998,0.014171096642250598,-0.07335322784421214,-0.013133993529501087,-0.0316509498606152,-0.031368863226740304,-0.0074195222274428315,0.15057900813901254,0.06756863791932134,-0.05035427200673407,0.0312081579126398,0.0017309025597134593,-0.0038750217674552844,0.011780273930617627,0.021163083430498567,-0.0543237713845846,-0.003639000824254114,0.01570997892736038,0.012741075642227113,-0.08718277377876585,0.0891990059402057,-0.09318115185528601,0.12135997991503357,0.023100655276083952,0.029156363651726275,-0.07289626645657331,-0.0652472700292097,-0.033361815579159265,-0.06353123346925918,0.09441930873516713,0.018610519597325383,-0.13179337414504996,-0.052313197657479146,-0.07595363066757728,-0.09246479033114391,0.011099850292863917,0.04812796307378039,0.010658618780576286,0.036525881258557415,-0.033007909002961654,0.07203024815264418,-0.006925874694366937,-0.036437350398086994,-0.08761257110987307,-0.08106981727288197,-0.03196095867034677,-0.0692155938488384,-0.08306392137026915,-0.025883125189611878,0.037243049226791315,-0.11190113364640378,-0.05313441739427486,-0.0906413974006635,-0.02422466445486185,-0.0060449522600830325,-0.0452668907248851,0.021426721853237213,0.08584029204397027,-0.012677323075873142,0.0465308156590304,0.0548843019486435,-0.05651650500106537,0.03734376435936574,-0.04002833276697117,0.0591596369223485,-0.10176724559740075,-0.03890775185273537,-0.007361090077038685,0.10541749672050137,-0.004150660296513479,-0.09534045901967178,-0.0016332028858896826,0.051051211706870644,-0.013114425585214234,0.020977261897137715,-0.013104346159488637,-0.020675586982204577,-0.06107186087014106,-0.0025968936275981933,0.013113530232850876,0.027317908370358013,0.017670401838193107,0.05579350835682281,-0.058700758124845855,0.06137208270334576,-0.05785225032453273,0.003913901580394938,1
Sample_GSM1317935,-0.026976812543058983,0.010864425246551209,-0.017848114323799815,0.00023595245510178492,0.0025363324552672623,0.13758546159108587,0.0333417836520045,-0.048208791011846885,-0.07781316078170714,0.004745881254373168,0.10617778101892474,-0.11549323656406398,0.03863493954898067,0.0321893860509261,0.013838350583753845,-0.07468758077052992,-0.011953817591282462,-0.030248068375691384,-0.031080147362194634,-0.007524722599910366,0.1465359836586201,0.06758203376736363,-0.04792377739521585,0.033010440262841244,0.002409899012186445,-0.005094038082050769,0.012948798133393245,0.020226514090284056,-0.05356523461090921,-0.002414889130707624,0.014151863195319457,0.014751874849656229,-0.08664797141205535,0.08985157412936451,-0.09282996276958144,0.12466599169117602,0.0220541310430266,0.029791768335060673,-0.07177421391905622,-0.0654112650146027,-0.030997173846765848,-0.06412327929840389,0.09465419537288557,0.018321600155858913,-0.1296492547177855,-0.05100554531304861,-0.07772472730811814,-0.0923946746084002,0.01093916870462528,0.044929889520770885,0.010645319083910275,0.03758267392896109,-0.03144582040640774,0.07238482415501038,-0.008549067048149908,-0.03880750803226242,-0.08620235566529438,-0.08177687750103899,-0.028458649716884846,-0.06504848377575073,-0.08369845482451699,-0.02371404800354781,0.03855197718698465,-0.11154593297761133,-0.05159527622489543,-0.08856344225467298,-0.022253223273471085,-0.005007429497160007,-0.04379957668158573,0.020698866725979783,0.08583400081107558,-0.010184498842561241,0.04593361221105383,0.05247845759586697,-0.055427278576102426,0.03610627087019427,-0.0365368363924058,0.05991654647535093,-0.10126997270504387,-0.03886529822461256,-0.01101378509593469,0.10280030232779849,-0.0038436774184150133,-0.09720589537559812,-0.0002575189088339955,0.05293087874955917,-0.014970295372225193,0.01713480633770201,-0.01367536746090661,-0.024085948835579088,-0.06281912154779126,-0.002186518474683358,0.013009178056241678,0.02708751674339421,0.01645075872193986,0.05767352779515305,-0.05686095028388581,0.058233109663880914,-0.056240003804226724,0.003532059750373433,1
Sample_GSM1317936,-0.02709796098644864,0.007260515902323987,-0.014153532164715042,-0.0023551524330582803,0.0027458234628432937,0.13726387051357622,0.03486824195690374,-0.044754876511388285,-0.07630039194375934,0.0038269729529532433,0.10464336748455162,-0.11786367417841723,0.0406187162998887,0.031461530451493025,0.013883709152416707,-0.07634967522362164,-0.012064156386303794,-0.028794950525580936,-0.03271191686920718,-0.006426538294382661,0.14556376669090776,0.07004586862658509,-0.05029960842501155,0.035417027964931985,0.0036200870294810744,-0.004204745177159146,0.01132634178054209,0.021801681788879056,-0.05442784193207546,-0.0015654490824948471,0.014172019910462371,0.014601734870884085,-0.08520366743598216,0.09214941010220358,-0.09459143220823711,0.12349085341601924,0.02118760657036295,0.03099813054720905,-0.07203505242063361,-0.06666174324486755,-0.032064885976656694,-0.06486373007222268,0.0947893167679899,0.019309154834441362,-0.1312086864612958,-0.05084727156144924,-0.07626051219762443,-0.09159088555103607,0.010189334277446133,0.04475005624637121,0.010256909112856141,0.03913717678780893,-0.03415639340288471,0.07716552388337779,-0.006367385085167845,-0.03729079700729388,-0.08706886005109706,-0.08435540561796775,-0.029516619072858435,-0.06477833601450951,-0.08230247134691755,-0.022001680167252246,0.040062349425015284,-0.1193058404493444,-0.05082967872978863,-0.09061897031021245,-0.02507049714765166,-0.005753965017202322,-0.044927798439630566,0.01910837518673559,0.08710903274588383,-0.012710939355487694,0.04368097827135902,0.053546842499875964,-0.05522643426757422,0.03803277813702789,-0.0382530704045885,0.05925722715890856,-0.10530803067954124,-0.03805664889293035,-0.011889963827558617,0.1066387744384476,-0.004680882075061775,-0.09747922068859834,-0.0019174354243031981,0.05533428477425165,-0.011819391218376366,0.016913526389673264,-0.01361010968093415,-0.026323755416254382,-0.06256552927447964,-0.004610383787916814,0.01415077037071738,0.025475707082095348,0.014604347933224677,0.056752909401286196,-0.0582042128605964,0.06117992302684758,-0.05803694991372581,0.006173738409223212,1
Sample_GSM1317937,-0.02913019176300376,0.008498300200249801,-0.017375598118454034,-0.0010242564102500454,0.0010709992023424418,0.13690603938826543,0.035407654157634555,-0.04567220110490228,-0.07405525244839431,0.0049062404892197785,0.1056835882485195,-0.11959431024242548,0.039436406207483954,0.03126265748609873,0.012116486112540693,-0.07587172448362214,-0.012063533480682788,-0.03186690351701932,-0.030764269789615738,-0.007932805342597616,0.1445481253572328,0.06972247540134963,-0.052778458581083855,0.03367233236160343,0.00429197440374976,-0.003280436847210385,0.009015694782208193,0.02455681215129785,-0.05624047938685638,-0.0023299872527663065,0.015536659676425308,0.012202200441076061,-0.08361308762676753,0.08990606661755976,-0.09264641551253505,0.12259168264905806,0.021685522874697116,0.030687889147032237,-0.07217696096119965,-0.06753484931056214,-0.03052771531523015,-0.06476150131566885,0.09558268773537404,0.015553532413699922,-0.1298575334466787,-0.05323086696253589,-0.07211127012061574,-0.09234638642570439,0.009611965662904983,0.04497523623500381,0.008265697507091293,0.03708399746547282,-0.03287570390938329,0.07601057263004644,-0.004339641649477197,-0.03751337054758348,-0.09203148051553794,-0.08222729600133498,-0.03130005191169439,-0.06849971410649103,-0.0812800773904114,-0.024418730785049254,0.03704299102291835,-0.11574345759303521,-0.05070746386082526,-0.09195666612421276,-0.024969249007073476,-0.007179168331689741,-0.0448951034388028,0.01741876416768189,0.08605195933969799,-0.014409939937623763,0.04247515567963672,0.055190153088845714,-0.055746635793226376,0.03934169173034786,-0.039120847061747725,0.05848663126390718,-0.10480811815187945,-0.0368350214641571,-0.010559375706359559,0.10853927778847602,-0.0038211972225580277,-0.09700956676060303,-0.004170758622122017,0.056646597586072024,-0.010281704425591716,0.017833598552666457,-0.013084533092395139,-0.02323503530673113,-0.06065314135680629,-0.0032373382625488206,0.008418662189531115,0.02736376918815905,0.016273280076309595,0.05723379110024149,-0.058805114828010784,0.05828527130364164,-0.05779138693758865,0.007418924338245101,1
Sample_GSM1317938,-0.02891117038763365,0.008145855101079309,-0.016041013072200926,-0.0028975022917299936,0.002819275008279637,0.1350512094454248,0.035077977083594745,-0.04756049331854392,-0.07019368706881354,0.0059560955969736595,0.10232260710674838,-0.11823786308345356,0.03585323553951302,0.030391991329585574,0.009051631517262567,-0.07909829329911296,-0.010791765402192828,-0.030968355087945664,-0.029778916995904077,-0.008426664697601944,0.14288758217881348,0.06927292632035502,-0.05236170613156423,0.030298298022171728,0.004922031394010527,-0.0035980341720618695,0.008722964803146369,0.021942288816530132,-0.053804236559850144,-0.0002485419802957955,0.015916973446408748,0.013586794480290315,-0.08069911124547707,0.08956278674603371,-0.09434321040551569,0.11777871438619422,0.02255081201482948,0.030944079882026524,-0.06908793402887918,-0.06550280300696734,-0.031004265614402348,-0.06525274248167438,0.0935351793135354,0.01507274579097046,-0.12702621906660191,-0.052416196631220144,-0.07140222697809866,-0.09120245207558131,0.009931583363720617,0.04808827589310721,0.005500736661534158,0.03514361921412771,-0.03202175127733957,0.07632055129893535,-0.00646172726318963,-0.0381463162498825,-0.08986557467003538,-0.07980207398840414,-0.029730368848858543,-0.06731547407827534,-0.07946362678707593,-0.025702863862915128,0.03953710485007447,-0.11373729474519939,-0.05403454127309501,-0.09156141195085427,-0.023657232806757134,-0.004549840093988746,-0.044601732088218424,0.016214197406653096,0.08834032405382584,-0.012475195111044694,0.04166079251754049,0.05282844764101251,-0.056499539169209786,0.035595476835875675,-0.03705969636206834,0.05550081430994773,-0.103910778226157,-0.03507088926553817,-0.011986834651744818,0.10797307571083506,-0.003508660278545805,-0.09650181767734906,-0.008080843484046566,0.054518158551625145,-0.013824604850025122,0.0159847052943201,-0.015090363721545675,-0.024288536971910846,-0.05872462544723625,-0.0007236876591130685,0.010407425879589394,0.028181379370234332,0.0179550926188948,0.05976847017779837,-0.057432865415631425,0.05993621168908957,-0.05793339494168754,0.01003032064403821,1
Sample_GSM1317939,-0.02805616615835827,0.008296042515756113,-0.01568250547573122,-0.0038207583318292044,0.004517407795263153,0.13755944719561905,0.0360209598282409,-0.04592098189481024,-0.0707773079141107,0.007973728127710777,0.10245474720292778,-0.12367334855829085,0.03421022950674451,0.03036715337687551,0.011176230071732171,-0.07898633641269379,-0.013218796138185444,-0.029294705362036277,-0.030528743397716628,-0.005629040055440149,0.14406481372101665,0.06759493833815984,-0.053483646805051036,0.030672390525664745,0.006472377515809973,-0.005221527283591023,0.008853308860219138,0.021382897997266264,-0.055035266591143626,0.0004899441035674798,0.014984398439024903,0.012798432766895313,-0.08031908939442474,0.09141696015352438,-0.09708243625030097,0.1196261225397684,0.023296749753529605,0.0323938413342036,-0.06841346628636145,-0.06617713950305966,-0.03242794464999646,-0.07055026740977607,0.09398610902276261,0.014462144979431426,-0.13188605836090003,-0.05336445003133809,-0.07235252644097893,-0.09407422541524202,0.009413875514820869,0.046740317157300273,0.0038151897114488,0.03713248874251978,-0.03327197424953536,0.07824885793971705,-0.0061550727972734184,-0.03708316059436097,-0.08908666129816505,-0.08198687141579829,-0.0313736630688713,-0.06699352555991034,-0.0777661710040398,-0.027313774841918163,0.04193000735176091,-0.11894024448136427,-0.054199775464888175,-0.09411928695455381,-0.025551097668625802,-0.003924285114382425,-0.04324121766791984,0.016546052810518463,0.09160051694419175,-0.013327524556942291,0.041288717066449376,0.054331959875816675,-0.05860950091290999,0.03728654816469545,-0.0405790395939408,0.055742774040323295,-0.10500091813747929,-0.03613241276357787,-0.014837328007037878,0.10842288560421327,-0.0035026279809191904,-0.09941082557110696,-0.009416785921643288,0.05496919900508371,-0.016368638309983856,0.01896970326519891,-0.014652513504509483,-0.0279201044358926,-0.05865287897786649,0.0029638427251982087,0.012911946832560075,0.027838412047570153,0.017867703838343164,0.061751355137530876,-0.05824996685000032,0.0624368688914635,-0.06091500658897569,0.01291224286799014,1
Sample_GSM1317940,-0.026624545747525808,0.009902840300866656,-0.01680138595588513,-0.0002686346277243358,0.0007328444652684297,0.13584925602316364,0.0348282436453435,-0.04592615026745266,-0.07304860234678039,0.0051659467826647406,0.10261216459397188,-0.11522539163473504,0.03768913288471526,0.031145229150962538,0.012201137459408524,-0.07340873041589123,-0.012465014076064212,-0.031450726982098776,-0.02797783513761136,-0.0072199449173353525,0.14461886248301037,0.0653164390505043,-0.047622508931084453,0.029730693410499484,0.0029742748034203475,-0.0019552961734269556,0.01095161579642641,0.02117856004894392,-0.05240972681216458,-0.0010675878976208668,0.01564589004646451,0.012858403778391666,-0.08262737338452375,0.0879685255193203,-0.09137440581814066,0.12099638337861317,0.023220065646887326,0.02875544351793265,-0.07101597057472428,-0.06567941041269905,-0.03271546375355886,-0.0626802120679089,0.09630031447593468,0.017396774660444942,-0.1259605800425179,-0.05134053388976019,-0.07439375876584994,-0.09211781249451903,0.009323177351047311,0.04572833337229983,0.00733531101729688,0.03688274872791517,-0.030157714509164768,0.0701575445135265,-0.007591020347747805,-0.03729394834748742,-0.0894492153537323,-0.0789870261205659,-0.029081535839938253,-0.06860772314687262,-0.08188534995784105,-0.024383469770453452,0.036990881244924466,-0.11074779121860472,-0.05105208654529788,-0.08822640751547879,-0.02167047501117191,-0.004667005482716688,-0.0471915121524232,0.018700224704178387,0.0853197087091301,-0.010048186828490973,0.044436255716094705,0.052330484125525885,-0.05321152040504616,0.03536703263648217,-0.03567404153294044,0.05856213456227538,-0.0990562217341963,-0.03916887434638378,-0.009186485644233607,0.1033912562352216,-0.0018188345214311646,-0.09484550190097502,-0.0013570040224129903,0.05151975783508123,-0.011959289566784105,0.017253843467176462,-0.013086433770384546,-0.021624817559525587,-0.0591476454531246,-0.000291477118724607,0.010705874984601904,0.02836948718479791,0.017157151514751445,0.05636238881992529,-0.059122992340199694,0.05658575828343028,-0.059914025158299876,0.0035432250760479805,1
Sample_GSM1317941,-0.028777469673864752,0.008004775750210816,-0.016135374080094314,-0.003121141541157276,0.0025427571053659474,0.13518553551411466,0.03576225271412876,-0.04543336631146602,-0.07156151846050864,0.006443373332621506,0.10367168196148262,-0.11940575601186242,0.037993170815680856,0.029563115954647758,0.009746692701081886,-0.07766639147991082,-0.011320312115305374,-0.031054374725597793,-0.029978977245050088,-0.00798316871561139,0.14406739740226332,0.06735623839662461,-0.0516811934045636,0.029518769701049906,0.0056111344867004415,-0.004051520176332545,0.00873272843690569,0.023087891317652154,-0.05390618839368591,0.0003827920297019761,0.016406980242965028,0.011290762168177345,-0.08284017857088022,0.08977583651675954,-0.09282969043465279,0.11923452901029072,0.02284864802102905,0.03152836860656607,-0.07009227774106014,-0.06593238191592762,-0.032031770353544924,-0.06563594019684683,0.09483304240080592,0.015455221757906592,-0.129822947016365,-0.05261869765651699,-0.07175047691920426,-0.09248461680519499,0.009209237414729031,0.04699934896615511,0.00790199847821435,0.03643345946027724,-0.033198579081768306,0.07607469455415654,-0.008070571944991604,-0.03775796733406179,-0.0891201088560674,-0.08076775322877931,-0.03012233487693339,-0.06780975850223007,-0.07800417845133042,-0.025892473613063488,0.04067099856905057,-0.11367936726043354,-0.05429509916624629,-0.09020466917164108,-0.023640114334620894,-0.005805113801242383,-0.045415382933258426,0.016299656443079028,0.08744125715201478,-0.013524976655499215,0.04197955809836376,0.05405686151910557,-0.05646728385483203,0.03605057758491711,-0.03732404799270983,0.05679195991418295,-0.10230775826123555,-0.03632398922514903,-0.009409728525766227,0.10687428636245104,-0.0022196580605542493,-0.0959909096524857,-0.006817176385445852,0.05332858685312703,-0.012115453214138741,0.015953069224498777,-0.014099639842881359,-0.02288910181454773,-0.05971391930091992,-0.0010774678547573237,0.011058546246370031,0.028142075724094887,0.017444267675066797,0.0588742699387664,-0.05885063808522679,0.06082488184525586,-0.06016323927502745,0.00944994106966884,1
