label,emb_0,emb_1,emb_2,emb_3,emb_4,emb_5,emb_6,emb_7,emb_8,emb_9,emb_10,emb_11,emb_12,emb_13,emb_14,emb_15,emb_16,emb_17,emb_18,emb_19,emb_20,emb_21,emb_22,emb_23,emb_24,emb_25,emb_26,emb_27,emb_28,emb_29,emb_30,emb_31,emb_32,emb_33,emb_34,emb_35,emb_36,emb_37,emb_38,emb_39,emb_40,emb_41,emb_42,emb_43,emb_44,emb_45,emb_46,emb_47,emb_48,emb_49,emb_50,emb_51,emb_52,emb_53,emb_54,emb_55,emb_56,emb_57,emb_58,emb_59,emb_60,emb_61,emb_62,emb_63,emb_64,emb_65,emb_66,emb_67,emb_68,emb_69,emb_70,emb_71,emb_72,emb_73,emb_74,emb_75,emb_76,emb_77,emb_78,emb_79,emb_80,emb_81,emb_82,emb_83,emb_84,emb_85,emb_86,emb_87,emb_88,emb_89,emb_90,emb_91,emb_92,emb_93,emb_94,emb_95,emb_96,emb_97,emb_98,emb_99,emb_100,emb_101,emb_102,emb_103,emb_104,emb_105,emb_106,emb_107,emb_108,emb_109,emb_110,emb_111,emb_112,emb_113,emb_114,emb_115,emb_116,emb_117,emb_118,emb_119,emb_120,emb_121,emb_122,emb_123,emb_124,emb_125,emb_126,emb_127,emb_128,emb_129,emb_130,emb_131,emb_132,emb_133,emb_134,emb_135,emb_136,emb_137,emb_138,emb_139,emb_140,emb_141,emb_142,emb_143,emb_144,emb_145,emb_146,emb_147,emb_148,emb_149,emb_150,emb_151,emb_152,emb_153,emb_154,emb_155,emb_156,emb_157,emb_158,emb_159,emb_160,emb_161,emb_162,emb_163,emb_164,emb_165,emb_166,emb_167,emb_168,emb_169,emb_170,emb_171,emb_172,emb_173,emb_174,emb_175,emb_176,emb_177,emb_178,emb_179,emb_180,emb_181,emb_182,emb_183,emb_184,emb_185,emb_186,emb_187,emb_188,emb_189,emb_190,emb_191,emb_192,emb_193,emb_194,emb_195,emb_196,emb_197,emb_198,emb_199,disease_status
Sample_GSM1317896,0.14058600788082284,-0.1638103801237336,0.38400557148316883,0.0794745385988826,0.17489372095114022,-0.1311542579667328,0.0776785589033752,-0.43879339965018066,-14.703247243458879,0.01254031823958189,0.02774045471205421,-0.07561928675994374,-0.026394700931089882,0.08863364907165962,0.017798161335033053,-0.03705784073878354,0.03949105140731725,0.23188348776565487,-0.2041752502285106,0.20507059306672665,0.026663522456058634,0.049211632554118555,-0.12904924238651205,0.22735740388919037,0.0810369659487047,0.09527139625231278,0.2841912531652635,0.6317096628165687,0.2874625347201083,-0.1071526142854832,0.2598420148180771,-0.051928091162968974,-0.61290232027505,0.3357746743424043,-0.2046650255684839,0.017196846204265342,0.004321930032152033,0.02970665669072439,-0.17518909065124247,0.03866088450190807,-0.09391797655404853,0.349526435086973,-0.13754196626113077,-0.33299311963463457,-0.01748035959712166,5.016641231802615,-0.08173479334567116,-0.0688166136577928,-0.16803071144795728,0.1731771503269149,-0.9308761376900178,0.0990376417361165,0.4842693646388061,0.10604401561091432,0.07485331347868143,0.13235655084127498,-0.0582595776130096,-0.38555486450022874,-0.18954517224092188,-0.4379262938206318,0.11127169661985375,-1.0463044914723647,-0.09401249757819911,0.2325051035925957,-0.04450914498162536,0.10686033338492504,0.14116408343424472,-0.10703913586358259,-0.005628602316703543,0.07451069852317098,0.11209102130496922,-0.5504001617036348,0.07720065982118604,0.28667916752474765,0.052358498259451394,-0.30305509858157964,1.0542726291743416,-0.1532404445547404,-0.20176764224774235,0.34336346072563295,-0.039927390379535285,-0.15777886443353628,-0.21120873719203392,0.10536833725228169,-0.16568049743308297,-0.042892534035211746,-0.18664969111070723,-0.06676276771496796,0.08172298258583491,-0.07948136724313926,-0.46274133483360896,-0.0031184162420448487,0.2546584653180446,0.8212641214686174,-0.013989354294336079,0.15735844979525504,-0.17576559436483186,-0.20000163778080818,0.08463707765676608,0.05862163890733289,0.2339005253078126,0.007070739958400961,0.07171444654539633,-0.16377203347137104,-0.17805132564731463,0.5716191901232546,-0.08391837155900535,-0.07444785956201194,0.02030539124258783,0.31518766252458014,0.06591650692441008,-0.3113700564171214,0.22178003347428293,0.061279809332170074,0.03556800822819853,-0.0675383376936273,0.11052079361328353,0.10472447254696433,-0.1569609062926353,0.10985947948522808,-0.286475483870782,-0.034699501438590276,-0.3190223308096726,-0.07701389148815106,-0.1260467764075391,0.18516955785499634,0.06387541342471306,-0.6751961087619333,-0.23034147596925306,0.08521015401665606,0.4698026477917227,0.16524322774432113,-0.1654686531887604,-0.2672358916220423,0.027911360053125178,-0.6866937983005356,0.10241885357943181,-0.20535778748366548,-0.1763186512723312,0.2166149436698475,0.20509185953848896,0.22894632120745018,0.052681856132097575,0.3332733439884326,-0.11432188777124819,-4.732742661358093,0.10741943237894518,0.054810826825527875,-0.13518832007253603,0.054000449846227164,8.232216704283175,0.6566408528518812,-0.607365767971289,-0.1246967809136793,-0.1134628561210794,0.19077781385901796,0.3340941163395896,-0.38481889063275937,0.2904132797120429,0.09668153783359837,0.005429150564487707,0.011905657612423027,-0.02260917005494097,-0.02618012519495527,0.11719509476207968,0.06487806204744692,0.052512542060716844,0.12608454656874973,0.061304393846847764,-0.2829590953891346,-0.15226753152453917,-0.1411471438754426,-0.03736323718117335,-0.05908472208141792,0.11676734778513459,-0.5783503495968617,0.42773352612645843,-0.35643096548813946,0.003228035284852489,0.017343904591420486,1.0100238810401023,0.21214621797459277,0.1202581432638987,-0.2130817218847435,0.042280864510175396,-0.0692491435974899,0.6602208592308993,0.39427268988226727,-0.07903602487692189,0.039155851594170635,-0.03545636458452195,-0.12707013841061193,-0.0326835343788551,0.238619822477268,-0.06662423570305769,-0.33891613498801154,0.18061911800783587,-0.05562687648845024,0.046645779509917516,0.059619182720933424,0
Sample_GSM1317897,0.2515154936116712,-0.18916951636622634,0.2863101256161674,0.07347438402642337,0.19093380403693708,0.024619798026419882,0.08334021474071643,-0.32465126399716543,-14.732439374120851,-0.09535432320273589,0.020241453581978635,0.06259565290156602,-0.02400210096521779,0.036281263462150215,0.001703864200963741,-0.15913542536744144,0.08946376787024163,0.22811811389673858,-0.227789565444219,0.09733506862955173,0.07533347263048822,0.0653177238868235,0.01625072258462039,0.12796619208764337,0.0041677036741887075,0.10717169505362091,0.13437443802823412,0.5810666946080557,0.12066656424861234,-0.027504743713787177,0.2650056544521062,-0.08088472463927698,-0.580680072766024,0.30521880759607395,-0.07374767432543831,0.3258704618520094,-0.017047609432238594,0.20628553200610092,-0.26215819336457924,0.04613162596361412,-0.11869482663962627,0.24797983043809355,-0.22761360830935828,-0.291971867536447,-0.1368827327194428,5.019370610261064,-0.0495016360611993,-0.10315130240874221,-0.24784268933142972,0.03045001500815815,-0.9035661234547524,0.061801828961010406,0.44443961651219516,0.25012711726818976,-0.016291997625216,0.15279050129021976,-0.0072406286400652975,-0.17872374357494694,-0.14878341233854603,-0.39095285945278263,-0.028792405513046005,-0.6497910021359466,-0.009294201634472806,0.18671425476101547,-0.11027806342482799,0.05164533332583924,0.13784960924794262,-0.03971066606213997,-0.012666325341152347,0.023749590459645087,0.2454480104003542,-0.48862861146160513,0.09975904037036351,0.44756098723082066,0.16335952905551074,-0.2826709296767604,1.3829426675365206,-0.09554016645709022,-0.0749839289442631,0.17790438160533287,0.09558600404187308,-0.1710233684525319,-0.08824404873450585,0.1702883306518963,-0.1194918066934969,-0.12268905630371259,-0.06359218210271278,-0.24049401683184524,0.16914392519172508,-0.03712687730554749,-0.17665959735742576,0.08943198738472377,0.21235251605828445,0.8791100955664519,0.23193073886088267,0.18648503891858817,-0.12091561965162834,-0.15145428513076492,-0.08271661192385595,-0.10829026151317113,0.22249707219923556,0.020204055148308267,0.11079125462799665,-0.2319172161647016,-0.22818584101546377,0.6496942001652395,-0.039547243646688886,-0.07901733287769015,-0.0314969767962658,0.12428354640208022,0.05547035938405397,-0.3088420116751529,0.3982208307287084,0.06963741661969061,-0.15930370209214892,0.007212198667518798,0.0807870373406118,0.14233276056087898,-0.07648010996120763,0.06909475516990089,-0.2511343778192357,-0.016203887031590494,-0.34828253436586476,-0.07251974739234678,0.10498653187638746,0.2714705378437482,-0.014977467650684752,-0.5728611095391781,-0.20457237047578536,0.2688486340233991,0.4808402197179078,0.31793642377261566,-0.270173318910812,-0.17660272952926287,0.02757691712773143,-0.44832379323639765,-0.06487868828961442,-0.11648234072953509,-0.17854168445771149,0.255856218104767,0.1990088425100743,0.15472396699639804,0.14462986487211407,0.3913594475860273,-0.08990035699679054,-4.671853547526023,0.09358956230187292,0.08306020275691187,-0.09066285157318706,-0.07733694237963662,8.323428792428427,0.550311612109493,-0.719981024540531,-0.07746505313682621,-0.10319784411313056,0.08701501040937248,0.12076836652023726,-0.5681538553954796,0.38081216374917487,0.08596205160959206,-0.048625749151069535,0.17557402844244158,-0.07941495716683863,0.017696826773297286,0.04108958159437302,0.06480717889021011,0.014169552949759986,0.012691142962174957,0.17315713157911075,-0.270396154088001,-0.11163276289699081,-0.18181318566989105,-0.06022996087987842,0.042230486477836136,0.19996485804310482,-0.42871209061160664,0.3612003318513326,-0.1529903622661804,0.018985884779127736,-0.029536453914708792,0.8592909551192458,0.2547400200405213,0.25108803628945414,-0.1036290003787165,0.08644349706515207,-0.03080685525406899,0.27770494172457755,0.0858374249189846,-0.12117901169063895,0.015980865164185974,-0.24887145132043645,-0.10376581189438158,-0.041793715606827576,0.3759025810706148,-0.09261447916893893,-0.19186463175784738,0.09221654243902527,-0.2241778811366805,-0.009198532218729804,0.09780184937132574,0
Sample_GSM1317898,0.2806670342121904,-0.2513024798506751,0.36953362886900915,0.10689776646562787,0.26154060764528186,-0.07140399607512339,0.04212807642463998,-0.4379178985053461,-14.838473603320494,0.0209124880453168,0.10291184348050282,-0.0013454471406949087,-0.11579303812888438,0.05019700122058598,0.08830469858192684,-0.14860341312704084,-0.019438423289547875,0.2833885661613389,-0.22832261287121328,0.11113020894531735,-0.017878904993494312,0.1143149834240388,-0.10171442355160326,0.19129901859442267,0.11776162981606665,0.14585129738611588,0.21025843874837205,0.7820004977549914,0.16146711393669308,0.032548725976219564,0.334653744518001,-0.2944287201448743,-0.707041916423336,0.3143960465485785,-0.17394318822941146,0.20781043276615813,-0.11883357175990118,0.09493325222100303,-0.2793705205122204,-0.028860997766215903,-0.12079758515317846,0.17292591382559505,-0.12331972221149329,-0.23189072210401437,-0.05569500088857218,5.127479018640546,0.028186982139627496,-0.10778882834614545,-0.2740246260982153,0.2987571702120592,-0.9072607130491289,0.17753218217694441,0.42722502911983345,0.2705295440135921,-0.02108141550589051,0.05630596116441976,-0.09554203272408875,-0.4152338892405582,-0.20818505744334148,-0.4126724945732538,0.12463569668170629,-0.7117640099699928,-0.03831240161318105,0.11482013246155853,-0.0036240173304683035,0.043723338331414556,0.14783102797331713,-0.08323689344672694,-0.04103497295919023,0.002498103851162427,0.20849828875021661,-0.6080523323014545,0.1537848313478666,0.5297308284685581,0.1302045876624097,-0.3967841662292799,1.223029264526786,-0.2989879346150859,-0.08680451210470694,0.335820550452068,0.009587135147534271,-0.12743557701883995,-0.19042758416921157,0.04980028501907429,-0.05821395035086899,-0.07152200008887834,-0.11527593632866082,-0.24236522831552415,0.15523613171646863,-0.028218028330035134,-0.3222812058487359,-0.013338202949797416,0.24454600859098433,0.8838749554612504,0.08450223838977854,0.15412824430465616,-0.16564069128250877,-0.17034552112762247,0.03822690134862519,0.0027974077405598353,0.25844383838092616,0.09404818247208392,0.14248652342321422,-0.19294248484267526,-0.30595719500209284,0.7518478760322622,-0.134087357467941,-0.04305352441950425,0.03685689242069644,0.19426740632505046,0.07193322522669415,-0.3268225301841815,0.39624404173449695,0.11642717570552515,-0.1231137554822276,0.06663175589520684,0.13122262660815767,0.0341941162713647,-0.14249594585707057,0.15145078719773988,-0.18934787551763793,-0.03058673112131672,-0.32001754531594906,-0.05938032914529502,0.10766668543708607,0.10053880232839776,-0.024251793848198686,-0.6576051857654458,-0.3361953337132825,0.24634155329661442,0.3968988335073047,0.16412239991393732,-0.20235068073060536,-0.4186933330391283,-0.029395298766063713,-0.6105635989475487,0.002989698597609191,-0.15745799843867828,-0.20615971512382977,0.32135792196686924,0.05731613006361286,0.06842915993890694,0.06109175885773798,0.3218283239185576,-0.08736965084606854,-4.633617963076457,0.13584550382116956,0.06390651265988444,-0.06758595520588145,0.019226439582466892,8.27412209158628,0.550961644794325,-0.8214815953192007,-0.14834105274911835,-0.06572799200886911,0.11567071238235767,0.26685047335484885,-0.2957130928440249,0.4152022681277053,0.05902020697263072,-0.001360027991868445,-0.04529170508050684,-0.16368693287784786,0.03715650571444628,-0.039313868133711585,0.05574971008506572,0.051697795636669854,0.05608615931174715,0.07147106559417925,-0.24750036363921987,-0.21282782874529654,-0.2564502865890718,-0.09956983341613804,-0.12905307593390108,0.11182450500406765,-0.6498860144995249,0.41979043568990715,-0.25497966284782836,0.13160565638743627,0.03966973152489411,0.8636852736330821,0.16959453450535342,0.09004508151236888,-0.08038615113231333,0.006231149312274685,-0.07623825885817057,0.5400655338620693,0.06364500080044051,-0.08192219974325317,-0.04200223297480026,-0.01487836382337567,-0.13898064641526997,-0.03188795305019553,0.3394209231025382,-0.12413474226358578,-0.3370684165527272,0.16816229714549202,-0.11297826687195026,-0.01090455321795122,0.10248789108120498,0
Sample_GSM1317899,0.2757921076869255,-0.2984490714488967,0.3716398237568848,0.09742671237993486,0.197558122022926,-0.19899101905613495,0.06822183200533652,-0.5072974673036892,-14.845157637212461,-0.03215967868064007,0.0789307819028405,-0.025904273420012686,-0.021462721922137516,0.03384398784562587,0.06739526795280938,-0.16564365336506484,0.03988295223185923,0.3024311665892936,-0.2246795023048117,0.09856449973511668,0.05339554201229942,0.10360968603536111,-0.13897548925362813,0.20386389678556938,0.11273657450740908,0.09207108092735053,0.26839062293273236,0.6937916793811272,0.15505240252558344,-0.048911779055709,0.2873290988519079,-0.20620618107254615,-0.769811589626062,0.3614431433748738,-0.18604625011993375,0.2036588015445652,0.00939342584331276,0.04829120169955114,-0.32972578990221196,-0.11472989133035921,-0.11765193869757583,0.17159479501228225,0.12519158073844494,-0.370213407513157,-0.034801951505840936,5.038089280481598,0.08605939678793224,-0.11789298138297413,-0.22602197079951603,0.27504983321949583,-0.9200374185074404,0.08808030432038927,0.30700984004365994,0.2778049298722886,-0.029481410115642634,0.09049916319135928,-0.08872403595746818,-0.4456600332428471,-0.12938288352976324,-0.38155486337292377,0.11513999617666283,-0.8877013993553566,-0.056696616762403014,0.07298445630601418,0.02662768507368779,0.011107610597391076,0.09109059135897202,-0.07560040878565444,-0.04900546107824081,0.038282627957304735,0.15930074482847553,-0.5830277608218641,0.1853516527964618,0.3916620194355508,0.09857527461091906,-0.4465608517152268,0.9285368579688826,-0.20347012266443815,-0.08383061070964226,0.34819006968460325,0.10644359777304402,-0.05093864167206899,-0.2165766505187261,0.11096181433280436,-0.06738992995987197,-0.10191647771714663,-0.07879827221758345,-0.21504416188703193,0.2581091756353029,0.014473205034393994,-0.3181515034193886,-0.03123554365131955,0.25445263968772014,0.7584868489886416,0.0839364371103597,0.08487585912389707,-0.21315975714228674,-0.2061184691573219,0.08214147805306359,-0.07154869718878071,0.23575308076903087,0.07583023656273259,0.15286703966725979,-0.23060913116491044,-0.27649214138750733,0.7263654763855888,-0.05304300623850259,-0.004150003416302362,0.07661245116429131,0.2902873620474356,0.061670896503382665,-0.2026922762860424,0.3800858873981454,0.04815400284055392,-0.005229882688200741,0.010008257927920955,0.17759116698875654,0.1320073882101352,-0.19038909862155398,0.15451079056480452,-0.21367239493124135,-0.02575225032501355,-0.33381619416632435,-0.12697609336956422,0.08726498462333161,0.18161366047518837,-0.04665336613790596,-0.6668204009906175,-0.35257525060057776,0.23562931133815496,0.5326684606341079,0.2822369595661206,-0.24487391266599107,-0.48796974058692244,0.013225228756154143,-0.5103151267332453,0.07384344373995262,-0.13215040490867203,-0.2331716607097512,0.2815894498146101,0.08348932195537444,0.12388573629159669,0.1758366598916022,0.33522628441775776,-0.12249849000065055,-4.728895235043364,0.08514629930219071,0.10503144509958792,-0.11101508840454995,0.17605817698200565,8.221203607846876,0.5604859823152686,-0.8690818924404775,-0.16774679024945072,-0.04619863339751708,0.1974705040697363,0.34586705835724735,-0.2716126896518162,0.449004419805042,0.04854599018773028,-0.00797570880607901,-0.05841015042205787,-0.18223998134615377,-0.014921821307756104,-0.023195439796306744,-0.02858487489665569,0.018681657603077398,0.11019643812929211,0.09959705872492712,-0.27397311718351636,-0.09213947288340857,-0.1532512876315125,-0.13499590575966838,-0.016417015353989782,0.22045351169866845,-0.5483929507336908,0.36424504677373254,-0.43953585477717977,0.12608782647530317,0.019278687618664473,0.9932979601147062,0.21623767580151826,0.12099490588456165,-0.10768710837733199,-0.10732294086634686,-0.03507676274329151,0.6444648541376304,0.044729111837875486,-0.08588926916446771,-0.04822890198689338,0.02477354643950184,-0.11991776013815689,-0.01418161522607655,0.3072033052817641,-0.011725883584192992,-0.37280850986078373,0.13309589450375914,-0.07028354212579523,-0.02756606571985948,0.11566682567491234,0
Sample_GSM1317900,0.10798277942972091,-0.12346536517469121,0.33671978957703136,0.1485752685702752,0.18706438326797556,0.05149919191536614,-0.08569645904450143,-0.3984797149325223,-14.642064631283526,-0.033987113639159475,0.0643777290622485,0.024204011774864486,0.004630019157893717,0.13335065793257916,-0.0006759061065605206,-0.20803718065330926,0.10694291265589291,0.2222176578481613,-0.252052176179073,0.13741164551563495,0.03567325182519163,-0.009092625377432422,-0.10492504793537377,0.22969621491063547,0.1013739268974028,-0.020555928069052466,0.264795461597942,0.6991386474667728,0.11479809283727377,-0.06375753233370866,0.32903622187259063,-0.1422009956465351,-0.6401709100423949,0.15437602593402466,-0.22340366235166909,0.16545692338528004,-0.06255757261095943,0.2526744188489487,-0.12685111992811848,0.049220192185302436,-0.09814150222905518,0.3852771146174117,-0.16410429784992034,-0.4457063943485116,-0.01928715365424044,5.018540588266336,-0.0866161060134389,-0.0430624700452095,-0.25718114505542333,0.18973562193611462,-0.8758224029296988,0.13643671006883396,0.3734298165740035,0.07534747073070686,0.03382202539212981,0.1446311193277892,-0.017155547226818342,-0.40662972125705227,-0.12486002849304495,-0.32116693868002355,-0.041201815549984505,-0.9246726574349043,-0.054500042161907826,0.14246650125460317,-0.019920628875633117,0.02047612499099819,0.2766126726238079,-0.09183363763952186,0.06250918159340386,0.09883685834104437,0.20278476949322025,-0.607530574763438,0.06723721311122889,0.42739987430728554,0.13260085570266833,-0.4432276498938032,1.0771759863234156,-0.2604231030735857,-0.14702306218148548,0.284073516178877,0.028000699934750867,-0.16938168919521338,-0.23401713765351936,0.09728660538636455,-0.04427457796323649,-0.0776703664922668,-0.15109754595817596,-0.12318723673911781,0.14064945357255085,-0.12814063157874098,-0.30502387820756294,0.0033795310197871336,0.20191645506506814,0.8537807785041863,0.0835264085603146,0.16101801103353947,-0.17504428028779165,-0.18005244862516884,0.044280646704301166,0.019577740316053947,0.3017738833500346,-0.05951456971214213,0.16876401899966745,-0.190260123461001,-0.1758266794297429,0.6499832819963017,-0.13791736486917475,0.032658573190278456,-0.04152181436778708,0.2303884152853442,0.009613111078221727,-0.5022741906806266,0.1894906782591318,0.04860061369560553,-0.05011824359801683,-0.07238061719786948,0.11208649983886701,0.21902350109285215,-0.16490291105854754,0.18837914645030657,-0.16393438938929475,-0.08000590907843391,-0.18837612458286973,0.030417271081369997,0.05116617747222987,0.22972528970899098,0.009618003453335588,-0.5347556544532193,-0.15360631900764696,0.1442462383279852,0.43497407997292187,0.1741223892972946,-0.24342597048846343,-0.15764850730238267,0.0466393272783662,-0.5589544482879665,0.11804281087117592,-0.1065734806651256,-0.17130229981405684,0.30225552075381995,0.07149963840942869,0.1574458405600723,-0.1519579888331506,0.3864896094376164,0.047074557973055486,-4.648208141703104,0.09780624812300173,0.01288600594907441,-0.09770221786272973,-0.003533790199470001,8.33686997052212,0.6541387699737707,-0.8308376796191285,-0.09396049837719389,-0.12184486250562042,-0.03641236622862985,0.19591199129753875,-0.4090122870403774,0.4563022130752817,0.13215439264721196,0.10968314616326232,0.06302440690869139,-0.14963794199510613,-0.006472665748382945,0.03270731165799137,0.06071133296343596,0.01379768774406059,0.07157582048510037,-0.02282569804184619,-0.29402775638327133,-0.2209680517332447,-0.10532245612931299,-0.09769091456545355,-0.17920107195348103,0.07788836087751985,-0.6012576317833523,0.5413962169833273,-0.30798838116876465,0.049974731580685564,-0.0009441988296053233,1.0080979106065668,0.10890852257615748,-0.011141740780400262,-0.05421539323140657,0.05158130957634895,0.028545795489630828,0.7642724436446285,0.39640175026749297,0.004481928795736968,-0.016448081068758953,-0.012258618645021258,-0.16666355874342095,0.01713304471321374,0.436902324388291,-0.03579554498685483,-0.25942907993531267,0.09391369578666918,-0.16121763692757973,-0.06195732604120937,0.09495500494097717,0
Sample_GSM1317901,0.21466329974790926,-0.20671470367959652,0.38637509885122406,-0.061652970141189055,0.3820062055851112,-0.1250352175340169,-0.06399263151521063,-0.4035834153026061,-14.73866150066998,0.0050597778000787755,0.029281223605097287,-0.04599455149209673,-0.24709435512965064,0.0027013319071276846,-0.03708125583215744,-0.047139179969759505,0.061006488723370104,0.2289252824328637,-0.1716691234775046,0.11707605198747367,-0.03685645934612297,0.029923000333574153,0.06819330199687075,0.25525379385297264,0.12644326619747592,0.11011452184312394,0.2266509982948974,0.7807826327716311,0.382500426363449,-0.010699372448671916,0.2986970459400609,-0.4080379246945739,-0.6482568537165415,0.2977421598361465,-0.04004306553961668,0.34381817226717565,0.007069630923058366,0.13980125817317945,-0.3154257790272268,0.01099721762464282,-0.12630262472572532,0.2827714917580826,-0.3548733338693057,-0.23773188017240324,-0.1795506407109966,5.17051221209353,0.029101605904366175,-0.10486476172686454,-0.3686804606553133,0.11960491112575608,-0.9001998562749005,0.06039524229120324,0.49788169763436074,0.2180796711657403,0.03160541000631661,0.047142267633357104,-0.12069739754838014,-0.17525674172161745,-0.0814905579988376,-0.38468770356415655,0.010024575942272096,-0.6421845770213678,0.005998281548883263,0.15346649494618722,0.04643556665899269,0.0030297878453053794,0.20505201530931286,0.062087583291216504,-0.09659028510833322,0.01573885348349688,0.16370603808499987,-0.5421822546706702,0.15330786644218553,0.38237844609524396,0.2473081120400976,-0.3653667905025324,1.491753269126299,-0.09384980194513318,-0.04503102806247119,0.29417042839924606,-0.1900181652025079,-0.1510718658970591,-0.03860412132863903,0.010880407870095242,-0.09143968708736125,-0.00018228535259788263,-0.03120728562771307,-0.4231569682564809,0.11694885078420116,-0.010404820216470273,-0.3369192642132026,0.0488805777820784,0.19662536960014063,0.8051934692445667,0.1631050295073866,0.16966522659600533,-0.19036694684967229,-0.12376748491629733,-0.007303326521676437,-0.08191071594273731,0.20148192669304843,0.06202426350397982,0.05343317445210415,-0.2602397999596639,-0.29557914061429,0.6543622902432683,0.043405450561175146,-0.09685452153778606,0.021828795606803716,0.2391656198187098,0.07594492553276985,-0.41069686446240095,0.3904964838027034,0.12099792093181032,-0.2442341646766495,0.0877602085366682,0.1359989365841175,0.03637063363852852,-0.09760204866472708,0.04764432297107502,-0.3288018281447559,0.1091072347228138,-0.25836362633467674,-0.06480293946376345,0.08331408043678148,0.2991641369336671,0.0812506694308853,-0.6632514412456302,-0.2654723263606,0.15262622769952966,0.38015133055851286,0.1727306582811563,-0.264559661443836,-0.13436409744879826,0.041126477865498896,-0.5024295476130506,0.09874455054631372,-0.011457502388638463,-0.28100987838746744,0.26963536281139755,0.2766828033815744,0.0436898882305738,-0.030525277973380706,0.3967659645133492,0.04552664835151393,-4.6675475801299315,0.23076938045895137,-0.0013342451224741003,-0.10818683479465785,-0.02140877097450715,8.310941184940178,0.5972024987431039,-0.6502913863111293,-0.13952524025654456,-0.06727129193690858,0.23118314324655584,0.19940449372985053,-0.5560003723148671,0.5452222598014284,0.10861567072059282,0.03168165292824167,0.06802770398353779,-0.04124313520238212,-0.03831499990906341,-0.13176648443839045,0.07495883736946574,0.1630566037161323,0.0515378894191609,0.11888065637112832,-0.22351929764169176,-0.12372769011513488,-0.19865436170619974,-0.07997978987561573,-0.093346137353492,0.10930721014284242,-0.41750611085198297,0.47388864416046367,-0.34485292807127194,0.07446030822344814,0.06267590762911723,0.8253814275993585,0.12342102023608949,0.07409972488199514,-0.08669309239410547,-0.0025821276493502043,-0.06770630685915599,0.3549839056929213,0.017146199727305956,-0.1460709631288222,-0.029910772690576598,-0.1766440138288594,-0.056866294577103446,-0.02163019544970002,0.24325105575998426,-0.13228479478460783,-0.32748579399757677,0.1303197146455799,-0.17603914898102482,0.03719633421506721,0.010772926604557207,0
Sample_GSM1317902,0.2210489548809839,-0.27058950983307006,0.3335843357372886,0.050318080009665464,0.34677057497260644,-0.12009922943320007,-0.08028473138170192,-0.4711605303886903,-14.817746199090402,-0.007299559696272232,0.04354678980774219,0.009381864383454352,-0.06819635747645508,0.057180855957668746,-0.035753708607364626,-0.09923721713970413,0.06524029628481469,0.2515630080439468,-0.18343533828492972,0.17330972083082427,0.0010647306816799302,0.04404289381157648,-0.035263882459179344,0.3085992794696926,0.0749165204050885,0.1470761433453803,0.07782605932665815,0.6790270626387216,0.15851051767539734,-0.01000673930355665,0.32286799369187696,-0.3161385815118861,-0.7005152136480552,0.3305645586373672,-0.08008687083163493,0.2479691245412612,0.08380693023325092,0.04901281038755056,-0.33540074737140135,-0.01932962666222549,-0.10622838186966532,0.20339588014797735,-0.2268308934612776,-0.30069379457831896,-0.021090363393999438,5.068828391893567,0.10728801890691107,-0.09024266258528367,-0.20939328864629145,0.26714500438931577,-0.8913952208518272,0.021442848076593968,0.4807047380243293,0.3672797902970989,-0.026938683041211758,0.0002511958296344411,-0.0625233593530377,-0.35523529207125815,-0.14771329216377635,-0.3024336736868114,0.10758427073567728,-0.6835710117877819,-0.02837884372709217,0.10264274301175991,0.044263502841829984,0.06866820923756925,0.17562444599781216,-0.13978157098835234,-0.12512188512414282,0.030905804874487276,0.1623843314641886,-0.5276428953072244,0.15478622205332968,0.3012257748356754,0.1365490767465241,-0.278724701207611,1.3029878107130224,-0.08054014718608914,-0.06766720567417228,0.2659490871078229,0.05628368389121001,-0.08711903988835187,-0.17494452140605105,0.07853625985178712,-0.09023343739699839,-0.11718364350995855,-0.0016580600640979334,-0.30938568774602687,0.1813514992870877,-0.01846955144761134,-0.3655239365550205,0.03335000210375279,0.24446247092518938,0.7680001676828648,0.16275064394968786,0.26405719315396053,-0.24341025342247602,-0.2142751268682738,-0.05591185298124891,0.01157175803281646,0.3176421290226129,0.10220005278258446,0.04229896315314371,-0.20245657556507946,-0.2453777296953278,0.6548447617187217,-0.029805773658712408,-0.07152123947752796,0.06224618714827838,0.23717408151824473,0.049704258488979705,-0.19741261547025976,0.4712698285684227,0.1361082789081671,-0.1363991112753482,-0.015658708876403284,0.13213181518624725,0.054168524614434395,-0.1382913932537192,0.09995789159224011,-0.2919263389131768,0.05607141502756715,-0.32978146725207147,-0.06875892222018751,0.1603955119001438,0.27213265391316555,0.0933386009844828,-0.618947742481674,-0.3977289921467535,0.20836858414191115,0.5914647601634883,0.3617846681307974,-0.32624991640748696,-0.18020375532554414,-0.05792800184774802,-0.5183799542217131,0.0973506199312529,-0.14192300436822658,-0.2179708412066638,0.313658624471616,0.21786372401395873,0.16008570364657154,0.1526104018387758,0.35390664356631213,-0.019765550300609225,-4.682482669658647,0.23063565753966847,0.039963190754550765,-0.10231792743791443,-0.07837310242259922,8.238656505418534,0.717303428845234,-0.8222497484712821,-0.08319640618554058,-0.13006109720113626,0.21991696390974622,0.33183249593501263,-0.4611512693512964,0.5038721523438274,0.15277533736753568,0.042637507541572944,0.08909249528224902,-0.12265009144202292,-0.027480030117874598,-0.11849766206303142,-0.018577080994059945,0.08653903925200912,0.13131191287131305,0.16232972056149733,-0.2808977103705016,-0.1452648692434717,-0.2985154878353007,-0.06107726451213585,-0.09932882275692911,0.23366441929155662,-0.39346018901619667,0.34981110948815003,-0.38697560506952616,0.09996820752190012,0.05556145632166614,0.9705639447291616,0.14038305057944872,0.09778488846888655,-0.10889514573946452,-0.10160617789055737,-0.03442003842213487,0.3352297583975621,0.19673695247018455,-0.1730011266559252,-0.06369015912105414,0.001359223561450753,-0.09020228304013371,-0.056142633697504156,0.17424613137441536,-0.012817828497750407,-0.3557944096309912,0.1647346441965361,-0.07868570774506893,0.03727635626182993,0.09704342601697913,0
Sample_GSM1317903,0.2138329900272056,-0.2832135853601699,0.32120620988130544,0.03964810840481721,0.2363056074438963,-0.0822292302017987,-0.039310930251171175,-0.42366021359451334,-14.830308622354126,-0.037707664281875684,0.011366695843590624,-0.05113463276071829,-0.14162313867963156,0.12405901060854467,0.002297988834174768,-0.1502434618262181,0.035033145900342046,0.27703793156037665,-0.1947907532658358,0.15667713040529918,0.021922632830398973,0.044327466845741,-0.07886444746960827,0.3007139647512803,0.07175592569680808,0.12390837849509674,0.12793991415221098,0.6352909896464679,0.15158806529087138,-0.03579731712601903,0.32211181198140715,-0.28420493479568015,-0.6996059284023046,0.2644051730818657,-0.06774344712601688,0.2316061520360258,0.04875910126497846,0.08033571557010938,-0.3197638601693278,0.032095386803468726,-0.12875432762133185,0.1834813320287776,-0.19832149032615817,-0.31364270320900434,-0.01785055574487053,5.0295938792372645,0.06019957556448817,-0.0557132412864087,-0.21212861620940368,0.2719255555907845,-0.9224366407830087,0.043343814092793906,0.49201188311419003,0.3135911180640042,0.02018283924071388,0.010166806122284669,0.01029314106558728,-0.356855164337241,-0.1057797869321922,-0.36603593184417876,0.1175762461551492,-0.6503267795619043,-0.04758866233977604,0.0930516377093215,-0.015947463332323532,0.06665017701252506,0.2247236805445552,-0.14763780479286223,-0.114092248523071,0.0016592835700815877,0.1617640930695457,-0.5216867564032317,0.1288251288512175,0.2641675124405965,0.10956905551834838,-0.21866093782241255,1.2575090790715087,-0.08760591734997909,-0.1071626885068337,0.26349530418290573,0.04876184078769862,-0.11577039225056145,-0.1164416244617798,0.05612642792510878,-0.1073794402917075,-0.13878028556510277,-0.003847019917232768,-0.23663597012323123,0.1985079658103279,-0.01869178872963211,-0.3411552853096221,0.018277525835091478,0.2765261399877006,0.7566606001271641,0.18400043230117083,0.2993335364463584,-0.14038655103161654,-0.19219472380188757,-0.03300886211651542,0.011815700283712864,0.31271467292801314,0.04100229204016289,0.08349403967883387,-0.22227954103515032,-0.25584187863404134,0.6934162931272131,-0.08391313508486842,-0.050857386090585634,0.04264796730929503,0.17961883952123084,0.14026027626954102,-0.26453367825540564,0.5260101109140265,0.11068551422570862,-0.11532660414326096,0.024629627634355312,0.11349034393843124,0.03226572387098845,-0.15914255776994848,0.08092520281069177,-0.23995588585963887,0.06340095811158887,-0.33215657725468783,-0.11510800002085847,0.11924825904411016,0.2581241528471482,0.07016889708329568,-0.5615092840166868,-0.40333766673634736,0.23672178360805618,0.5979182605497848,0.28334794580120204,-0.3339836018220351,-0.15959710001475783,-0.007541557209886969,-0.5706249099574607,0.09341730263847597,-0.1622012395717352,-0.22887387894257938,0.2970455930493191,0.19335263394434166,0.22045166907598351,0.0906815666058805,0.3173294416392882,-0.06540664788060087,-4.697315478241952,0.18009498709355165,0.08272796690757822,-0.11062888934370005,-0.17307850744758985,8.26523712208454,0.6592150153338587,-0.833034389662235,-0.08066538871260853,-0.08827796885140345,0.19679426024031707,0.29305239118333465,-0.5014474063058136,0.4044366322791977,0.17127152425493866,0.006979452813844345,0.06726088174774994,-0.1345375026935843,-0.02619305544954236,-0.08857470022635956,-0.03359191097871834,0.0028828884691699808,0.07036529540932504,0.1524424221065103,-0.30763787036478507,-0.18717515595267417,-0.25963517666320046,-0.08174170143587738,-0.05091447238014127,0.21220303524904793,-0.4569021187192061,0.35007945331991247,-0.35453911791215653,0.04723844268741521,0.03630903610393509,0.9634893478381457,0.17368404624191042,0.16676128998787995,-0.1486640159044192,-0.07765709682681587,-0.03308748969859234,0.2960943285061928,0.30625978432367285,-0.17388433248662138,-0.047739933709622304,-0.08405368357561402,-0.08812836101405265,-0.029432488730647462,0.23595505192182092,-0.05092017266361319,-0.31841813471798125,0.11395545464182238,-0.13713771251058735,-0.0006143517975233684,0.1459169419865647,0
Sample_GSM1317904,0.20844024578681003,-0.21341552360478133,0.3375077503781063,0.011252438172215225,0.2673150064178759,-0.12071916642705825,-0.005347472903380456,-0.4912566864815621,-14.894715557019225,0.0369618021323825,0.0801026500578367,-0.06536196019968556,0.07410507641154344,0.08040355468180346,-0.06220946162139843,-0.07348390960150969,-0.013238609065524782,0.3329527847682169,-0.24856657471244004,0.2169004498788086,0.05599529638109029,0.03347361009351522,-0.16796221550655005,0.24135806321862055,0.06969893906187212,0.09794544356740238,0.1453242629183069,0.8006293190581589,0.2515468346696738,-0.021009230522732073,0.25169288568605475,-0.20501797600276608,-0.6940421148872623,0.25388150017867767,-0.0954238641703846,0.20758363241302863,-0.09411936523281916,0.049987496504321265,-0.254795652263837,0.06901720828607974,-0.16570904864904168,0.2334100200541828,-0.09392409050537782,-0.42956433213935663,-0.0811271812045017,5.11907238857043,0.014049239007031419,-0.0752534304789558,-0.20535656584213624,0.2780022740360656,-0.8879263374672475,0.10738614067696024,0.3746920698784184,0.3276072085951862,-0.03278902773099794,0.13523391286212622,-0.15836410677278875,-0.3883541837018954,-0.20532208824823628,-0.3006881595234774,0.153613435678971,-0.7539585485981934,-0.14408660564182718,0.04990553598442571,0.007739697806485813,-0.05373817589120621,0.14444023131714698,-0.08724343610219779,-0.004306897233687056,-0.0028215588260448385,0.1915908800739251,-0.6152089023298469,0.16788849468165612,0.4326950604341174,0.00787365346504847,-0.3051450619845736,1.1224002512945872,-0.2297373995515704,-0.10482381148759859,0.384549690270535,0.023056480730106816,-0.030368076936918686,-0.19639673075106373,0.07842738239498431,-0.044183339372087974,-0.10433476664777769,0.09390948001381297,-0.028031066923868152,0.18009431412807836,-0.015183068317525469,-0.2870343139469312,-0.003792144352395341,0.21424240658705454,0.8472032602237134,0.18133236926715296,0.24399909762395802,-0.1957253846339511,-0.22652731507241083,0.08031179167169347,0.02265539408768113,0.27366179345261415,0.1526126169830801,0.18548376454840418,-0.1588887440919952,-0.26332442969403275,0.7953590304840709,-0.13593987659500323,0.023233372468217564,0.04096494485247243,0.17909369804162814,0.07719856577754745,-0.23882643578293686,0.20557775475865686,0.07088568248783464,-0.040350868519866995,0.039256709114580096,0.16255383160769582,0.05117154713606589,-0.12206800076652737,0.19503192567026564,-0.23841473819952633,0.02851447961240593,-0.25344216151610927,-0.1218484130197274,0.08363247137566089,0.1831470934937825,0.002524930996272872,-0.5732796775262874,-0.42859015076571993,0.3253041414829143,0.3774861093763107,-0.07641898954503312,-0.23510844726198166,-0.31198657178520184,-0.07705279178234457,-0.4698500372369958,0.06347290092363432,-0.1300212882597883,-0.16079913166245635,0.333847881429035,0.17772901949363282,0.07942762176994479,0.07613231647350016,0.35508035714857894,-0.1080392759314386,-4.592171828474656,0.1796501605636788,-0.01151811283511275,-0.08262804339434536,0.0545613590686928,8.228872037975487,0.6372618071077831,-0.7655120743486893,-0.049863499401706694,-0.044399596204990344,0.18428641105564394,0.37225919378484,-0.43877796834099303,0.3606096998749029,0.009986754807222378,0.03822351207292004,-0.1511865545071403,-0.19959600915749634,0.008475789077003356,-0.03420697036475843,0.05477639764090122,0.10430283259788692,0.060266156686632655,0.08802324340492401,-0.2544908595965577,-0.16109384980840144,-0.21235323088488367,-0.09469512001309768,-0.017954013160344912,0.1956352820134998,-0.4957250604488419,0.6692143595908917,-0.3726279534883648,0.07035386641369414,-0.06857632063857161,0.8908269454594725,0.28512408132681927,0.1684197319386431,-0.10469232392925144,0.0033651199017111916,-0.10982953426060202,0.5220453333357912,0.1460069906457698,-0.05481083811468823,-0.03635786746771286,-0.0577760266375574,-0.05119210616399243,0.017925505935696175,0.3447012572542508,-0.008376513877546645,-0.33543701442453583,0.17802941705634376,-0.13632375004048364,-0.08246052342119882,0.08443578616261435,0
Sample_GSM1317905,0.1969418648930067,-0.23215051434068612,0.34165482743952436,0.07595284668266654,0.14732687039549344,-0.1741095021141787,0.048541842156834256,-0.4323246692414756,-14.86106329750733,0.03496389094535971,0.09747578065711929,-0.04249721018027273,-0.030027307097423923,0.0892465789585275,-0.03520067488077484,-0.14423607663911583,0.040847501165500316,0.3549763789614529,-0.2517291061114371,0.2355471477499596,0.09167718585904769,-0.006338681148600678,-0.08276341641399473,0.1579722355395286,0.07421446009716813,0.12151654673217696,0.18114862588259487,0.7351695260784302,0.1407887255410582,-0.0466134819435409,0.2628489309754433,-0.05249084751150236,-0.5416607534687685,0.3008274606724279,-0.15245947452563893,0.100419700423616,0.017546384350419508,0.08024035570972447,-0.21014256892701055,0.06418003009729972,-0.12440719348879144,0.26166992957441226,-0.09464923396806246,-0.38550077560541,-0.08236736933917875,5.123467058045146,0.009914107038248318,-0.07832262654074133,-0.19792431110890335,0.15788649707213587,-0.8969419460829544,0.12533194675125184,0.3891827035428987,0.2779067405396484,0.03177511827130664,0.1306492799281093,-0.10982761625968492,-0.2844040979537066,-0.13246674591851573,-0.38240132620339345,0.10627860053521515,-0.7812096038839197,-0.08263853567379374,0.09987793780003712,-0.06451801026925935,0.05909770228882754,0.16344114945831703,-0.1534542346063937,0.06266689955813727,0.014118324901133007,0.18015339130413288,-0.6491849872231191,0.12047798727087466,0.33831462951613295,0.0687981419317519,-0.3020734529184647,1.1272524882680541,-0.23979248866638753,-0.12815607368355655,0.35702722831076766,0.0316459203141584,-0.12144664602679804,-0.13217573115328515,0.11275113711685035,-0.05914890107394507,-0.030138802820148317,-0.00746917066557885,-0.19644763823003772,0.11795425122651718,-0.0019602813979975172,-0.33017341236974246,-0.024130606180059477,0.21135251101321884,0.7705263391874315,0.1587197089974538,0.25623567057140717,-0.1598115938636188,-0.1324112346132816,0.10391552263363193,0.018874297678317033,0.2852390188483305,0.064130276939419,0.1776883226237379,-0.20739868793955027,-0.2162265428372793,0.7771994357696561,-0.0717780166560512,-0.016160346345067803,0.051327335553908435,0.15914713882191808,0.09986158777711188,-0.29027870585796894,0.23327766323729396,0.022142183448459488,0.04701570727247332,-0.03634605213645608,0.11235648079379468,0.10594073766322094,-0.20188053012516294,0.1808601040498319,-0.2372417010557389,-0.006751464916476778,-0.22459885460765389,-0.12197104704815773,0.07583156788223694,0.2248483957807383,-0.0053749300007639,-0.5678887825860344,-0.3547118248951337,0.23743370751893506,0.37944535800931817,0.02184909834168625,-0.23821892198463127,-0.2872876743000673,-0.08132916150057241,-0.4776821202845595,0.11449364087626561,-0.13471696521092774,-0.18539243744595668,0.23644944255630332,0.20399276748965714,0.10959233192485184,0.10060051541438134,0.32614392595173064,-0.09992125652534714,-4.638644610507364,0.144092889055462,-0.0036585300107482037,-0.15308538808648856,0.06526931055118615,8.215993700374215,0.6359378358675595,-0.7079642190584745,-0.12410611615639462,-0.09497244477525289,0.14511138456961778,0.35951243017245316,-0.5158317963965224,0.33542263316352205,0.03765370252561146,-0.024990652706793143,-0.046440042067532744,-0.18480354618737227,0.02709257027270296,-0.08214535809356126,-0.02080387902842763,0.10357341746647465,0.03634887186447543,0.15841852374347204,-0.2221593635017965,-0.1953035095257804,-0.2503865173615899,-0.08061553665129685,0.022020606308810604,0.18261377253408606,-0.5509477446628122,0.5352964180316298,-0.3789909203137999,0.012974477350299501,-0.06902425405723386,0.9233801074046811,0.2368824344725151,0.23513149547707216,-0.13506638398463966,0.009596241074713904,-0.09297573736872118,0.5060422633490422,0.27727033216747393,-0.11772272353001868,0.02254694351504694,-0.11153949430915146,-0.0646567304114355,0.0011180617526956457,0.2859867911196675,-0.12430454079815498,-0.29295981628681994,0.177149220605827,-0.15659233416407223,0.011102879103826265,0.05726015971993199,0
Sample_GSM1317906,0.2016088336781404,-0.23104548476853404,0.37138209415557333,0.0984239673132699,0.1440972514373552,-0.11972426499837018,0.01336782300154736,-0.412961611721939,-14.896735781697117,0.013960463277544416,0.08683112624569657,-0.016472789305679233,0.11893094103570122,0.12672762133870324,-0.025126370715934616,-0.12474181219316641,-0.039980343435124306,0.3714720654985896,-0.30736724221588596,0.28824569470909794,0.08505104803346639,0.094580440080422,-0.11941797807229224,0.09908813160021407,0.13655167498827184,0.1592570822933603,0.24248072668059759,0.7337032672803188,0.08792519412364963,-0.07193124105706696,0.2973726410888043,-0.08832429346137112,-0.4875423430697352,0.2605477305625332,-0.20498177753351962,0.192459841540834,-0.04747331281205999,0.08141765236081554,-0.18085267025343943,0.010035684356517176,-0.14482925806135244,0.24640042626825917,-0.006589690326669389,-0.36347830852591695,-0.0969947858549592,5.068955694414002,0.03331066866650223,-0.08299139448822998,-0.19030189936639275,0.20133687761106542,-0.9227077040472828,0.14805443702687054,0.39175400441402675,0.28643929644901595,0.050532750793133484,0.19208520998323417,-0.07041235485400239,-0.33242624983277946,-0.20885333653178517,-0.3812020298863019,0.10122195394876987,-0.794259069781678,-0.08922608893561938,0.10125751639547959,-0.00704787826440785,-0.010954574411368784,0.23173298251121693,-0.08566625224676634,0.06914240406682612,0.042089072908238406,0.17386555064854967,-0.6635233819384769,0.1220855244418233,0.37965683887495016,0.06078873227387009,-0.27748102751860504,1.036687706895376,-0.31938238243148587,-0.16105947721439137,0.3295371787031279,-0.012906017752896137,-0.06812138304749589,-0.1845506088148689,0.1488699146457873,-0.06354798212592415,-0.0227176934867149,-0.03243580759038235,-0.18654967806676134,0.1422177662823731,0.03879603209249651,-0.34588299120245786,-0.025099099329981597,0.2135584650606595,0.7976592899367371,0.21751249941968728,0.196744153781287,-0.09940077363185958,-0.16461703317370083,0.19503064952983004,0.07867451764584271,0.2964320849644852,0.05865067210356666,0.23169311244331547,-0.1605519571289972,-0.32053722758713854,0.746932781112892,-0.05798235503846966,-0.036679138813518884,0.016521813422284613,0.1488814346205622,0.15478114742573784,-0.29779743617354887,0.19404470102474974,0.05027523935140719,-0.005168940525382853,0.005309183928482356,0.148417518665489,0.14480310863080095,-0.1836904881354487,0.19041002973391583,-0.2437690891979632,0.017943398623794356,-0.2543046980928215,-0.11377452874298213,0.0822933375236951,0.14824711586193431,-0.08612674446679429,-0.6376932574750984,-0.2519455682939446,0.21283239010133265,0.441662860371386,-0.05117800688769761,-0.2798461863013903,-0.46245011803434366,-0.016021643883424665,-0.4257931690319006,0.05789162771321986,-0.15152724153145747,-0.2370554308768541,0.25177999864097633,0.2241574048864248,0.13187481753067834,0.1561223139633142,0.3884362480500564,-0.0866448094974742,-4.616193005102981,0.19272002298466612,0.010664620478397294,-0.09885589019570692,0.01739235736172153,8.23339925168404,0.6115276014880039,-0.7366879769365613,-0.1482616838952435,-0.06924433759962402,0.13621299347366334,0.36482649484568896,-0.42628049146637875,0.2845961411190826,0.08530086904531622,-0.04425234440234011,-0.06233341970137156,-0.22817978050620788,-0.0202014592201425,0.008930112928056816,0.06949660134195493,0.09695970629067158,0.06362884874429309,0.17133676439311435,-0.2451690987057875,-0.21489956011466294,-0.18086098298167336,-0.14350991621240555,0.05978330337005294,0.13486759210332908,-0.5773416501601878,0.6106737712669763,-0.30654141768771725,0.02321785936883696,0.06339090010573772,0.9724212386018151,0.2535980172338075,0.19267453774581714,-0.1343868822894651,0.035347201671481254,-0.008979012725001298,0.4237663021632101,0.1255334015302398,-0.12700992047429344,0.04989160354147579,0.028307945477828066,-0.10999540746367563,0.05163468163394,0.2678349885733613,-0.13659665607305846,-0.3318524125002338,0.17495424270373144,-0.21337725691885234,0.025816658310074236,0.009308780377039853,0
Sample_GSM1317907,0.20280179948658822,-0.2502092024818446,0.4072751926074514,0.026014047805675674,0.2725568168696384,-0.17074014435932006,-0.00496840383660025,-0.43378869699884803,-14.907629689823898,0.06867896690685275,0.10784907562987668,-0.04318003663245815,0.11502105763514259,-0.0029514994487673998,-0.0180781120334107,-0.1278170645074806,0.054135502044020435,0.3032809420285435,-0.2703602458606143,0.28366774627424335,0.022002284976293012,0.028568145556627476,-0.03136655276475715,0.20782374204074566,0.06531833140474463,0.19491005603258083,0.09254204711983956,0.7749718931106755,0.099152052858658,-0.015001054625106638,0.21818622913711377,-0.20717672039930712,-0.6018547232125895,0.3310958591478223,-0.22038992044808006,0.23121615110913923,-0.010489651199972402,0.04629080131970183,-0.3037693614965607,-0.019615993059324627,-0.14556138786792555,0.24088513915877363,0.023230165058067347,-0.3260422325100268,-0.11436117210515111,5.077913910997816,0.037129028657787465,-0.15145435423031117,-0.21886827693124938,0.1079516924492837,-0.8940853704387949,0.08923014988117162,0.42685735088920185,0.31002638068816213,0.022834639610641368,0.18070122859506652,-0.15043203602063238,-0.34512194577362787,-0.1880542645514539,-0.38518094845399653,0.1710585978577646,-0.9177084746725562,-0.10587893617191385,0.092035164943793,-0.05045826654987127,-0.016035971274006935,0.07384663609129395,-0.14459428910200461,-0.01452455476019948,0.01863808066116719,0.1124478997018031,-0.6468293137658241,0.2479431515348738,0.4612649936501058,0.048908751211125125,-0.3112709779916357,1.1102907408951248,-0.29658640594983104,-0.1352973516572841,0.47929856216045014,0.007914888399009471,-0.017291660128551448,-0.2227358292201558,0.037297353240125564,-0.0904591611281092,-0.04792542050857921,0.0863103024760075,-0.21006359924886173,0.1444370528782863,0.03133077910511189,-0.30384495479366025,0.01290501482099764,0.2552700412090518,0.899839659621343,0.13882215438772483,0.21161912682415251,-0.1656734400120868,-0.20726832584525967,0.05868950818222362,0.0562874041409235,0.2619664816455613,0.08241155878990551,0.16754154556152046,-0.1566877039632074,-0.3025554732278435,0.7445617229396362,-0.01743860918412704,0.017711145179016747,0.08069541352872292,0.1635238479749298,0.07472872224334295,-0.17081194311704495,0.2888032598449099,0.03251477871676218,-0.07148196643265979,-0.017835194347263477,0.12209609531271472,0.11576047424486881,-0.15229762527044552,0.22012550581458787,-0.20778612030520388,-0.004641654177025977,-0.32674676138875636,-0.08631933216222873,0.0826411935369698,0.16250567347952993,-0.07836721618716573,-0.6899912236080475,-0.3330696637326628,0.21311261585167182,0.43948902792265415,-0.031856308304729256,-0.2454403206712432,-0.31840470350560346,-0.054124914783550485,-0.30501245108254244,0.08576308956265559,-0.17119634579063142,-0.1699451344363389,0.27275595974326233,0.26553113090261116,0.04163397840494266,0.24503829493134682,0.4268135301691253,-0.14632867277836512,-4.651701772407156,0.17264315905177513,0.02684941679329596,-0.1138578283719764,0.0618755624619756,8.207604721249462,0.6722596087342739,-0.77865003422824,-0.12001694821526962,-0.09986881204125411,0.21813680349940082,0.31415380122760156,-0.4136594841420243,0.3854375797060537,0.09839021356406119,-0.0034094803139727912,-0.11285352109667547,-0.13590041661079494,-0.025615729531902765,-0.07518968025601129,0.0239776970002615,0.1573345055277231,0.0024023968814772113,0.14715511955488375,-0.22874189606728335,-0.20619906355926085,-0.23360237125953381,-0.08409936312727771,0.005049589101571327,0.16359910137306316,-0.5415765122885677,0.5826252923988694,-0.3033347459682099,0.06153978696034148,-0.019488467311437788,0.9436751876596364,0.25885629435041435,0.2320631666321876,-0.1605368014173432,-0.010334434850733293,-0.08434327916361405,0.5526560191853378,0.05673827512883451,-0.1014340550969078,0.014106872348997133,0.0498613647318301,-0.09833895052945073,0.024712087239399796,0.17312200965662622,-0.004872830744548257,-0.3437481833365789,0.2102357122588806,-0.11998065757994791,-0.011403878318633352,0.01632418875808754,0
Sample_GSM1317908,0.14714511149614132,-0.2685963583809689,0.3699654571611095,-0.02066798225483374,0.1891220714351764,-0.19690674910323605,0.04106018017408776,-0.3681692572241035,-14.828151141165755,0.010805396395166462,0.11272050663884206,-0.12796215555703802,-0.0514192412551684,0.04813619560132643,0.010686845074188179,-0.1290357365650267,0.010966579268028366,0.29381450671694864,-0.1599616171038497,0.09088484312501288,0.1482646317918957,0.0372568122421586,0.04237095135757976,0.2751868856181179,0.12547119961821843,0.19217333021748392,0.28064531175744195,0.7210959756576368,0.08015763586769269,-0.02922559924489588,0.3446621496765264,-0.24902072462777927,-0.620806844587622,0.39081979782551607,-0.21438486090129186,0.31826873649896026,0.08561138942848505,0.11873261139458713,-0.37716173366035,-0.1443822683550305,-0.1494315952589536,0.2962819057771677,-0.07947944947000497,-0.2198787753064692,-0.183766111912874,5.066707665364372,0.17772304251558713,-0.13880940045143333,-0.23349381494602034,0.10269247286004834,-0.9555193114300529,0.2588599900131826,0.4487759812025069,0.23964241753604282,0.052944251555524416,0.32188532991401286,-0.2648768305824842,-0.3568124067981204,-0.17410570546403717,-0.31478260470156044,0.0414954121689132,-0.936481181614572,-0.008759203285974938,0.03851444151605221,0.08613086699194783,0.054883234945815144,0.10024765017666958,-0.08025029180899285,-0.05770798728938941,-0.03564991112630179,0.14559584183291294,-0.636341551681174,0.16358679835253223,0.4620182447546478,0.19608277142172956,-0.4935297591841255,1.4041198371826742,-0.26331325969916186,-0.25040766455900965,0.4320054591900113,-0.05828798836678752,-0.12634311061784556,-0.20912942875107635,0.10083530011073034,-0.030649989183780004,-0.014986265362603817,-0.0011153518437529795,-0.5784278272766081,0.11603174239525288,0.0026448001523027443,-0.40065802915563964,0.012696104889126633,0.27780453214446105,0.7145471459804453,0.07749863471114884,0.20598555124057763,-0.07819379298789972,-0.10418704728596917,0.1763384262315923,-0.024823365727789724,0.2325581070730603,0.02099772938847252,0.108551230797929,-0.21082743594086983,-0.4578829416498453,0.7451150950900698,-0.0018630785367686846,-0.10410549947365876,0.050550859221464794,0.30556263148678664,0.18825026800695296,-0.41868939687408274,0.3984649863826661,0.12300411633006289,-0.23120007539139809,0.03860124107812537,0.17534880187901739,0.0720783279450801,-0.11856024386233195,0.09202870978557891,-0.17573838619065102,0.012846412707717225,-0.4645317043772062,-0.036001249954232914,0.03355522923689998,0.14588523094068345,-0.09649798746921161,-0.8683070595377826,-0.37993786569400334,0.14455862425829957,0.4880192596189677,0.25508414418809877,-0.39651943582762006,-0.26205459373067536,0.02439137534078329,-0.45148851111889804,0.06868457497131375,-0.1269610943421025,-0.18323253500156986,0.24939522952315124,0.18111173780698522,0.1675314857651877,0.28868929915668523,0.4295953571577714,-0.0724061802929141,-4.70275317898109,0.12183057200298143,0.20754938025325934,-0.16911194631545579,0.08484512417112335,8.299347560803477,0.5095300084551349,-0.803954443081278,-0.22908050969358673,-0.08496198015501351,0.2673807664343935,0.21823114627798765,-0.453764733692842,0.5316134938480737,0.10269084761770214,-0.0025736599931970965,-0.1615977842647153,-0.16907404348187666,-0.019949654224561218,0.006119710182561466,0.022095715024062896,0.17105542098063364,0.05626351081835887,0.22493553399803196,-0.33871402740942735,-0.1645086400037351,-0.25373611026038556,-0.05024783072274433,-0.0616777387710473,0.2003222096808332,-0.44436673498676055,0.35210499087131525,-0.3633607743740535,0.15970783408116462,0.13925757346122083,0.974687136882495,0.10005156115356156,0.24007918153912824,-0.163798644207533,-0.021114399364195364,-0.09316327040193799,0.31214299995896977,0.15225277069041757,-0.12811101826188923,-0.06721877172170627,-0.027932378909584533,-0.15082748355788209,-0.010368131637571271,0.15849263329882018,-0.27095120335534617,-0.3359635160343696,0.1390738646046167,-0.06780607026621938,0.025347770756522125,0.11756669267785919,0
Sample_GSM1317909,0.192967957710271,-0.1846146927874704,0.31397282125746806,0.006053492803382893,0.23500751523564925,1.2627497204577221e-05,-0.06840071222153017,-0.38260126760709917,-14.79154705155678,0.056642231064578226,0.030255537189301827,-0.01883247772086012,0.06325839771462949,0.05678888929530966,-0.01965966110526398,-0.060065706802276665,0.06611842917457852,0.2695211640972792,-0.2507683919255891,0.34390290380428745,0.018241430642736527,0.004518540731942936,-0.011916047419967747,0.21279936498050303,0.0837881988326937,-0.005948609458483213,0.18551002057961888,0.5907232716475339,0.4081331753427018,-0.06847005124543831,0.2971596710838529,-0.06855642330278484,-0.5095306503017824,0.11738389345662888,0.054890771378176606,0.25883569924101535,0.1939799099818373,0.13204986381340297,-0.2815429522595131,0.18992389054816372,-0.11041360403547097,0.29433053373345747,-0.4425732715378477,-0.31644964883105114,-0.048831406234536905,5.051626488760422,-0.027461844047770856,0.014819693640004608,-0.22803582135421346,0.1068701174393646,-0.8649076857346062,-0.015477568498011858,0.43534121402240944,0.24473573288786668,0.06427724146934245,0.06873439839364569,-0.03340161114302502,-0.1610941110051812,0.04588503220081426,-0.3640158005704602,0.029117892284350147,-0.7056435005715112,-0.011259983282066786,0.24848394715124947,0.008490469207527192,-0.057209830928457696,0.1812203305052422,-0.0818443323981757,-0.1263752646181651,0.08020262632361966,0.1719904533986925,-0.48963560982244586,0.14284114596526182,0.13601833706113192,0.09165707200136869,0.004304278030391271,1.383501724197731,0.08249845803747112,-0.03504432971837647,0.29140311112005607,-0.04287755272829177,0.00039926906789329006,-0.08000579682708024,0.09846721334736014,-0.13767935128050499,-0.03286602929202184,0.14031986139224384,-0.20999056461171847,0.21873131157201123,0.008334618856734363,-0.3521691983362337,0.03443544037498807,0.22142805101164503,0.7931085476593351,0.14720761728570253,0.28518793324925934,-0.2522221961764706,-0.1437521227953466,-0.0775159205205328,0.05033046056310892,0.244383491795767,0.02603053609007617,0.0764848609600708,-0.171623008452688,-0.21627558456152599,0.6552666992411588,-0.07063759842886946,-0.041449744556279415,0.05961404005717526,0.22897889328245302,0.08458919468268447,-0.18825905555108144,0.2748377169150035,0.05150413646658483,-0.08111585008136976,0.03229242455612027,0.19174927120507188,-0.018837263216149834,-0.08884882517536952,0.1283685884484647,-0.36864604807865425,0.034310629798062695,-0.049680021523348945,-0.05131605796876878,0.12301308740388592,0.25149076104242707,0.14825494422860921,-0.4788679788224094,-0.31961780560736597,0.300050149288242,0.43985481493798273,0.2069873024188709,-0.3875341173869646,0.005881063219060642,0.07464747314483848,-0.4805982093621322,0.06145563687848777,-0.06826651132562567,-0.20804499511866878,0.33689999236472873,0.2907293859638447,0.07037903489199779,-0.002304614140939511,0.39286206898350995,-0.03202809149491681,-4.732509072721903,0.16876885395325314,-0.03780203676482092,-0.05475181301165888,-0.1469729332889052,8.241205026794312,0.6378097264387659,-0.6109122632113697,-0.04607564456071706,-0.05597356977892258,0.18153964741097608,0.14973117638867453,-0.6098071055881692,0.3507360702276369,0.04423068406067016,0.0846834476061407,0.2841587533915449,-0.1752272669474033,-0.017718178382126543,-0.038254999578980695,0.013631194274307505,0.15331962294198823,0.024850801056700785,0.10245743956065312,-0.16166532687471571,-0.17295273510362155,-0.2404730757728244,-0.08309026269239628,0.13067635252768653,-0.018648281802205666,-0.23797801956173567,0.4276917271103355,-0.3602966832832423,-0.11829051343652994,-0.007493172223542852,0.8922830795347682,0.1261744777225442,0.019143194336534164,-0.059260592320866064,0.025979014711516524,-0.06848016710462806,0.23007954931997354,0.2253452640048384,-0.12773700055982246,-0.006048532512664338,-0.2569812099769063,-0.020265989459564895,-0.046525205558211116,0.3956602552276172,-0.034896169802207694,-0.2565510597086532,0.08769023371575652,-0.14746539088899394,-0.05572090168733041,-0.06350845560519175,0
Sample_GSM1317910,0.14648446831759412,-0.18621316611431737,0.29456338177216523,0.0344791100676083,0.2178981444181277,0.13888937468023,-0.142147825288293,-0.3456962669463215,-14.793556506631887,0.07997537193663004,-0.01423534403251527,-0.1736512894701127,0.035874427728838226,0.004985453551732025,-0.06481400135155206,-0.0768811542814343,0.08694098063689053,0.2624631007946803,-0.2926764729568357,0.38232687898845324,-0.015446064241259121,-0.09609476014100435,0.004768218532759602,0.39273168452357937,0.11847672670320228,0.13813830316620493,0.20292622589034828,0.5171924120429527,0.3219989043711532,-0.07885735160467008,0.30794675836764446,-0.13893108713319557,-0.4891419017190395,0.255951864087375,0.13179213059917988,0.2878591290559034,0.19927784814626898,0.1070418257712343,-0.31769466053709566,0.15881612163832148,-0.11191298647907047,0.32220542134305247,-0.43555573711530393,-0.4640148824440557,-0.10429137945091516,5.026064201828743,-0.04969608417967084,-0.014579827520369971,-0.2324159661406839,0.10080827979206694,-0.8594883986563648,0.0407367900505806,0.4070074222013114,0.2767609949865347,0.11552213491426061,0.1290617600455178,-0.10521710931047684,-0.15604279916683222,-0.0838220418455544,-0.3468806568932223,0.05281709906873584,-0.757631771682308,0.020697358834522304,0.1981974964873149,-0.026568385062385635,-0.09143335322478646,0.2203773752784797,-0.10404688357663706,-0.07048123790056228,0.013746090046840551,0.17735764288739422,-0.47893091425301687,0.057536847725339915,0.10696687924284283,0.07635222390614765,0.17676894819694858,1.4212087502059252,0.049311607621229506,-0.12884564789753722,0.339672273905422,-0.15346367270384897,-0.0019240345100948642,-0.02440195711539602,0.15822554737491726,-0.09984264587095379,-0.0291583145286043,0.24640902446769325,-0.1680562978261227,0.19247147134938536,0.07809252902024373,-0.43333237340758435,0.11037147212576648,0.15369575955157844,0.8578970722375274,0.04224459302729206,0.28488797155829054,-0.20885165795951866,-0.14000900937873528,-0.18573180466347644,0.030874430236510528,0.27371008219593584,0.12642213621897222,0.15360150095855402,-0.18398512264421527,-0.14066059281988205,0.6555910342902046,-0.04206914149061977,-0.08488742380000422,0.07830508816656481,0.1473130874140108,0.19732358287366822,-0.21702565219262399,0.34699136936639996,0.05379528742063234,-0.06714440159340218,-0.010398177785827193,0.2800982902714842,0.023311214357002757,-0.1038368316500613,0.049231108492709355,-0.34026644799088207,-0.003042487931717815,-0.2295364881552948,-0.054294100454503724,0.06554985318410705,0.3172990913246804,0.07651509118805865,-0.5647416310269623,-0.31957079009426814,0.19578066448325626,0.3649887626542336,0.29939638285627235,-0.44418165493026285,0.07520021723610074,0.00033965087439162984,-0.42953234260631473,0.041171112005345296,-0.08113726273912897,-0.19714174777975133,0.3656463901462721,0.3503849411803681,0.10576945335155004,0.21618345110582535,0.39412739247219275,-0.10404516857184162,-4.763251043507599,0.3262327574658176,-0.059476722009155436,-0.08045268719978023,-0.1945093069944682,8.213160350402308,0.6569764436660248,-0.5445270968529647,-0.12152211190187173,-0.09084570218062091,0.25145207616228216,0.17643348624413338,-0.7268832619264204,0.2869708793201423,0.01081714017877375,0.17044855240981693,0.170274838192761,-0.09848063311876258,-0.006051204732430644,0.02325937881203155,-0.06451848948078885,0.2519098967207891,0.09173358522763869,0.05956863624237002,-0.20208210196022872,-0.15964650259440594,-0.2677312383481105,0.032127360516287874,0.18046888530503585,0.14401509747971103,-0.1962930190553055,0.5533756868246603,-0.2852525888111098,-0.13382160216460232,0.0734420826641924,0.8455669284102415,0.1605507369442304,0.11889788467620215,-0.049370222188308444,0.04258649022126092,-0.051928639104579476,0.13265051551357449,0.17324925270680494,-0.10924534253440114,0.07884533334457683,-0.23146250462060064,-0.03770291971498125,0.03953078655656006,0.39818010630818507,0.00013321704825891285,-0.2813086562965983,0.03949294648853176,-0.1555220474816957,-0.03508493611586245,-0.048549441573602616,0
Sample_GSM1317911,0.16176636479606143,-0.2054851682519669,0.3286088667218125,-0.05543017140768665,0.28811473154136424,0.023307608847165512,-0.036103634581996454,-0.42837535063607246,-14.849131944071686,0.03393040571880953,-0.032398231195409,-0.059434071148959114,0.018960090214962012,0.06770492685787234,-0.16629933860339857,-0.07429796374243715,0.12375433421165433,0.32230250119084075,-0.22439533732840528,0.3231826503009645,-0.030974229726162584,0.007882339347073001,0.12898309915375256,0.22529259561902373,0.05843053982395827,0.0431271404658864,0.07542966782527154,0.6571302991986856,0.4195274729080951,-0.05195373159553619,0.2964213283318618,-0.2741120942993662,-0.5354629107214954,0.2977895862580566,0.08622371707337677,0.31239221303595077,0.157789456110712,0.04770148586032632,-0.4135534926652542,0.17944492025234704,-0.20442578361352315,0.25639415709818114,-0.4251706527810672,-0.4112373256171991,-0.05458836398444964,5.047560344504946,-0.022248602044791246,0.026382343935104018,-0.2187178728285903,0.17158968443454645,-0.8744580653948009,-0.01328878082045622,0.5621198093059818,0.3432504116822798,0.0364735938961902,0.03911000141397874,-0.06286925217595274,-0.15784039202772993,-0.04419116930745756,-0.3165272436343054,0.1105179590998686,-0.6331186166546448,-0.04057475249161539,0.13220111750029626,-0.061679306453884315,-0.050255657087478436,0.20659826749890658,-0.07168905211135351,-0.10710681139836281,-0.007239107025452339,0.19698092179175147,-0.47167064476504034,0.14018316106121342,0.18676360868439254,0.10345376211446605,0.04568180699421154,1.406002783002398,0.07029716996541986,-0.09560688654632504,0.342847814797857,-0.1311065071017231,0.04791737562776429,-0.044546628451274044,0.107870256461792,-0.16967118717200022,-0.017156568587744725,0.16696229090408227,-0.20529291342049277,0.22163678924828992,0.04120496300098537,-0.3391288115929478,0.03125936594030061,0.16124260755096814,0.8905886208346727,0.1821829470360354,0.2925656389987625,-0.2238287347518732,-0.1860848085199514,-0.10137916375413739,0.04698888563270534,0.2559872147604005,0.09317567750898666,0.08999638572994406,-0.18476231301037746,-0.14870151253583028,0.6809250475728351,-0.03732729086124384,-0.09980045180186148,0.08735551382453409,0.14925582519995445,0.15876944187231595,-0.1440619586701874,0.3332719813623047,0.09845619905069551,-0.09339355962722427,-0.02512161719316419,0.15762722484707173,-0.04250388638797158,-0.1272899021024694,0.12329077442241862,-0.4233896642333298,0.09573383021411601,-0.2048292521642129,-0.13091384595928254,0.09113189154620183,0.2749331359805544,0.12449641842321593,-0.521721477565106,-0.29537053127807167,0.26702084344543897,0.49064772852964195,0.28524236618848686,-0.34897928483676954,0.025498339008830407,0.03743879184025447,-0.4661705102434911,0.025996670276424525,-0.06612062461488756,-0.2160861057501437,0.33889605791802735,0.4002514937551093,0.061364740037011416,0.06746728319392613,0.3718722791861508,-0.09543360784196743,-4.770844472567847,0.2297952141974453,-0.02374409342385719,-0.08504060245435258,-0.2512423583995084,8.197894906095208,0.6696510025325099,-0.5798576074475638,-0.06291123875192435,-0.06329561462185422,0.257581723168022,0.21185882403586725,-0.7089658759509491,0.3425081999353782,0.12818179237315683,0.14644651407516115,0.06411554626628235,-0.14301852835015563,-0.0035006594316792376,-0.0451439916150279,0.0006922440705635323,0.15996743725044382,0.07385663006795606,0.10990105913271082,-0.1870904357011197,-0.15048733177942755,-0.32858466533729824,-0.017132948402368585,0.015933759803221828,0.15345794621816936,-0.2719897523247768,0.5314710613980933,-0.4133975275302803,-0.05470516103178165,-0.007987465217650895,0.8102976281056459,0.18395296703898906,0.08742045457874147,-0.047856677468863365,0.03096316051231412,-0.10250369497007061,0.13025885952336502,0.03982255531653677,-0.1505883811210128,0.06043927202006241,-0.1892291471616177,0.0036728644409921326,-0.03142978205128445,0.29362915696247316,-0.04027951402889522,-0.25800697259997885,0.12324227878551372,-0.17943217082559804,0.023649046395296424,-0.07733107479028313,0
Sample_GSM1317912,0.16074081431548684,-0.24389388855441915,0.3891316065771874,0.06741742062577141,0.21093600786430283,-0.11843671978834265,0.0004977858081837491,-0.4780083354485384,-14.905438676422822,-0.02383989600121924,0.13083490333516798,0.012286273580575205,0.03751376436066384,0.04406112906453725,0.03181635163843375,-0.10678342419906174,0.06542818333776561,0.30595041920385474,-0.17240822864428298,0.20113811643080184,0.0455967398819875,0.08804326491321907,-0.1359494899757265,0.24131329707524007,0.1153984505293239,0.16053273580958835,0.15356301336984302,0.8423038839775515,0.13731191989328145,-0.026662588129927587,0.2887329166796439,-0.19186913517653573,-0.730425328732802,0.35499551807305596,-0.1571940658975116,0.2498633091710031,0.007427803908229405,0.06091041168996135,-0.31608491857582366,-0.0067372649650506,-0.17934074144058135,0.24346935237424566,0.020727207195405183,-0.35625636907386526,-0.1277643471777908,5.141898072843758,0.1193805448002825,-0.08865734184345431,-0.18663077856761365,0.2416729811749021,-0.9082614887944493,0.0978527964298654,0.43266445909618884,0.3089803697493564,-0.03249485233705711,0.1896222292032351,-0.20770663634634326,-0.2820589018824229,-0.16922882848489534,-0.3166103833991147,0.2048613496467722,-0.9057482776346623,-0.13674337240995008,0.09980527882409268,0.04931438573521274,-0.037505324852911394,0.14825675515290193,-0.11214128677302092,-0.046604725696286986,0.06457202987965464,0.10813817334920302,-0.6973722480360581,0.2823760487814248,0.5252294024848889,0.11110746534262658,-0.3954881022847326,1.106786242697509,-0.3223621488690199,-0.14679734890250132,0.4974205320007816,-0.009668239700909617,-0.012768474054192422,-0.2700892110282159,0.0682302176615945,-0.0475765429850882,-0.05675721246271805,0.02442916525242347,-0.3388176797756291,0.1570035245924841,0.06716034911686851,-0.301073261672729,0.057363066891349755,0.2159745029066486,0.8159609893877704,0.12700962187691583,0.283716231940108,-0.242846244572898,-0.21440047997645847,0.025447880758792812,0.053957246803341075,0.2424630306768453,0.12444296588591006,0.18880121583459325,-0.17035202332037572,-0.31091916556135996,0.6828804929903681,-0.0741923173267009,0.032671764637506595,0.10927495652893461,0.21241787623678726,0.055100369982302805,-0.24387478397683987,0.2719704062478081,0.08287228900037184,-0.06319766818948576,0.021993203512840055,0.16629856118639613,0.05779090645686652,-0.18985746183925406,0.218445141470422,-0.19017529058021093,-0.014500424551449849,-0.32937439072729696,-0.06801670149212875,0.13656527152085263,0.10890081634238766,-0.02990366743233731,-0.694416688519758,-0.385902130201612,0.21758011875870803,0.4030115734744721,0.00618209292115096,-0.3062740434187407,-0.37876155344149975,-0.11278343660832256,-0.36809322751667584,0.11155586103952098,-0.16622404179401376,-0.167770391392649,0.3357098697094369,0.18304083430434007,0.0446296411867329,0.3200564815307661,0.3891490584293194,-0.11208441849402134,-4.647194572229108,0.21545859850724236,0.04095708272497929,-0.08744484528280572,0.1524471360518646,8.278739144618886,0.6450567568730058,-0.7311129099524771,-0.12233630732519032,-0.10882458982913067,0.273176485267597,0.37879662054529956,-0.4813048300268235,0.4020121181809445,0.10425624467322894,-0.009255388814255744,-0.18581255056972115,-0.16884280786866562,-0.0149757073428663,-0.11086175884623325,0.04709634239176611,0.13455944633260164,0.02173331788505806,0.05926844530699986,-0.197448815257508,-0.10369797476898657,-0.27469420394778254,-0.11960995946955684,0.010498870943285946,0.2084366587701059,-0.39989166539863996,0.576670309058007,-0.3863795039262175,0.09658724580151654,0.042701975718516715,0.9446062085354512,0.24174979106363906,0.17540006138688283,-0.14344160260034944,0.012280516403155145,-0.1299645942782865,0.5401642322105051,0.025229864475301695,-0.1000293781375709,0.0016368551067825142,0.09858847535989734,-0.15309424278291764,-0.01663177784416435,0.1434754733854447,0.008614796623648722,-0.371774236817942,0.18502498790754118,-0.0638217561707853,0.0004881062119090698,0.09490703776382492,0
Sample_GSM1317913,0.23731261472667503,-0.2422639043687879,0.3990504507692464,-0.03292775585122071,0.2180440049871952,-0.12572652042925347,0.05782000673563593,-0.4925658989405826,-14.962817504042752,-0.014564605672361971,0.14190234976766317,-0.03903478311671059,0.08299509141520317,-0.004285547498794301,0.021412814620255242,-0.0333639517340644,0.05114449830693307,0.2622579350011575,-0.21271271544441786,0.2756269775981605,0.03746763415291126,0.01999967673989904,-0.11693014839124591,0.24272745209316166,0.07749503968439062,0.16943728705893174,0.17589500181896336,0.8629656074671541,0.15818683072278544,-0.049503673239676284,0.2684047065770605,-0.11686888723619426,-0.6665156538578703,0.35585404066693127,-0.12938189381275228,0.2519614899558636,0.03580913457018429,0.0004508209303188499,-0.3072297375247516,0.00706833731276812,-0.15289095068348316,0.21990368160747945,-0.010132187919198551,-0.36676265514319295,-0.13009692536970255,5.160818770874161,0.10745860716102051,-0.07350648656659299,-0.16092225838977428,0.20391373330978557,-0.8930650919763822,0.12498964468453842,0.3587902403093156,0.24006793565048545,0.013211043348957627,0.20536071480585197,-0.20181749075128544,-0.23655378061330348,-0.16027085901523444,-0.3349289667123298,0.2247613276764435,-0.8524713121822086,-0.12038551174471533,0.07089361112587887,-0.01463360367925759,-0.04288466959159556,0.11473976102292434,-0.0916095846283299,-0.047818478286955575,0.03342490633793548,0.13882403979772107,-0.6846949315393258,0.22393649921231265,0.49157936968566385,0.0622827616727621,-0.4329804787660389,1.1851128063595744,-0.31902291927096577,-0.1524101109413017,0.49683035347879173,-0.06111150042917788,-0.03961951411356812,-0.21029335444846056,0.0723990317633329,-0.07460239432450752,-0.06863520867892338,0.05966768614944953,-0.29453639092803374,0.16854936845546015,0.08688439254172092,-0.2935480466817488,0.041168236090650234,0.2043252165093972,0.8273744245508544,0.1540438135813107,0.25752688403165813,-0.24920278228439688,-0.23563267795419407,0.08668715062846317,0.03221384530135806,0.2557308775929904,0.11447384852799421,0.20208722906947366,-0.19457512502795973,-0.3174171165483188,0.7209467897608688,-0.09465318656517294,0.010638108672588385,0.08214880102474022,0.1384646114565042,0.08954790936376264,-0.25389764291352573,0.25959157641974717,0.057521806407210566,-0.07572515920984232,0.04145545466678133,0.17098544829022072,0.05644017293801868,-0.13875532572108426,0.24019817848967692,-0.2081848266594625,0.022801219138955237,-0.26661290916197017,-0.13790049909027505,0.09853663809553868,0.11635646921224976,-0.050182719600652605,-0.6665178095469089,-0.34245175087548607,0.22275024599906237,0.36675760723087536,-0.031910900143502945,-0.32164219942372196,-0.3919633988518675,-0.08610103430372942,-0.3421346900198206,0.10545541116355749,-0.17282730420991457,-0.14478031108018552,0.3177317701213272,0.21882884008457057,0.039354872448790434,0.2819307598478926,0.40218623411672383,-0.10789891315602312,-4.58172915607178,0.23570533630042032,0.012128028784887716,-0.10861991473751391,0.11505453045466478,8.304009013273879,0.6682982975687612,-0.6565100618157502,-0.14751751353416612,-0.07829336599384386,0.2754770553435275,0.36981737176899565,-0.5332888883581028,0.32856025676891054,0.06584059506314267,-0.004424993144201008,-0.13920945853826064,-0.1802693666158341,-0.055287393995673575,-0.12488700981553377,0.054641194611293534,0.183779338720777,-0.012883152233562952,0.06741102139923934,-0.17561677147875868,-0.10703169517855474,-0.19761876460633213,-0.07998990878566754,0.07735882924716933,0.20342484652144271,-0.45088469010716065,0.6414131740942534,-0.3866220001611397,0.02417032948400517,-0.03487860211474789,0.9405659398823254,0.22765230605060593,0.23306244463992004,-0.11724162898789471,0.034753641493620764,-0.08955828085010634,0.4415061157008517,0.06171489994043555,-0.0709645415531181,0.05480377259403796,-0.008865922300090968,-0.11970400981761656,-0.0012785397602346857,0.264533647757819,0.015793409591681577,-0.32401060515966773,0.16521874162822933,-0.13712019681248472,-0.04571424189899166,0.06484804894718689,0
Sample_GSM1317914,0.21082991157611294,-0.20672351688393242,0.22752596982940057,-0.04633058988442277,0.26636626476116604,-0.26153528481173177,0.15552954696447382,-0.4685112244250062,-14.956537851310983,-0.025531118159791064,0.12321372156418577,0.03944630305585343,0.30150410029523744,0.1226493049345116,-0.13341140020235007,-0.14749124936115426,0.10201109421034209,0.18846536069980402,-0.10894830849958402,0.1984340457707132,0.0720717139799763,0.02744500776632191,-0.04441107645634082,0.12234659711533939,0.17064619800136346,0.07489203890518485,0.2860476915508731,0.7332678862036094,-0.06716693683377171,-0.00020492056255148717,0.27923649825733265,-0.2822613971701319,-0.5415314822833399,0.5053175570038043,-0.3379215840940682,-0.0321538696831445,0.2601946474044725,-0.21309958734572915,-0.3249566146117501,0.036689362386968405,-0.0735608778926999,0.15307867505897715,0.10436950151036069,-0.27340098837515747,-0.25721495203829275,5.005794995901078,0.06862479579729132,-0.2981325538192428,-0.22143458860671297,0.07425583879058462,-0.8725282375791898,0.2777278468783785,0.4457451593455855,0.10193168823045955,0.027853819538576446,0.20329379228756056,-0.09616696191936207,-0.36199279005726454,-0.23433052582937663,-0.4325450407425038,0.030990248453100906,-1.0293723512329607,-0.22724911801048406,0.09693396257280965,0.14498797155565027,-0.09309231509279499,0.09241120358495698,-0.1643861324123217,0.027528760878585926,-0.07695931480090461,0.05850824074754888,-0.785424908568245,0.2217402944947379,0.38575403644563316,0.03964269102231609,-0.3992040197771884,0.8736340336467019,-0.5323758326372463,-0.3388002272737983,0.5870753635723384,-0.015734475630906457,-0.08904901784263909,-0.24805051718835144,0.048247933996894844,-0.030436217030944457,-0.013426823783034251,-0.021657482202107704,-0.3576514708294101,0.09100460800766019,0.0747484080137012,-0.3421733927255368,0.0597771762360352,0.407417853279907,0.5521759281162768,0.03617507953759048,0.16982940972028238,-0.16939505131854662,0.0023073735423949104,0.32155318271421757,0.2548798888501226,0.2303267985390031,0.11087986122815383,0.2622841801058833,-0.2927739086809993,-0.36791146476606557,0.8639103964020977,-0.22242332309707974,0.030313353059001808,0.12361507825398797,0.3601696408198245,0.25995623102477783,-0.1018731567341338,0.053795345445717346,0.06973296053734307,-0.08630695064435087,-0.006276195344200912,0.14279183587995906,0.15060851571074918,-0.26245882712717605,0.24687980197197812,-0.1197904177047187,-0.06372911872202436,-0.44089546723756345,-0.25135816515514486,0.10317375730382433,0.10989242120406939,-0.3308473276955751,-0.7332060561935703,-0.3761473148812393,0.13902130990037545,0.4034586797316203,0.09319718957955074,-0.3120993934290753,-0.40199919468527795,-0.04473056182060651,-0.41677767084855943,0.32671703089324006,-0.1888520017022013,-0.13195019839439395,0.12790284534535704,0.17427160933670618,0.022564783245167808,0.3426670413917797,0.31417844663316813,-0.17078569699507726,-4.823482334803193,0.11486911552455378,0.13595830856167998,-0.013776315457766015,0.14387176569441634,8.115726196322107,0.6909931560601974,-0.8215433395358845,-0.4587756645383897,-0.20552975072625307,0.09451201862923254,0.3070929780223143,-0.4089244858665857,0.26498569366356284,-0.11962691922503232,0.05784683899274754,-0.04260047156180134,-0.16142060037798944,0.025636022913250553,-0.22840385950084033,0.06686343321089616,0.4731624601760444,0.032442985524530385,0.30263606042915586,-0.2778496529759157,0.005584735679753769,-0.1722549300246792,0.11749361635041916,0.22579092074821155,0.16365954081969053,-0.3528670737144685,0.4928330990763035,-0.42710415166970017,0.025870033206292293,-0.13845428337662294,1.0305658969165288,0.013160157206248664,0.06040580589817638,-0.15081314469775384,0.02375631107776342,-0.16140047158726503,0.6355935351767664,0.31290469122199605,-0.07077799156911019,-0.00497113846020074,0.1277731853739481,-0.3280270647860326,0.12966286866467155,0.24619941132241344,-0.07495313716115605,-0.24186994211796914,0.2744390572470468,0.09005136422514384,0.0311300567682876,0.027481828155845503,1
Sample_GSM1317915,0.19679517560622153,-0.23194822984200755,0.3289939376792092,0.15524280669589183,0.313947793562709,-0.03331655210643009,-0.03848563571339017,-0.377546218633859,-14.653002742816717,-0.1074500802680722,0.06676644560521226,0.07302341721168212,-0.029098804501730906,0.09913090028347557,-0.09108229530074918,-0.11414121294209298,0.06732198700401412,0.1597362352939334,-0.25902349429820515,0.20453568653353973,-0.002369288427492391,0.08705004589120424,-0.037543219592616965,0.22630464825931595,-0.016626430893796267,0.022512981353210323,0.06274500573958929,0.6213312913218768,0.031173459648605694,-0.011972339145228278,0.38951147610372355,-0.276036609873647,-0.6841930671849652,0.2955678581167739,-0.16064546211942332,0.29967355478904384,0.04815766093413868,0.028332548605960038,-0.18413362912283157,0.06320122614456256,-0.17981073960617544,0.14399273931077347,-0.3330924455916332,-0.32925352016513215,-0.1358922839723651,4.998946657478296,-0.022707957569395424,-0.04027687780269181,-0.22852381210749123,0.16665024572200215,-0.9545035497171411,-0.11093414303721397,0.5684595347891913,0.298633349545686,-0.030438517574888354,0.07534956265567815,-0.04760986085992512,-0.2137111497254765,-0.17582971101362482,-0.41770349494524245,-0.03134574934192749,-0.5545029782641436,0.09900509355222807,0.19608768059893136,-0.012155274747603891,-0.04758549192182351,0.2654711899922742,-0.015939095227852796,-0.08435228300928066,0.09377398281654768,0.11193669183265094,-0.6415417656852663,0.12072950686504837,0.3957019044905652,0.09347646125125059,-0.24547185703074667,1.456873331453843,-0.2016799533626543,-0.07902368289532967,0.25293254140362426,-0.03135983916447104,-0.15789269376111476,-0.1812177467247309,0.08915053547204775,-0.14394713092038494,-0.034135826075617395,0.023933961776703573,-0.21666421592610446,0.18979876299528564,-0.04366683395965105,-0.35966168930562464,0.06793580735819882,0.2919341622487607,0.927410784433735,0.25730188907708734,0.24300319687116803,-0.15177721481682976,-0.10074422986516005,-0.07252650260205779,0.08088498701038738,0.35933293458533455,0.12901577157177915,-0.0022739647693161887,-0.13031470418618468,-0.17654396426265456,0.6415965673228045,0.06573081580218698,0.06435318625201802,-0.01685785828990299,0.07919587132640499,-0.03142534776535509,-0.35358366919139533,0.48014472784333917,0.10128768250830274,-0.1822115398765187,-0.03373946264762432,0.056628064484998956,0.07703383739850804,-0.09709551056381212,0.017875188188845766,-0.20520673722572746,0.08456504974502062,-0.3459665257796547,-0.08064475707089967,0.23916478696415808,0.436606146152471,-0.10369172134730915,-0.5659045602463505,-0.16704350653873093,0.29885934752429777,0.3843381567665646,0.42335402677414663,-0.394358652932212,-0.1318014030154594,-0.020026781846150227,-0.47336348894741637,0.07855193071762169,-0.15958912970811576,-0.20982690169075605,0.2607585118027961,0.21860842400083147,0.11567161025931803,0.1369959919388842,0.40189103476762794,-0.06750399291413689,-4.712036165355867,0.13896016878754539,0.06926802184009681,-0.11137561098474992,-0.0693542360022055,8.219599917114147,0.7043564994263775,-0.7400482399885906,-0.07500364088425189,0.03185758091671078,0.019399653209921302,0.21144215698251942,-0.6149822677517256,0.4465173781132339,0.15552428628008866,-0.06863266313621523,0.15479020970802884,-0.051429851732629435,0.12196809648712016,-0.14534566726572637,0.021880610912897804,0.006917743583075797,0.009873712058239052,0.23005410325618264,-0.21204672690376647,-0.12251192695410412,-0.17451494935828404,0.0062023625677395874,-0.03885422286366841,0.11448145246157522,-0.36624412020449804,0.2832950224311527,-0.25187235393995205,0.03737378011421779,0.04341508150676281,0.8527009628589435,0.24094129705378464,0.17808060472529247,-0.08257849425687663,0.029784121130079756,-0.04278245127143213,0.48884173724399743,0.35102760815587597,-0.20312851602678897,0.013656115877028132,-0.1240139682348191,-0.13172287045858047,-0.06736159045699731,0.2873180424739635,-0.1136388990407241,-0.25288721081753196,0.08488142078838257,-0.13827503790104576,0.008729894678456628,-0.015108721834483715,1
Sample_GSM1317916,0.2042836561092507,-0.27207025460958467,0.3716984725439631,0.0981473264671315,0.3184429669203446,-0.013832646873902347,0.013171453190139818,-0.321087887442444,-14.691059273921732,-0.22330366142313293,0.13192038227535574,0.008492966681057696,0.01974895560438004,0.0778297595619751,0.014593035070982663,-0.043520400498624705,0.047848569804027026,0.1479942230364126,-0.23953379498065822,0.23791767027426974,0.006918449720032107,0.04119594050899721,-0.06894826565447225,0.2631265134579487,-0.06700170263387246,0.07581899094703257,0.0575591104977879,0.5579617187857036,0.04338096772686761,-0.06437989371354189,0.4067171432791231,-0.12720318045771783,-0.635412173224254,0.4123388701729173,-0.11658993431640313,0.1935399947095095,0.08770000347015895,0.026658795200303783,-0.26921612737541273,0.03982814947274349,-0.16268147201250518,0.14333433579529434,-0.2198839886353725,-0.33050522014940564,-0.09874561808935588,4.953990022591374,0.04517897090588125,-0.09332481459601366,-0.2583421481605122,0.1670889471646792,-0.9132157030258548,-0.01872602832625862,0.3253071325723627,0.3266756834984639,-0.03367246323058331,0.20244122380631627,-0.07674271875065904,-0.13300782606006173,-0.17379133789882897,-0.42366407124905897,-0.005587081918794392,-0.7369995701529838,-0.009306591221181507,0.19024393284142052,0.009007388290158633,-0.07967127138350463,0.08872737412053687,-0.010728303330215823,-0.05886177385010524,0.06206367066649344,0.16597499555725914,-0.5782031419256465,0.09125444257111862,0.498274944418008,0.20903576987559963,-0.3593095791225792,1.3163760933965178,-0.17476093738405,0.015159594604980417,0.35820814548371593,-0.04798164963755799,-0.10023112950088718,-0.14997846013426272,0.1058493829063773,-0.16578865409515914,-0.09001498250957503,0.010484075778708574,-0.37618737752190096,0.15805811452680202,-0.009866685027051552,-0.32408946325530713,0.045557803087163666,0.25639726567556376,0.8516135749138655,0.23798809089407222,0.16177798289460524,-0.16669096648840973,-0.12775176793295107,-0.006671065658376407,0.12086500260720105,0.3014080889076147,0.14574533724948344,-0.03853661793364405,-0.15146800220645595,-0.24889157506457643,0.6111015714611728,0.04703649209448986,-0.021250726320063005,-0.025280969099498694,0.03398695871602998,-0.01760985720006938,-0.3071088592405936,0.4283977150218231,0.07247422261077188,-0.19723759955654804,0.027792149267873264,0.067436802615739,0.16590763136263373,-0.09688190282214215,0.02347528337990407,-0.25387708391766844,0.12499421700208285,-0.4279910571640157,-0.08456893159918388,0.2540338361124594,0.4315015592047768,-0.024069918389871086,-0.5212882384180096,-0.009113567177931223,0.2913347364229682,0.3667086258123452,0.5937439893737414,-0.45930651683896373,-0.14216505665158244,-0.00694127822884684,-0.3881795402717992,0.04384159592831007,-0.08133776359776113,-0.2172506526099465,0.2729126853509965,0.23856010000951786,0.07010904537561168,0.3106081633207232,0.47317550800153574,-0.02854397621070729,-4.668897004434216,-0.00329283883062906,0.03861270554243104,-0.13644897369836856,0.05293707700506021,8.271226471859173,0.6264524517302346,-0.7554652416112149,-0.1392772453905991,0.06426961738968118,0.17776376555414033,0.21709140164062019,-0.6078199271112096,0.4705504188349355,0.07970732268346888,-0.069851654875238,0.3088141696270066,-0.005239838993378856,0.08805256436833525,-0.16904297181028702,0.08380456466381121,0.024588782143607466,-0.0006856632599687657,0.21328392043372138,-0.1822142425148707,-0.05767678538869053,-0.11738273272221382,0.06282721359261134,0.02461502411457485,0.06585613247943223,-0.26763285049031466,0.2574756733493358,-0.2387856306478277,0.09800359429796383,0.006974908854950238,0.7909998081825627,0.16194481664905871,0.2564843566851844,-0.11794300495612453,0.07601914386357361,-0.12537375883978039,0.3275211832834167,0.202529769625294,-0.18243058488459307,-0.05472911455858812,-0.10334743984252366,-0.17422039344943044,-0.11342724367309434,0.28041764768435384,-0.010462189764756328,-0.2846762355415914,0.09711265904830765,-0.1502007778563412,-0.02028156331953656,-0.015454783352506832,1
Sample_GSM1317917,0.24333514219691565,-0.2598288738647875,0.3111877480781733,0.030127153071768872,0.39047144260996475,-0.07253566925837665,0.14037330226595376,-0.48882939031217404,-14.919195930700853,-0.15649024285138008,0.17390015439168838,-0.1170707507442072,0.3439585638120289,-0.048678138661620206,0.08336113633624295,-0.06478452328329924,0.09362445276523362,0.18972904857244874,-0.19881628991762526,0.34628797806431283,0.12545007808242836,-0.003521743543241881,-0.26204471281533614,0.16561769950982436,0.028137818427395822,0.05719791565316102,-0.009743071772617518,0.7294183149315584,0.06612951745810222,-0.0376064552739554,0.22341038620538906,-0.06431705831822981,-0.5927962927032578,0.428753328733293,-0.10444657434544197,0.11032443624534745,0.11410135169297217,0.04129768347874448,-0.28379265985807794,0.02954092396231991,-0.2727501090303,0.18698059938925993,-0.002089160705567072,-0.38690703343830024,-0.16660485717520762,5.09615012430674,-0.006487346990820827,-0.171008173081265,-0.1812005612721041,0.26050825118155585,-0.8402930439972156,-0.03458845517850609,0.2656740186383202,0.21265377069049488,-0.04844874775003597,0.253315618120178,-0.19778836384437412,0.02036113417878199,-0.2056703625573303,-0.3889662871334653,0.08488821016716751,-0.9103554487150054,-0.13262846745096307,0.17212267385608487,-0.00941819031752123,-0.0922864071421417,0.027000215763373133,-0.032923140937981286,-0.17664333748552277,0.09624936809197618,0.15304775699495604,-0.5558910227711574,0.1752839369014135,0.522011212661864,0.1194679573473564,-0.49455356205483464,0.9714284979506563,-0.3315452714965652,-0.07549400496891527,0.4982207876768693,0.007718141414936178,0.06416672875983538,-0.15031746145429561,0.16635805459965558,-0.14581927171684925,0.01254367610280771,0.1490348131595144,-0.5242452705528363,0.1743700362876471,0.14154715622394343,-0.41807044577523306,-0.03573798118219552,0.19532725700429984,0.7868009906239425,0.11148730950733253,0.09831701573242853,-0.2472263581179285,-0.2508104283326032,0.10223588708425288,0.0683888298677179,0.24340149262761293,0.11404808367502746,0.09645796614796365,-0.11951619462357667,-0.23765277205943877,0.6904690732001174,-0.015416883694478202,0.03600859921643334,0.028273226110127347,0.11126869768714001,0.009185228681400343,-0.23979130123373932,0.2820913191108061,0.07329591694367367,-0.12190411394040271,0.11368651774450993,0.1272589822972061,0.11804352246034,-0.1365670774462375,0.19857043175018388,-0.2642177337983924,0.07112719065624502,-0.4084402597871358,-0.0953206384228669,0.1506472840176462,0.245772812222193,-0.1217459632121036,-0.5634990525887952,-0.1799460559280555,0.29127210967869577,0.42644501653099603,0.5793057189838862,-0.4036546108714284,-0.23854536259974288,-0.018714143845104336,-0.13571902723137996,-0.003473600238179638,-0.11103008688702858,-0.23111995750789574,0.26500831588251794,0.2476653035236123,0.057009910067175804,0.45118423173421685,0.5504649562764873,-0.07284041840661291,-4.565634827989281,-0.012687408201071736,-0.01050511522946101,-0.1275924005840923,0.29366212387016805,8.280806659804101,0.6360868030443528,-0.695516157677654,-0.14339916107665523,0.03659910834191369,0.2755486236118084,0.23764519627597658,-0.5523837340682531,0.40572698597684975,-0.021306826831250462,0.04561981994681299,0.16992842163118121,-0.08493224380052902,-0.0021802774546559453,-0.07879526441809931,0.07576106604342635,0.09371668573395406,0.03954892372385733,0.08864774486035734,-0.11290409005275595,0.07010267898654775,-0.18089398178283478,0.0772369914825007,0.3550997904982602,0.0497598833827583,-0.10136725362494066,0.5058006016526339,-0.31896171995431166,0.024984427153718018,-0.018069068800730614,0.8223859144908215,0.25662612837778104,0.2701579164737926,-0.1473790757183752,0.045743576143355086,-0.15973481025540373,0.4172632770412997,-0.18181101979541808,-0.17734426116854846,0.04601567793460256,-0.04105701895301029,-0.10967653654973313,-0.05065292759136333,0.39198362728625413,0.033071455179772134,-0.3843238221787557,0.16718772384790537,-0.013901038466908839,-0.026838331262657025,-0.008843394426779132,1
Sample_GSM1317918,0.19387891841126748,-0.24164789074669094,0.3729518522632254,0.1221443614181223,0.31237358093723866,-0.02041611100796384,0.05543273895813533,-0.31157988681845533,-14.685137727772101,-0.21225548072442846,0.16720488255142116,0.0055713316992189055,0.06731807387980078,0.07413641433272784,-0.010856597911285496,-0.14564511563597088,-0.014100236492500072,0.18579531569437677,-0.2786938026385817,0.21157462334491606,0.062338686027147615,-0.012474715752456506,-0.02665880968103261,0.14656971492073573,-0.044974179799521063,0.06628480983617398,0.05817637702072089,0.5216867227849941,-0.08207279954383835,-0.05429661085129261,0.41766948793378006,-0.15643111645278016,-0.5257050255799158,0.35039856222652765,-0.12119807540497589,0.25036902266595024,-0.07423567245588546,0.04448290188169015,-0.06591100487290379,0.03829234743622254,-0.14396676869784844,0.09912065230083954,-0.1298531248933761,-0.3651772063061124,-0.19514917192306297,5.037864260610705,-0.06325626425500004,-0.10325027276745062,-0.20031938406901384,0.20061130378642453,-0.8915534297902118,-0.029489612207997555,0.2975991471117895,0.324896830635083,0.0444709255420565,0.07949296895260953,-0.04019981489373841,-0.18530600033311942,-0.26681614200988313,-0.4161846400500405,0.01647208845194197,-0.7224726701733919,-0.027313675448658318,0.2057780333411384,-0.01571206859411391,-0.007492181683721014,0.17389437864049853,-0.013770759187791146,-0.026485043431337903,0.019371750703669366,0.20853453389284732,-0.8183089270768176,0.04427894294846631,0.5004631179550337,0.0919942531033267,-0.28661998846725484,1.191397449834861,-0.252406963069265,-0.1853608495311635,0.26284193626079083,-0.04720220044902302,-0.08766641860106694,-0.07180451839935217,0.15843804763974087,-0.1765707247617447,-0.1029216033722448,0.031776569231574875,-0.2392082944506726,0.16048904847733433,-0.008581120183875055,-0.2680293784774787,0.05187700504338701,0.3514744460943847,0.9848191241099259,0.28895172753826026,0.16729830128945844,-0.09347985861532462,-0.17253844969413035,-0.11687249468737759,0.09402537224925427,0.33077747731416723,0.07030169268371379,0.06122917198378127,-0.11897159496140616,-0.16714906700182358,0.7371342623074282,0.002687612802024261,0.015181634123089075,-0.06604196434348879,0.005862467583427576,0.0774637374932843,-0.21013421136024285,0.32821199099014114,0.033183617452901146,0.02675922472373227,-0.09372508243334218,0.08502193106103921,0.2033334376348981,-0.08785549720604519,-0.021058536307504393,-0.181319810141538,0.02916376090771231,-0.32555771614037066,-0.11064648722037142,0.19219931825794875,0.5113819763381058,-0.08220363197036955,-0.6705357837973625,-0.06295420131800342,0.31940102989140146,0.307427601283193,0.40795897222546734,-0.4612533233000853,-0.1769475683276582,-0.022069822396271664,-0.4341839649025572,-0.02352639386358664,-0.1496979435371613,-0.16202676515978873,0.345568148305492,0.20572133826449046,0.09633090925819172,0.3117153480309508,0.4362736984065471,-0.023272110478072476,-4.689067346110486,0.10073932807874451,0.0660484958213475,-0.11171517337422451,0.014401920651463842,8.326240960687509,0.6565605525857643,-0.7635260358957477,-0.15475852203316248,-0.016362454735443045,0.1354390527946686,0.26619544642839454,-0.48452543056062203,0.44175055007359787,-0.004251418205647574,-0.11430877981462625,0.1864406522108543,-0.055680859921309174,0.10090509781756898,-0.07815030867838571,0.008287442862659916,-0.01824937589928279,0.01674209331285843,0.21263722631477697,-0.15188391843920768,-0.22726023687244928,-0.06619039838919452,0.05122081193923563,-0.014282022307327613,0.09519968167291788,-0.406946520173032,0.3889244892746415,-0.2195042367585608,0.05093504358968425,-0.004494045995394265,0.902795647908897,0.29743264029873107,0.29508557619376646,-0.1430345738901329,0.21303398919202024,0.03215644115448359,0.401344351224723,0.258916563770246,-0.07753607654459752,-0.045307239851707766,-0.19470064581441993,-0.24836712690207766,-0.03754757020433603,0.3175279373078048,-0.011596773195953876,-0.1050585023766312,0.11108229802708715,-0.15511613630743062,-0.06942532321511105,0.03510561456735295,1
Sample_GSM1317919,0.2288128269261215,-0.11199390692988503,0.30915605666002444,0.027375070018808626,0.3917997524508091,-0.013111472691358655,0.05439997161662684,-0.4984753572233487,-14.895382057902628,0.11976575236294265,0.18115091628373536,-0.01857549630946623,0.10052923819010044,0.08393173718404823,0.04732369618405059,-0.1979040231324502,-0.09631757041630062,0.16227316541024184,-0.35494062238243196,0.22271191826252162,0.08165207147067909,0.04201317914262807,-0.2166827644210979,0.07185172031268726,0.07104377990679935,0.1686249544796225,0.1423241352977187,0.779955728934051,-0.10368536542802298,-0.0381424939691593,0.24968901263864277,0.13607951895846201,-0.4893095911421851,0.35779126554053264,-0.3345262804072589,0.21401038650972926,0.05189686044293122,0.08037499371271006,-0.04913601315937425,0.07717615518140036,-0.20180419966788063,0.14074318638933456,-0.03884453526548963,-0.36263914922439483,-0.24731249297300334,5.299847674523011,0.017595897237745496,-0.07625176759957526,-0.22822578198327123,0.023405200313926528,-0.8365109656129196,0.23000152060525708,0.2968047445424068,0.13130983829808157,-0.07040094392299759,0.2624295864997806,-0.1610447589596526,-0.16151654149310687,-0.3407340752534525,-0.3885177524483712,0.060892856617437284,-0.8244845493652196,-0.10950542219873867,0.22110163785941328,-0.04371885719484722,-0.021922276074415038,0.12667244004322697,0.015362531863295142,0.08693179884188977,0.02809303210096487,0.13365494380633922,-0.9205836213244374,0.05873462554296877,0.6815658033958071,0.08283829112670657,-0.5355884266971684,0.9513830961958193,-0.7552788446912152,-0.2970105554150655,0.21114530107617863,-0.1292396812484745,-0.18586733622015814,-0.08763753394352422,0.06784619931305932,0.04245338763366474,-0.07646165113853749,-0.14353497647067878,-0.3613523318537318,0.05493228100022101,0.0631025348605305,-0.2546390070579184,-0.0027139052254123437,0.23108878055166868,0.9171723548149745,0.2762897138264819,0.10531063102606161,0.02699770688500421,-0.08131503857367474,0.15353200384807864,0.04021020902217382,0.24257772130113764,-0.11400315505940804,0.18343825675447067,-0.012571012317253308,-0.16516444473489353,0.8294459002155936,-0.04409159725474779,0.13446971473484112,-0.12887574080057732,0.02441045314565025,0.03511443980640804,-0.5347646352740807,0.1309594614709601,0.17573447354307012,0.09213112802963393,0.03868129294793359,0.10783555547516155,0.2480825726169942,-0.004337283650388008,0.2730259363370139,-0.14927001459810896,-0.018711500192345697,-0.35580713249036344,-0.07784366313176362,0.10684415830433155,0.2820896629259468,-0.19740478208048473,-0.807728521058536,-0.0896024224945239,0.2713874230904887,0.19660068814310455,0.16956613090253111,-0.3356342306794476,-0.5352454301036635,0.12253324757985094,-0.5121016640684881,-0.008597350045048583,-0.1742286985003941,-0.20493835824597717,0.3837342329822849,0.16130996212547846,0.038617512256282044,0.07478382910099358,0.31301948089194076,-0.06449842631112115,-4.423298929622114,0.029100680009953923,0.03215695937176638,-0.058022764436535305,0.40789605864926476,8.492254996333227,0.7449882517915557,-0.7076413992734881,-0.23657740030745972,0.013320225024398441,-0.03398303940981363,0.2650123805608316,-0.3418636379934712,0.34315688897881524,-0.1010278333502773,-0.0801608484662267,0.0772719252688807,-0.16420870791541187,-0.03221422724323377,-0.0010815361186753663,0.08726493387485705,0.09609371099693277,-0.06508684467209122,0.1028380196222167,-0.0772384491875197,-0.0715680153815862,-0.22560794464665804,-0.05621502825116457,0.14054955608243527,0.014447352692566114,-0.6432720484148274,0.3932342944945731,-0.04750606456678279,0.06153875681345219,0.07225978211981209,0.8186258281025014,0.2568608775571147,0.19320298980508485,-0.21677563006499026,0.3025333069994297,-0.07176226484025192,0.500286159443024,0.0377896364523972,-0.12257292558977267,0.1153929617299498,-0.05154903255036126,-0.23686667947843226,-0.04198057546459378,0.4162649693342914,-0.1734073428254081,-0.229252991129077,0.23338164336530737,-0.08775643434275812,0.0588235681489712,0.08844309716201924,1
